0.012381413020193577 0.03236847743391991 0.006082718260586262 0.041260216385126114 -0.020039839670062065 0.021426616236567497 0.011567112058401108 -0.0032832585275173187 0.04294520616531372 0.004474416840821505 0.03970368206501007 -0.016217799857258797 -1.602455995453056e-05 0.0021907465998083353 -0.03840063139796257 0.01857094094157219 -0.044475819915533066 0.0029158007819205523 0.006329488940536976 0.00954638421535492 0.014843009412288666 -0.030094295740127563 -0.0007103919633664191 -0.030389240011572838 0.019666921347379684 -0.0065992362797260284 0.017706772312521935 0.00908519048243761 -0.002403777791187167 0.0009869904024526477 0.0014098852407187223 0.00190372031647712 -0.0034294791985303164 -0.020212575793266296 -0.01002274639904499 -0.02504020929336548 0.010048235766589642 0.01529560424387455 0.006110420450568199 0.019079970195889473 -0.018628858029842377 -0.030741296708583832 -0.01503225788474083 -0.0028239984530955553 -0.02676142379641533 0.030612928792834282 -0.006586396135389805 -0.019429685547947884 -0.0005156963015906513 -0.028175024315714836 -0.019702745601534843 0.03453323245048523 -0.01013950351625681 -0.051407407969236374 0.007687599863857031 -0.0015685175312682986 -0.0050868201069533825 0.001757656573317945 -0.022603556513786316 -0.0219267550855875 0.0066923173144459724 0.010457007214426994 0.037642598152160645 -0.001625961042009294 0.028667433187365532 -0.025413457304239273 -0.001737038022838533 -0.00900062546133995 -0.026122093200683594 0.01662902906537056 -0.04825897514820099 -0.04623670130968094 0.025493040680885315 -0.008557233959436417 -0.0036024218425154686 0.020775433629751205 -0.029813215136528015 0.024478480219841003 -0.008241264149546623 -0.022394463419914246 0.002005077665671706 -0.015337549149990082 0.024490665644407272 -0.023365329951047897 -0.014104735106229782 -0.014356965199112892 0.021409854292869568 -0.059019897133111954 0.011656494811177254 -0.028458217158913612 -0.0039006401784718037 -0.03866568207740784 -0.00860048271715641 -0.05105183273553848 -0.035919513553380966 -0.00306659284979105 -0.016220366582274437 -0.00954747200012207 0.0031537972390651703 0.021126639097929 -0.02289624884724617 -0.024493925273418427 0.006012628320604563 -0.011721105314791203 0.026073837652802467 0.028071271255612373 -0.013821911066770554 -0.006656224373728037 0.028687497600913048 -0.013555474579334259 0.05175240710377693 0.004114482551813126 0.0148903988301754 -0.006661903578788042 -0.005861773621290922 -0.003756399266421795 0.010848348960280418 0.007544539403170347 0.019506443291902542 -0.003241530153900385 0.036308404058218 0.0034887802321463823 0.005558906123042107 -0.01199554093182087 -0.011977543123066425 -0.006674533244222403 0.01505756564438343 0.014913666993379593 -0.004782884381711483 -0.005112857557833195 -0.017374150454998016 -0.013318226672708988 0.025244301185011864 -0.007520757149904966 -0.028726400807499886 0.01413420494645834 -0.022061707451939583 0.007704305928200483 -0.015079701319336891 -0.017740286886692047 0.05022437870502472 -0.01918611489236355 -0.009787220507860184 0.017088886350393295 0.01728408969938755 -0.016886837780475616 -0.02046249993145466 -0.028149602934718132 -0.017183268442749977 0.012380498461425304 0.007394791580736637 -0.007331021595746279 0.0388849712908268 0.027250491082668304 0.04851074889302254 0.036123380064964294 0.007827413268387318 -0.0017534606158733368 0.01180423516780138 0.024895278736948967 0.025275535881519318 0.011013870127499104 -0.008321150206029415 -0.03277222812175751 -0.016411829739809036 0.000549414602573961 0.004644885193556547 0.02478259801864624 -0.018535105511546135 0.030830977484583855 0.01697475090622902 -0.00026032820460386574 -0.021376701071858406 -0.006616375874727964 0.019250545650720596 0.012479403987526894 0.04015732929110527 0.0083064716309309 0.015830855816602707 0.015978727489709854 0.006693617906421423 0.009963393211364746 -0.0023506826255470514 -0.004621380474418402 -0.013029295951128006 -0.006713148672133684 -0.04601579159498215 -0.038307204842567444 0.024233302101492882 -0.01171089056879282 -0.006720337551087141 0.016256919130682945 -0.007767573930323124 -0.026015717536211014 0.0012492157984524965 0.013358309864997864 -0.012130476534366608 0.022467700764536858 0.016572482883930206 -0.0014537032693624496 -0.011365302838385105 -0.01174967922270298 -0.010430829599499702 0.0059311166405677795 -0.024969980120658875 -0.020785296335816383 0.008685407228767872 -0.0077416556887328625 -0.015654200688004494 0.009049803018569946 -0.008324302732944489 -0.02957916632294655 -0.03824695572257042 0.01962895132601261 0.038859590888023376 0.023226426914334297 0.01279652863740921 0.05934068560600281 0.01021144725382328 -0.019893603399395943 -0.011714797466993332 -0.015750175341963768 0.02167409285902977 -0.03773003816604614 -0.012356054037809372 -0.03378719091415405 0.0005980736459605396 -0.024640729650855064 0.004204526077955961 -0.027684345841407776 0.04468299821019173 -0.030701907351613045 0.010856171138584614 -0.034438807517290115 0.039399851113557816 -0.012663241475820541 0.030666103586554527 0.0050860075280070305 0.04130442440509796 0.01880996860563755 0.007145441137254238 0.0007258110563270748 -0.018020182847976685 0.007136092521250248 -0.015037228353321552 -0.018021423369646072 0.026346348226070404 -0.0032535307109355927 0.0022766587790101767 -0.01664750836789608 -0.0029177889227867126 0.02658749558031559 -0.011977171525359154 0.03265592083334923 -0.038452330976724625 0.018181907013058662 0.01597568951547146 0.029859576374292374 -0.024688037112355232 -0.009706993587315083 -0.02941695787012577 0.02133033610880375 0.03426222875714302 0.0012615520972758532 0.003002864308655262 -0.014372647739946842 -0.02778482995927334 -0.038463294506073 0.03650965914130211 -0.031096255406737328 -0.007673556450754404 -0.03293715789914131 0.01148935779929161 -0.022379988804459572 0.007506713271141052 -0.03375356271862984 -0.021339472383260727 -0.010009611025452614 -0.015171295031905174 -0.035755135118961334 0.0033457546960562468 -0.008092760108411312 0.01974567025899887 -0.027814745903015137 0.009578309953212738 -0.011631282046437263 0.016889367252588272 -0.013790049590170383 0.018216772004961967 0.0016974395839497447 -0.0385860875248909 -0.01148788258433342 -0.012458269484341145 0.007015938870608807 -0.00755984615534544 0.0141775943338871 0.00045123870950192213 0.012258894741535187 -0.023341737687587738 0.011524423025548458 -0.008577444590628147 0.004126077517867088 0.018485506996512413 0.002260497771203518 -0.019867775961756706 0.005382697097957134 -0.004577081650495529 0.013220535591244698 -0.0278159212321043 0.004019012209028006 0.030656898394227028 0.018452949821949005 -0.006408531218767166 -0.011621172539889812 0.01610403321683407 0.025362256914377213 -0.006502795964479446 -0.05425014719367027 0.04374620318412781 -0.007618879899382591 0.011227662675082684 -0.04238371551036835 -0.00302247516810894 0.0074789258651435375 0.0418790727853775 -0.017818894237279892 0.02727912738919258 0.0301581509411335 -0.02856462448835373 -0.01373040396720171 0.00046739765093661845 -0.00890202447772026 0.018696507439017296 0.011480282992124557 -0.013759937137365341 0.023512588813900948 -0.007799304090440273 0.0323355533182621 -0.005720615386962891 0.04141787067055702 -0.00031458199373446405 0.01632172241806984 -0.03242025151848793 -0.003566229250282049 0.03137952834367752 -0.022655414417386055 0.013157887384295464 0.022055350244045258 0.008906977251172066 0.01980266533792019 -0.004198109265416861 -0.0034944633953273296 0.004819576628506184 0.012214616872370243 -0.013735363259911537 -0.002577121602371335 -0.02714836411178112 -0.013196655549108982 -0.005830296315252781 0.020025158300995827 -0.031135858967900276 -0.030503734946250916 0.009282717481255531 -0.008962081745266914 -0.014008729718625546 0.02821211889386177 -0.015180520713329315 0.01919332891702652 -0.013203234411776066 -0.008023575879633427 0.027819156646728516 0.04306848719716072 -0.04753890633583069 -0.03558859974145889 -0.005658965092152357 0.01904120109975338 0.0012018573470413685 -0.04762423411011696 -0.004836698062717915 -0.020075852051377296 0.024008048698306084 0.03632605820894241 -0.00027221778873354197 0.019317131489515305 0.03600210323929787 0.025590548291802406 0.002933452371507883 -0.0459635928273201 -0.000734608038328588 -0.028261395171284676 0.01906161941587925 -0.01607498899102211 0.00897971261292696 0.006909819785505533 0.009528998285531998 0.03861876577138901 -0.01873171702027321 0.008127291686832905 -0.01370309293270111 -0.020051950588822365 0.04068060964345932 -0.003247570712119341 -0.02489239163696766 -0.023689279332756996 0.021788684651255608 0.0015005349414423108 -0.019531963393092155 0.027655385434627533 -0.011501620523631573 -0.02350085973739624 -0.020865125581622124 -0.03516408056020737 0.021767133846879005 0.009268857538700104 0.01869926042854786 -0.026975778862833977 0.015833048149943352 0.029899032786488533 -0.015833498910069466 0.022039789706468582 0.03392457216978073 -0.02321242168545723 -0.0110999820753932 -0.0023641802836209536 0.006723200902342796 -0.007395752239972353 -0.02692270092666149 0.016613105311989784 -0.019319895654916763 0.026426145806908607 -0.019926397129893303 -0.045159876346588135 0.025424206629395485 0.0010525195393711329 -0.014501189813017845 0.0021543793845921755 0.0011226924834772944 -0.04964558780193329 0.03278703987598419 0.002757053356617689 0.004297836218029261 0.0029350686818361282 0.0026621564757078886 -0.011641446501016617 -0.010531270876526833 0.003530413843691349 0.00461383955553174 0.026168426498770714 -0.0470522940158844 -0.017972668632864952 -0.028672510758042336 0.018993081524968147 -0.005899769254028797 -0.009725741110742092 -0.009802800603210926 0.021339748054742813 0.015402665361762047 -0.0015775508945807815 -0.00781573448330164 -0.019193116575479507 -0.003567087696865201 0.0018857973627746105 -0.012621263042092323 -0.011362212710082531 0.00699751079082489 0.005792679265141487 -0.013910683803260326 0.014339505694806576 0.009476995095610619 0.026457542553544044 -0.009495123289525509 -0.01672159880399704 0.029674768447875977 -0.018074218183755875 -0.007818658836185932 0.008632548153400421 -0.0024971344973891973 -0.004886366426944733 0.03284858539700508 -0.0002620652667246759 0.02129194885492325 0.009223423898220062 -0.06012753024697304 -0.005576597061008215 -0.008005601353943348 -0.011949104256927967 0.004287612158805132 -0.005772729869931936 -0.007977524772286415 0.014239761047065258 -0.00678150774911046 -0.020588641986250877 0.04841570928692818 -0.022139757871627808 0.04212383180856705 -0.0045662373304367065 0.012005932629108429 0.048437487334012985 -0.026352770626544952 0.01315789483487606 0.008375926874577999 0.01829678565263748 -0.004016726277768612 0.01206702459603548 -0.016725894063711166 0.0033017280511558056 0.011046783067286015 -0.014794128946959972 -0.013463822193443775 0.0029699767474085093 0.005264714825898409 0.00027299748035147786 0.014958537183701992 0.002728742780163884 0.009215683676302433 -0.0001286307378904894 0.010585318319499493 -0.019989803433418274 0.01960711181163788 0.02488851174712181 -0.005877610761672258 -0.0066844564862549305 0.018281418830156326 0.006697771139442921 -0.0008162652375176549 0.02004977874457836 0.006466606166213751 -0.02347661554813385 0.00015242636436596513 0.05017409473657608 -0.005902226082980633 -0.0057848552241921425 0.037258513271808624 0.004387392196804285 0.02047840692102909 -0.02088937908411026 0.010579310357570648 0.025620626285672188 -0.004066370893269777 -0.0014179055579006672 -0.01288266945630312 -0.004630145151168108 -0.017762327566742897 0.024433162063360214 0.05471793934702873 -0.008728887885808945 0.007034397218376398 -0.0042883181013166904 0.002786913886666298 0.0023555532097816467 -0.0029506883583962917 0.014161788858473301 -0.02692713402211666 -0.04568864777684212 -0.022717168554663658 0.008466978557407856 -0.012571008875966072 -0.020568694919347763 0.002080600243061781 0.012237724848091602 0.005925803445279598 0.01570138894021511 0.018223950639367104 -0.01824921928346157 0.022000426426529884 0.029865343123674393 0.009820200502872467 -0.00375939067453146 -0.0576690211892128 -0.023297175765037537 -0.006356874480843544 -0.0071349116042256355 -0.0015942699974402785 -0.005078725516796112 0.012923935428261757 0.008819879963994026 0.02351292409002781 -0.015579447150230408 -0.007829534821212292 -0.02757234312593937 -0.01669870875775814 0.00010273559018969536 -0.008725801482796669 -0.009259532205760479 0.001929998048581183 0.007253789808601141 0.023643720895051956 0.010230986401438713 -0.02178746834397316 -0.0190857145935297 0.007078560534864664 0.012023910880088806 -0.005423606373369694 -0.0033024528529495 -0.027640067040920258 -0.03770555183291435 0.007064769044518471 -0.015877975150942802 -0.02989688515663147 0.004814404062926769 -0.0022699066903442144 0.03118038736283779 0.028631992638111115 -0.026523778215050697 0.029229409992694855 -0.004424575250595808 0.01651649735867977 0.03181958943605423 0.023610126227140427 -0.01369643397629261 -0.03308172523975372 0.024104023352265358 0.0036916369572281837 -0.006397893652319908 -0.001080141169950366 -0.0008885140414349735 0.015435840003192425 -0.00846587773412466 -0.011628425680100918 -0.03722227364778519 0.0513802208006382 -0.00258454866707325 -0.01873771660029888 0.03157477825880051 0.02101845107972622 0.02392653375864029 -0.026392430067062378 -0.01843399927020073 -0.012861179187893867 -0.0037874982226639986 0.014189250767230988 0.06300035864114761 -0.0016407665098086 0.04157782346010208 -0.009379560127854347 -0.0012671028962358832 0.02956688590347767 -0.029816552996635437 0.026479704305529594 0.010598639026284218 -0.020626334473490715 -0.028670743107795715 -0.04141571372747421 0.04256758093833923 0.005437083542346954 -0.04174146428704262 0.007989359088242054 -0.014558825641870499 -0.0010487850522622466 -0.0010552860330790281 -0.05163160711526871 -0.013949689455330372 0.019820181652903557 -0.02264736220240593 -0.00040937226731330156 0.012298560701310635 -0.015415210276842117 0.01478478405624628 0.0077219451777637005 -0.0026718054432421923 -0.029862379655241966 -0.0007592977490276098 -0.004931859206408262 -0.008250084705650806 -0.017550719901919365 -0.019131572917103767 -0.00490344176068902 0.012102769687771797 0.02425558865070343 -0.005601193755865097 0.006730381865054369 -0.019914710894227028 -0.0005744555382989347 -0.004015850368887186 -0.025775091722607613 -0.007916944101452827 0.021581172943115234 -0.015023919753730297 -0.019517000764608383 0.017746245488524437 0.032024938613176346 0.014479188248515129 0.030180752277374268 0.03623446449637413 0.013148722238838673 -0.03165789321064949 0.0029923301190137863 -0.005492000840604305 0.022016506642103195 -0.010110447183251381 0.017402345314621925 0.009382965974509716 0.0027758199721574783 -0.0016449252143502235 0.023945918306708336 -0.00010302026203135028 0.010124956257641315 0.002209957456216216 0.007906176149845123 -0.02716144174337387 -0.011803281493484974 -0.0033292591106146574 -0.02500334568321705 0.016052350401878357 -0.027227388694882393 0.007678670343011618 -0.019062774255871773 0.024768628180027008 -0.0006187554681673646 -0.021377932280302048 0.014318324625492096 0.0031855187844485044 0.02740737609565258 -0.03213296830654144 0.0031916198786348104 0.009047563187777996 -0.02099611610174179 0.04011931270360947 -0.026695286855101585 -0.005070140585303307 -0.006034750025719404 -0.0014933543279767036 -0.007437862455844879 -0.0004123146354686469 0.025207817554473877 -0.0007167309522628784 0.03249165415763855 -0.022660179063677788 -0.014543264172971249 0.026832211762666702 0.025169583037495613 -0.006508211605250835 -0.032771144062280655 -0.011025624349713326 0.05531030520796776 0.010010496713221073 -0.006490497849881649 0.008111665025353432 -0.008966711349785328 0.0344763919711113 -0.0005586111219599843 -0.016957450658082962 -0.05116061866283417 -0.022403424605727196 0.017548909410834312 0.009414623491466045 -0.033179692924022675 -0.004240012262016535 0.006920968648046255 0.015589109621942043 0.022503767162561417 0.016217276453971863 0.019871311262249947 -0.0007341171731241047 -0.020460745319724083 0.017416035756468773 -0.002464143792167306 0.0016902305651456118 0.008995963260531425 -0.01017513033002615 -0.007450796198099852 0.0022803929168730974 0.024929050356149673 -0.013593555428087711 -0.00033018365502357483 -0.030874699354171753 -0.00868756789714098 0.03897601366043091 -0.04448850452899933 -0.007664291653782129 0.0006102140760049224 0.012642388232052326 0.021557793021202087 0.016060180962085724 -0.010347388684749603 0.015382559038698673 0.018579678609967232 0.0011810606811195612 -0.015813132748007774 0.033819977194070816 -0.007669505663216114 -0.004018926061689854 -0.0021158261224627495 0.03408847749233246 0.014074667356908321 -0.004821466282010078 -0.018306303769350052 -0.027556102722883224 0.014273562468588352 0.006084032356739044 -0.009013478644192219 -0.007906806655228138 0.01388698909431696 -0.032307837158441544 -0.0033389523159712553 0.02501593343913555 0.011889236979186535 -0.003594388486817479 0.04218602925539017 -0.015580089762806892 0.02260943315923214 -0.005669164936989546 0.0400136299431324 0.005329563282430172 -0.003199472092092037 -0.0198280680924654 0.0018919740105047822 0.009314402006566525 0.035009101033210754 -0.001958918757736683 0.03226511925458908 -0.019055388867855072 -0.02161152847111225 -0.014140794984996319 -0.019913487136363983 0.016146177425980568 0.0025787127669900656 -0.004501787945628166 0.003921864088624716 0.01989084854722023 0.0023059851955622435 -0.002405214123427868 0.0028452775441110134 -0.007765964604914188 0.03221343830227852 0.022781874984502792 0.058296479284763336 0.009827028959989548 -0.03614805266261101 -0.014631387777626514 -0.03781963512301445 -0.030762892216444016 -0.0027130362577736378 -0.012117139995098114 -0.038402967154979706 0.0033814236521720886 9.808700269786641e-05 0.005445529706776142 -0.009561264887452126 -0.017156124114990234 -0.03489058464765549 0.0003988140670116991 -0.0046569472178816795 -0.002304898342117667 -0.0434286929666996 -0.010615798644721508 0.0010940200882032514 0.006013030186295509 -0.020589139312505722 0.03878474608063698 -0.013736746273934841 0.012693182565271854 -0.01957567408680916 0.038149766623973846 -0.005411072168499231 -0.01780763454735279 0.03711841255426407 0.012672428973019123 -0.03982285037636757 0.027438918128609657 -0.0388665497303009 0.01791968196630478 -0.007184042129665613 0.02215501479804516 0.02398819662630558 -0.01524605043232441 0.01013736892491579 -0.029851535335183144 0.02584717981517315 0.046607308089733124 -0.0035457382909953594 0.019008630886673927 -0.013276727870106697 -0.004164934158325195 -0.0013896228047087789 0.014945809729397297 0.0160055048763752 -0.013683105818927288 -0.008170319721102715 0.018249182030558586 -0.012077548541128635 0.011672948487102985 0.008858945220708847 0.01286051794886589 0.00932304747402668 -0.018249724060297012 -0.009334438480436802 0.04415317624807358 0.025099042803049088 -0.015230688266456127 0.02982693538069725 -0.013054789043962955 0.014840297400951385 0.003810771508142352 -0.0195295587182045 0.00538589945062995 -0.012309938669204712 -0.005217833910137415 -0.007085228804498911 -0.03526533395051956 3.782529802265344e-06 -0.01524200476706028 0.021315965801477432 0.04836643859744072 -0.04576331004500389 0.009213315322995186 -0.0076471008360385895 0.03606046363711357 -0.04630187153816223 0.025872956961393356 0.0031460507307201624 0.007895521819591522 0.006452946923673153 0.004035050515085459 0.00448156101629138 -0.035556524991989136 0.037851396948099136 0.0004697710392065346 0.013365386053919792 -0.02966025285422802 0.015743913128972054 -0.025955649092793465 -0.023251496255397797 0.011529942974448204 0.009774928912520409 -0.011343233287334442 0.009623595513403416 0.024480199441313744 -0.038084059953689575 0.015515241771936417 0.015378464944660664 -0.02950511872768402 -0.006519352551549673 0.014339343644678593 -0.01932915300130844 0.017391981557011604 0.00956708937883377 0.03099587932229042 -0.026016606017947197 -0.03397207334637642 0.0152030223980546 0.019131001085042953 0.022410118952393532 0.013634128496050835 0.006470674183219671 -0.03734017163515091 0.033511918038129807 -0.02929193340241909 0.001365496776998043 -0.00024733846657909453 0.03077772818505764 0.031639594584703445 -0.01831955648958683 -0.006561447866261005 0.015078111551702023 -0.008966040797531605 -0.0008625041809864342 -0.0121426060795784 -0.029806822538375854 0.0050356341525912285 -0.0028807471971958876 -0.009277939796447754 0.010824553668498993 -0.030473483726382256 0.04799451306462288 -0.009579841047525406 -0.0036458272952586412 -0.019040357321500778 -0.020573507994413376 0.006771809421479702 -0.039463672786951065 0.005497326608747244 -0.00035269386717118323 0.0015904487809166312 -0.017524540424346924 -0.008154571987688541 0.02630598284304142 0.0033044482115656137 0.04914741963148117 0.028056008741259575 -0.011429481208324432 -0.005375284235924482 0.026121290400624275 0.025352718308568 -0.003156712744385004 0.017900165170431137 0.027948828414082527 0.03855561465024948 -0.0339694581925869 -0.018495658412575722 -0.00302345072850585 -0.007558927405625582 0.023109255358576775 -0.015617599710822105 0.003155551152303815 0.01438870094716549 0.017305539920926094 0.02402561530470848 -0.034018922597169876 0.0002027259033638984 0.02147448994219303 0.004536904860287905 -0.05479329451918602 -0.016561685130000114 0.0017705250065773726 -0.006345048546791077 -0.008237859234213829 -0.029271597042679787 0.0026039178483188152 -0.018331041559576988 -0.015348372980952263 -0.016205213963985443 0.01612136885523796 -0.038250118494033813 0.04338425025343895 -0.034475550055503845 0.01817505992949009 -0.019899921491742134 -0.019534341990947723 0.006651568226516247 -0.04291092976927757 0.006546465680003166 5.731939381803386e-05 0.00630364241078496 -0.014881829731166363 -0.017370672896504402 -0.022599387913942337 -0.001166411442682147 0.019805077463388443 -0.015214570797979832 0.009670891799032688 0.014521907083690166 0.017693588510155678 0.006764090619981289 -0.013212193734943867 0.0235382542014122 0.004019098822027445 -0.016873421147465706 0.02032914198935032 -0.014112078584730625 -0.003155315760523081 -0.0233087707310915 -0.0003859418793581426 -0.00865563377737999 0.009530318900942802 -0.010712687857449055 -0.024945270270109177 -0.01395442709326744 -0.0451982282102108 -0.003772117430344224 0.013811463490128517 -0.008024506270885468 0.0034474979620426893 0.0009176246821880341 0.020834611728787422 -0.0076064132153987885 0.032370954751968384 -0.011609054170548916 -0.0015482957242056727 0.014053970575332642 0.00648905336856842 -0.03317482769489288 0.01547746080905199 -0.017296670004725456 -0.00013818185834679753 -0.005653470754623413 -0.011875263415277004 0.02126714587211609 -0.013795352540910244 0.025575976818799973 -0.01563861034810543 -0.008221731521189213 0.005240035708993673 0.0065221646800637245 -0.010401668027043343 0.02311248891055584 -0.00041060050716623664 0.013453349471092224 -0.0066721779294312 -0.014223682694137096 -0.02336505427956581 0.026045680046081543 0.0074922507628798485 -0.015306323766708374 -0.0009873927338048816 0.0027447957545518875 0.00552718061953783 -0.02024070918560028 -0.027205226942896843 -0.028545984998345375 -0.03381284326314926 0.007813123054802418 0.0040760524570941925 -0.013748531229794025 0.028897106647491455 0.008174494840204716 0.02410278469324112 -0.0029555903747677803 -0.024743299931287766 -0.0212177075445652 -0.00036123988684266806 -0.001564904348924756 0.015005670487880707 -0.00047222402645274997 0.00701501639559865 -0.02766614966094494 -0.013269576244056225 -0.033907271921634674 -0.04363618046045303 0.019457511603832245 -0.016853217035531998 -8.215261004806962e-06 0.007934530265629292 -0.004008140414953232 0.0019995335023850203 -0.012155067175626755 -0.0018201922066509724 -0.007916323840618134 -0.022870667278766632 0.00031744220177643 0.03352171555161476 -0.014943037182092667 -0.065389484167099 -0.011117832735180855 -0.0030210628174245358 -0.026678474619984627 0.013838694430887699 -0.014770126901566982 -0.005024766083806753 -0.03932545706629753 -0.006449438165873289 0.02415567822754383 -0.015870507806539536 0.0584612600505352 0.0014142985455691814 0.02136102318763733 -2.8522257707663812e-05 -0.006583983078598976 0.03193708509206772 -0.03898704797029495 -0.027046533301472664 0.004045277368277311 -0.014679685235023499 0.005376252345740795 0.02786952815949917 -0.014778273180127144 -0.0038108674343675375 0.004446238745003939 0.01882479153573513 -0.02103092521429062 0.012880814261734486 0.010601243935525417 -0.011299986392259598 -0.03588162735104561 -0.018435826525092125 0.006026218179613352 0.014128769747912884 0.010913576930761337 0.013027762062847614 0.023197295144200325 -0.028009366244077682 0.013857897371053696 0.0014261621981859207 0.0031876086723059416 0.02543667145073414 0.042776916176080704 0.001312208827584982 -0.0036763588432222605 -0.013185880146920681 -0.034135203808546066 0.0038834642618894577 -0.026229117065668106 -0.013919688761234283 -0.009350630454719067 -0.0004966390551999211 -0.030437475070357323 0.00688563659787178 0.029118960723280907 0.021195271983742714 0.03193412348628044 0.026309959590435028 0.021107211709022522 -0.05329481512308121 -0.03388874605298042 -0.013219419866800308 -0.02747204527258873 0.02933144010603428 -0.009923627600073814 0.0005854367627762258 0.010404015891253948 -0.07228303700685501 -0.0040508052334189415 0.0451405867934227 -0.028362415730953217 0.012495584785938263 0.028461990877985954 0.0014235302805900574 0.011434930376708508 0.010108578950166702 -0.008148224093019962 -0.03689081594347954 -0.003374472027644515 -0.021541323512792587 -0.02851169742643833 0.025989236310124397 -0.007179764565080404 -0.012183627113699913 -0.01941566914319992 -0.007517000660300255 0.03824890777468681 -0.01410836260765791 -0.0028425948694348335 0.024645809084177017 -0.006379015743732452 -0.014036272652447224 -0.001634090906009078 -0.006903317291289568 -0.008316992782056332 -0.0011330227134749293 -0.008413217030465603 -0.038278110325336456 0.026576420292258263 -0.00796107854694128 0.002315602032467723 -0.03289715200662613 0.015412546694278717 -0.0025850110687315464 -0.043783802539110184 0.03401527926325798 0.0016677642706781626 0.008320610038936138 0.01795979030430317 0.005897630006074905 0.007249550428241491 -0.016316324472427368 -0.03385401889681816 0.018814416602253914 0.005834218580275774 0.005789205431938171 -0.060284778475761414 0.000468431506305933 0.02652462013065815 0.0013795746490359306 0.0339408777654171 0.01098496001213789 0.01057619322091341 0.008593861944973469 -0.03518729656934738 -0.010523472912609577 0.005237538833171129 0.012421232648193836 0.018944041803479195 0.03779581934213638 -0.03328360989689827 0.006870502606034279 -0.02130083739757538 -0.008567625656723976 -0.004675347823649645 -0.005026661790907383 -0.03657713159918785 0.02693828195333481 0.026719488203525543 -0.0030005276203155518 0.0138195576146245 0.01751498319208622 -0.0366542749106884 0.01965305209159851 -0.008378040976822376 0.03797150403261185 0.0011593821691349149 -0.01153538003563881 0.016500281170010567 0.0009594799485057592 0.006302976980805397 0.024129044264554977 0.055467650294303894 -0.0018899297574535012 0.01161384116858244 -0.0067312223836779594 0.006364714819937944 0.02917058765888214 0.005307096056640148 0.00872358214110136 0.014226487837731838 -0.0074042463675141335 0.0016989916330203414 0.01585840806365013 -0.00847388431429863 -0.00028076409944333136 -0.008765671402215958 -0.006944704335182905 0.01613282412290573 -0.01384008675813675 0.017941078171133995 0.008576465770602226 0.019157463684678078 -0.05510075390338898 -0.01908258907496929 0.03687642887234688 0.005981698166579008 -0.01087438128888607 0.02466914802789688 0.009090371429920197 0.031745731830596924 0.008386514149606228 0.01934409700334072 0.003044989425688982 0.03848057612776756 -0.0007601049728691578 0.01891120709478855 -0.0048783221282064915 0.014894615858793259 0.003669445402920246 -0.005383356940001249 0.003416107501834631 -0.001646092627197504 0.009381445124745369 0.018647605553269386 -0.04416937008500099 -0.008909657597541809 -0.036637838929891586 -0.06199753284454346 -0.030894462019205093 -0.005634884815663099 -0.02597210183739662 0.025223199278116226 0.017482835799455643 -0.04067058861255646 0.027866728603839874 -0.018077798187732697 -0.05818551033735275 0.021244322881102562 -0.0025491081178188324 0.01113438792526722 0.009564070962369442 0.0021058639977127314 -0.003508483525365591 -0.03718725964426994 0.02194267325103283 -0.009595612995326519 -0.009127948433160782 0.0015967703657224774 -0.017210470512509346 -0.0014664380578324199 -0.006191291846334934 -0.002063210355117917 -0.00960397906601429 -0.03183168172836304 0.023797212168574333 0.008152368478477001 0.022135071456432343 -0.03506596386432648 0.01916041597723961 -0.04175831750035286 0.002363455481827259 -0.011341530829668045 -0.011601882055401802 0.00733769778162241 0.002106508007273078 0.028424415737390518 0.002567355055361986 -0.03333687782287598 -0.004006810020655394 0.009708373807370663 -0.007771586533635855 -0.001993826124817133 -0.027855461463332176 0.02507505938410759 0.007991640828549862 -0.015082295052707195 0.028059804812073708 -0.0022310938220471144 0.010820276103913784 -0.014140613377094269 0.01871745102107525 0.0009376113303005695 -0.0031703815329819918 0.027940716594457626 0.005366362165659666 0.027956515550613403 -0.01232124026864767 -0.045160531997680664 -0.0121454494073987 0.010381358675658703 0.015506970696151257 -0.03801094740629196 0.017991280183196068 0.03429996594786644 -0.004693261813372374 -0.03266054019331932 -0.020523840561509132 0.016523754224181175 0.031987499445676804 -0.010884902440011501 0.03561316803097725 -0.005372930783778429 0.025833792984485626 -0.01844865269958973 -0.022050024941563606 0.034937042742967606 -0.03795429319143295 -0.027148377150297165 0.027117978781461716 0.00992096122354269 0.030454764142632484 0.01932564005255699 0.00079453265061602 0.017073195427656174 0.006132911425083876 0.0126859275624156 -0.00273096258752048 -0.01106761209666729 0.005277572199702263 -0.011048748157918453 -0.023496510460972786 0.011895018629729748 0.0035419741179794073 -0.007558021694421768 0.024476563557982445 -0.010443438775837421 0.0016605043783783913 0.03234197571873665 -0.0011341477511450648 0.028421925380825996 -0.019656237214803696 -0.001102138077840209 -0.0035793480928987265 0.04239203780889511 0.01625121757388115 0.004373738542199135 -0.010033436119556427 -0.028516853228211403 -0.020650584250688553 0.009388886392116547 -0.04749416932463646 0.015933560207486153 -0.010044491849839687 0.00620241416618228 0.015929201617836952 0.0536690428853035 -0.023443911224603653 -0.010470572859048843 0.011141227558255196 -0.01787838339805603 0.021954230964183807 0.005353943444788456 -0.02113158628344536 -0.0034079873003065586 -0.03334375098347664 0.0016317995032295585 -0.015069886110723019 0.019218193367123604 0.01966731809079647 0.029116099700331688 -0.014185518957674503 -0.010758481919765472 -0.00063638313440606 0.029787585139274597 0.010079493746161461 -0.011322085745632648 -0.0033074927050620317 -0.012020942755043507 -0.04568488523364067 0.010043093003332615 0.009618286043405533 0.0649249404668808 -0.008813133463263512 -0.013376397080719471 0.03298348933458328 0.013286656700074673 0.006791720166802406 -0.0038400867488235235 0.010234979912638664 0.016746675595641136 -0.021940840408205986 0.009981400333344936 0.009876376017928123 0.005539143458008766 0.01655159331858158 -0.006942525040358305 0.03290979564189911 -0.010967171750962734 -0.0416494645178318 0.01918020471930504 -0.014363952912390232 0.0049914284609258175 -0.022730788215994835 0.0011903566773980856 0.02062826044857502 -0.03219829872250557 -0.004803269170224667 0.009732464328408241 -0.038285329937934875 0.0052295951172709465 0.006626261863857508 -0.004054120276123285 -0.0015878768172115088 0.007268585730344057 -0.01090293936431408 0.03408565744757652 -0.01463642343878746 -0.002534375758841634 0.021430352702736855 -0.018098480999469757 -0.008752339519560337 -0.0093848817050457 0.003769249888136983 -0.04972406476736069 -0.02887798845767975 -0.0013828505761921406 -0.02394033595919609 0.010688277892768383 -0.0152894901111722 -0.021137595176696777 0.0033900814596563578 -0.03869762271642685 -0.004285809583961964 -0.010519810952246189 0.008492331951856613 0.004855878185480833 -0.013020684011280537 -0.022373821586370468 0.013840842992067337 -0.000772485276684165 0.0018947486532852054 0.004652207717299461 -0.030911188572645187 -0.008955416269600391 -0.024408861994743347 0.009830637834966183 -0.015535865910351276 -0.019852645695209503 -0.017701704055070877 0.01491665467619896 0.01186585333198309 0.019318031147122383 0.01921728625893593 0.008269384503364563 0.000813825405202806 -0.022139517590403557 -0.019325533881783485 -0.014996250160038471 -0.018018798902630806 0.03337390720844269 -0.007469226606190205 -0.03397576883435249 0.01877114363014698 0.004182473290711641 -0.0007498212507925928 -0.010102500207722187 0.0021469825878739357 -0.03311294689774513 -0.04893586039543152 0.011796408332884312 0.03409280627965927 -0.006401675753295422 0.02640613354742527 0.015664564445614815 -0.003790283342823386 -0.020284617319703102 -0.02257944643497467 0.01569555327296257 -0.02853674255311489 -0.01724817603826523 -0.050207994878292084 0.013856485486030579 0.00819182489067316 0.01650618575513363 0.027628256008028984 -0.015188816003501415 0.023619474843144417 0.004103940445929766 -0.013526596128940582 -0.010779968462884426 -0.03199343755841255 0.0023015376646071672 0.005761037580668926 0.027629965916275978 -0.01532008871436119 0.010446594096720219 0.027213577181100845 -0.0012677860213443637 0.014139213599264622 -0.032273609191179276 -0.007650705054402351 -0.02245950885117054 -0.033280692994594574 -0.05265321955084801 -0.02106666937470436 0.015009046532213688 -0.0016645462019369006 -0.002007587580010295 -0.0006734796334058046 0.0032739576417952776 0.006259492598474026 0.022429686039686203 0.019061287865042686 -0.0035786686930805445 0.005446834024041891 0.020698489621281624 -0.02939843013882637 0.020205548033118248 -0.016289032995700836 0.01700487546622753 0.011484440416097641 0.030414557084441185 0.012354514561593533 0.054113347083330154 0.012552804313600063 -0.019001346081495285 0.011216354556381702 -0.018631018698215485 -0.0024221641942858696 -0.016487037762999535 0.010715271346271038 -0.006010218057781458 0.022776741534471512 0.004878049250692129 0.03203801438212395 -0.02276984229683876 8.797338523436338e-05 -0.007754538673907518 0.020208699628710747 -0.012036113068461418 -0.005013533402234316 0.015640871599316597 0.026645664125680923 -0.0030678461771458387 -0.017711132764816284 0.016186868771910667 -0.007839387282729149 0.018963845446705818 0.025685282424092293 0.020176097750663757 0.022159628570079803 -0.0029728394001722336 -0.012837148271501064 -0.03882625699043274 -0.012110930867493153 0.017454350367188454 -0.0007437434396706522 0.014669672586023808 0.01252619456499815 0.023777062073349953 0.017323710024356842 0.02992926724255085 0.010382033884525299 -0.016739755868911743 -0.008978740312159061 -0.011335771530866623 -0.01405585091561079 -0.017229679971933365 0.03523622825741768 -0.009434604085981846 -0.005070248618721962 0.024851521477103233 0.023034365847706795 0.021649152040481567 0.01543958205729723 0.010029751807451248 0.02038637548685074 -0.002364883664995432 -0.014278167858719826 -0.014181389473378658 -0.014382228255271912 -0.018359750509262085 0.03257578983902931 0.01809537224471569 -0.026542820036411285 0.0050161913968622684 -0.022561103105545044 0.05837767571210861 0.034493912011384964 0.012109515257179737 0.02120160683989525 0.012993606738746166 -0.007508975453674793 -0.005044929683208466 -0.03295156732201576 0.05189567059278488 0.0007638707756996155 0.020488746464252472 0.004830501042306423 0.024468738585710526 0.017121417447924614 0.014987885020673275 0.012332246638834476 0.0205133855342865 0.02670888975262642 0.0033951166551560163 -0.005633830558508635 0.017896560952067375 -0.008052493445575237 -0.007707658223807812 -0.022369539365172386 0.03933938592672348 -0.004865369293838739 -0.022338973358273506 -0.007614557631313801 -0.024404345080256462 -0.002932383678853512 -0.03201023116707802 -0.037977952510118484 -0.003690866520628333 0.015885280445218086 -0.03570469841361046 -0.009498389437794685 -0.02106831781566143 0.0045411242172122 -0.028407491743564606 0.02724625915288925 -0.034750863909721375 -0.0015207119286060333 -0.016209634020924568 -0.04399853199720383 0.028974881395697594 -0.017589647322893143 -0.013633332215249538 0.015146849676966667 0.024963458999991417 0.06855117529630661 0.006451042369008064 0.010194568894803524 0.008048812858760357 -0.021134179085493088 -0.0030255536548793316 -0.006640947423875332 -0.017378969117999077 0.02385447360575199 0.0068367556668818 0.031261004507541656 0.021029945462942123 -0.0033482445869594812 -0.00044543130206875503 -0.025203503668308258 -0.029591873288154602 0.019426750019192696 -0.015932178124785423 0.016362424939870834 0.013438287191092968 0.002625653287395835 0.00988864153623581 0.0016101946821436286 -0.0050443923100829124 0.002455651294440031 -0.002654109615832567 -0.01406660582870245 0.01111871749162674 -0.036012571305036545 0.01728915609419346 0.0001260513672605157 -0.0034240540117025375 0.003536699339747429 -0.006642411928623915 0.025356583297252655 -0.0207571592181921 0.0022648354060947895 -0.024815034121274948 0.0004133119073230773 -0.0015284874243661761 -0.010339169763028622 -0.02811354398727417 -0.003104506293311715 0.0198847446590662 0.002866339636966586 0.015583115629851818 0.004278243985027075 -0.01160520501434803 -0.014806324616074562 -0.02191346324980259 0.005802165251225233 -0.014819991774857044 0.00040545110823586583 -0.022037632763385773 -0.011180241592228413 -0.0105228116735816 0.007611172739416361 -0.018201973289251328 0.018385224044322968 0.014567983336746693 -0.028646836057305336 0.00804238859564066 -0.004678093362599611 -0.00872031133621931 0.029831282794475555 0.02209288440644741 -0.0333368256688118 -0.005937398411333561 0.016966449096798897 -0.0074654873460531235 0.026133153587579727 0.04440760239958763 0.020349206402897835 -0.031701620668172836 -0.0003037117712665349 -0.05734682455658913 -0.012351896613836288 -0.03675414249300957 -0.000622838269919157 -0.013465016148984432 0.01150305662304163 -0.02629970572888851 0.012250340543687344 -0.01794365793466568 0.02516922913491726 0.007685942109674215 0.028892122209072113 -0.017985936254262924 -0.02777758426964283 -0.009177390486001968 -0.04394736513495445 0.007189758587628603 -0.010170456022024155 0.020334990695118904 -0.0269063338637352 -0.004902910906821489 0.0006683146930299699 -0.007219261024147272 -0.027075782418251038 -0.030296847224235535 -0.012335016392171383 0.027211248874664307 0.002066785702481866 -0.002678675577044487 -0.013952446170151234 0.03436138480901718 -0.004837601445615292 0.004988035187125206 -0.0027462178841233253 -0.036480724811553955 0.006501236464828253 -0.019527340307831764 0.025762559846043587 -0.005391675513237715 -0.00857279822230339 0.010535412468016148 -0.012737748213112354 -0.023304201662540436 -0.0004421949852257967 0.010542760603129864 -0.0019338683923706412 0.012047473341226578 -0.032030828297138214 0.049319952726364136 -0.015530597418546677 0.018073998391628265 0.014460286125540733 0.041414082050323486 -0.019648708403110504 -0.007197781000286341 -0.015889663249254227 -0.04070437699556351 0.005416128318756819 -0.047774944454431534 -0.0001811346592148766 0.025264550000429153 0.023106010630726814 -0.013647434301674366 -0.02274160087108612 -0.011974217370152473 -0.01907813735306263 -0.03246907517313957 0.05340725556015968 -0.024683944880962372 0.04349539428949356 0.0191186610609293 0.0004942455561831594 -0.0056750718504190445 -0.027164220809936523 -0.010107957758009434 0.0075817471370100975 0.004181649070233107 -0.001744813984259963 -0.009174084290862083 -0.008509189821779728 0.006150442641228437 -0.0008662930340506136 -0.02151329256594181 0.011327024549245834 -0.006023164372891188 -0.02674778923392296 0.011370533145964146 -0.005150974728167057 4.23114252043888e-05 0.012769252993166447 0.015729393810033798 0.001808331930078566 0.0077705164439976215 -0.03418142721056938 -0.027167916297912598 -0.02616938203573227 -0.004105486907064915 0.02483564056456089 0.03641235828399658 0.005328680854290724 -0.025184327736496925 -0.02329864352941513 -0.02025248296558857 -0.007736805826425552 0.0005156676052138209 -0.02666015364229679 0.03623751550912857 0.03859382122755051 -0.006127409636974335 0.056796539574861526 -0.010297419503331184 -0.015186390839517117 0.012166731990873814 0.0032314255367964506 0.00283270375803113 0.029008274897933006 0.007208637893199921 -0.0025720582343637943 0.015430690720677376 -0.01304913405328989 0.011221022345125675 0.013752056285738945 -0.01499085035175085 -0.031003128737211227 -0.009161329828202724 0.028898803517222404 0.003910393454134464 0.01701364852488041 0.01662149652838707 -0.034851763397455215 -0.04955454170703888 0.040696293115615845 -0.0020332515705376863 -0.005659979768097401 0.022361041978001595 4.7818193706916645e-05 0.0342087484896183 0.013907616958022118 -0.02148684673011303 0.006821244489401579 -0.017201833426952362 -0.020757822319865227 0.010183648206293583 -0.0023250789381563663 -0.008696619421243668 0.008421055041253567 0.02575954794883728 0.03597274795174599 -0.0012422095751389861 -0.02615414559841156 0.010839647613465786 0.013308030553162098 -0.0025760221760720015 0.020682869479060173 0.014489901252090931 -0.019223002716898918 -0.0011479314416646957 -0.005987660959362984 -0.025611354038119316 -0.001464559230953455 0.000532489619217813 0.021740922704339027 0.04555066302418709 -0.015096340328454971 -0.03121107816696167 -0.0194424819201231 -0.017017604783177376 0.009613092057406902 0.008569104596972466 0.010186106897890568 0.037248726934194565 0.031885989010334015 0.01834234967827797 0.008676078170537949 0.015959810465574265 0.022236917167901993 0.0057370918802917 0.017631176859140396 0.032516587525606155 -0.014628099277615547 -0.034591928124427795 -0.014711376279592514 0.03407783433794975 0.00785410962998867 -0.02144988812506199 0.009001867845654488 0.012793722562491894 0.0008704761858098209 0.006467435508966446 -0.015934474766254425 0.02440793253481388 0.004108740948140621 0.0061167161911726 -0.013251937925815582 -0.028396444395184517 0.01983947865664959 -0.009983625262975693 -0.010597189888358116 0.015801208093762398 -0.016046028584241867 0.00015412404900416732 0.017842814326286316 0.022638576105237007 0.03182031214237213 0.028525585308670998 -0.02617068588733673 -0.02732539363205433 -0.004520129878073931 -0.008010703139007092 -0.012937821447849274 0.006624563131481409 0.00795021839439869 -0.0018259264761582017 0.02302231267094612 -0.018739765509963036 -0.022718438878655434 -0.014858630485832691 0.0007020558114163578 -0.008052866905927658 -0.020655887201428413 0.014881634153425694 0.0036305554676800966 0.007042111363261938 0.012479642406105995 0.022780606523156166 -0.018176313489675522 0.00637782784178853 0.032786544412374496 -0.0030544984620064497 0.0010728000197559595 -0.01672830991446972 0.009945043362677097 -0.0059756506234407425 -0.021472381427884102 -0.0035691694356501102 0.014786249957978725 0.020934507250785828 0.030616795644164085 -0.007447521202266216 -0.007980716414749622 0.012945331633090973 -0.021975915879011154 -0.0028177581261843443 0.0366409569978714 -0.004921412095427513 -0.013536143116652966 -0.0026667790953069925 0.018354440107941628 -0.016590939834713936 0.008294607512652874 0.017333492636680603 0.01701534166932106 0.011060862801969051 -0.02652611956000328 0.03294422850012779 0.00034693029010668397 -0.004252152517437935 -0.0266416035592556 -0.04454721510410309 -0.038337986916303635 -0.007296637631952763 -0.02846694551408291 0.024090012535452843 0.00017814140301197767 -0.0005468137678690255 0.0258529894053936 -0.05474121868610382 -0.006823432631790638 0.037542685866355896 0.005979504436254501 0.020806726068258286 -0.005521723069250584 -0.0035364539362490177 0.006192644592374563 0.04273106902837753 -0.013041664846241474 -0.01763630472123623 0.0058735995553433895 0.013440514914691448 -0.027935098856687546 -0.004970824345946312 0.03402623161673546 0.03285173699259758 0.020551424473524094 0.001070842845365405 -0.0038972115144133568 -0.0236173328012228 -0.025310372933745384 -0.031269580125808716 0.03756088763475418 -0.009814883582293987 0.0052169268019497395 0.008963633328676224 -0.005936578847467899 -0.0021185516379773617 -0.00430958392098546 0.012539487332105637 -0.00701643992215395 -0.014937990345060825 -0.001245575025677681 0.008080300875008106 0.005744056776165962 -0.06438399851322174 -0.025442233309149742 0.01789124496281147 -0.011540020816028118 -0.046489518135786057 0.03828645870089531 -0.003330949228256941 0.01882524974644184 0.006110100075602531 0.018202515318989754 0.008754069916903973 0.003193637588992715 0.02187727764248848 -0.0035091012250632048 0.0039796470664441586 0.0009838358964771032 0.012139178812503815 -0.03730517625808716 -0.0037695751525461674 -0.004221057053655386 0.03067750670015812 -0.01611853763461113 0.018714619800448418 -0.03448173403739929 0.01003706268966198 -0.008256489410996437 -0.03484325110912323 0.009934064000844955 -0.024052727967500687 -0.00014425342669710517 -0.00034178417990915477 -0.03960750624537468 0.009882008656859398 -0.04479942098259926 0.008877275511622429 0.01651543751358986 -0.048491209745407104 -0.01398405246436596 0.004365638829767704 0.005290425382554531 0.0033591873943805695 0.020053651183843613 0.012072814628481865 -0.0007034846348688006 -0.012334387749433517 -0.007558894343674183 0.010623730719089508 0.003914836328476667 -0.00901820044964552 -0.007825704291462898 0.004937140271067619 0.014627029187977314 0.010615553706884384 -0.0048371972516179085 0.039090387523174286 0.004791694693267345 0.0282034520059824 0.017865171656012535 0.006761323660612106 0.006797483190894127 0.008590523153543472 -0.029582081362605095 0.02412572130560875 -0.037730395793914795 0.013483991846442223 -0.0308632031083107 0.0005266723455861211 0.023539023473858833 0.0043470789678394794 0.03545115888118744 -0.004649605136364698 0.0005291327834129333 0.07309018820524216 -0.02439451962709427 0.006954899523407221 -0.014917551539838314 -0.03818085417151451 -0.035591140389442444 0.010482731275260448 -0.01033064816147089 -0.007447883021086454 -0.027605120092630386 -0.018331076949834824 0.03382861241698265 -0.03994809836149216 0.0033549328800290823 0.03095150925219059 0.01044651959091425 0.005073400214314461 -0.05369557440280914 -0.008996441960334778 -0.014495006762444973 -0.014802624471485615 0.012609418481588364 0.039908476173877716 0.018991583958268166 -0.02066471241414547 -0.01609891466796398 0.002295497339218855 0.019292261451482773 -4.599689054884948e-05 0.02049768902361393 -0.009257319383323193 0.00729137659072876 -0.008840545080602169 0.00667080283164978 0.002702854573726654 0.006473287008702755 -0.03297743201255798 -0.013280302286148071 -0.005619827192276716 0.009210685268044472 0.026177817955613136 -0.013251252472400665 -0.04018072783946991 -0.010927380993962288 -0.005434802267700434 -0.02724377065896988 0.008720404468476772 0.0039918385446071625 -0.006064841523766518 -0.01652856171131134 -0.026312343776226044 -0.005750369280576706 -0.007638872135430574 0.03673891723155975 -0.005434032063931227 -0.02461530640721321 0.013898991048336029 0.012085437774658203 0.014813962392508984 -0.015008680522441864 -0.002394622191786766 -0.00692865252494812 -0.00017076577933039516 0.04617244005203247 0.002715269336476922 -0.01796145923435688 0.0012033999664708972 0.011322804726660252 0.0077622733078897 0.02281241863965988 -0.011643858626484871 0.03235134854912758 0.030133746564388275 0.011551059782505035 -0.008261090144515038 0.005197430029511452 -0.006849546451121569 0.04038476571440697 -0.005358551163226366 0.0025561985094100237 0.027186617255210876 0.028523582965135574 -0.006265823729336262 -0.004155723378062248 -0.003792855888605118 -0.011691302992403507 -0.027728892862796783 0.020287472754716873 -0.0049089244566857815 0.009041854180395603 -0.015487697906792164 0.028015924617648125 -0.0044177137315273285 0.02258637361228466 0.007535404991358519 0.0011316376039758325 -0.021169601008296013 -0.001337959198281169 -0.01607060804963112 -0.01658889278769493 -0.021725084632635117 0.015010652132332325 0.0006668403511866927 0.006272430997341871 0.03954053670167923 -0.005019568372517824 -0.00327821122482419 -0.031224146485328674 0.0027665155939757824 -0.03716530278325081 -0.02842615731060505 -0.031053828075528145 0.028455542400479317 0.005468289367854595 -0.010838056914508343 6.758754170732573e-05 -0.008519100025296211 -0.03763439878821373 0.015737969428300858 0.007722449488937855 -0.01057734526693821 0.011044233106076717 -0.028054598718881607 0.011633162386715412 0.05787770450115204 0.028877127915620804 -0.01940932869911194 -0.02101891301572323 0.040186807513237 0.02250329591333866 0.0032908713910728693 -0.00706644868478179 0.027185065671801567 0.02967001684010029 0.018840976059436798 -0.028500249609351158 0.019578950479626656 0.00455963471904397 -0.02378978580236435 -0.009911635890603065 0.0004965289263054729 -0.008860349655151367 0.023135358467698097 -0.00628088740631938 -0.0043663461692631245 -0.04120185598731041 -0.00812112633138895 0.00047132151667028666 -0.002312143798917532 -0.0010867255041375756 0.008641582913696766 -0.015658307820558548 -0.017064817249774933 -0.02221621572971344 -0.0029748803935945034 -0.017278451472520828 -0.008945086039602757 0.02200111374258995 0.023944400250911713 0.005294571164995432 0.012353487312793732 0.01992996223270893 0.009301918558776379 -0.012853815220296383 0.013397823087871075 0.011654213070869446 0.009851081296801567 0.0011229680385440588 -0.02225716970860958 -0.05674263462424278 0.0005252576083876193 0.009074405767023563 -0.027824416756629944 -0.00787677988409996 0.020732538774609566 -0.00662259804084897 -0.03362216055393219 -0.01933644525706768 0.029749007895588875 -0.020335936918854713 -0.024047382175922394 -0.02556755021214485 0.0032161474227905273 -0.0005011439207009971 -0.030718402937054634 0.021662505343556404 0.0012321654940024018 -0.022411098703742027 0.019879132509231567 0.004719954915344715 -0.005602210760116577 -0.02325494959950447 -0.0352579690515995 -0.018112121149897575 0.012065919116139412 0.007999430410563946 0.005753129720687866 -0.019750365987420082 -0.024136891588568687 0.009792107157409191 -0.016347186639904976 -0.007333595305681229 -0.012860814109444618 -0.016245048493146896 -0.037467386573553085 0.005592022556811571 0.020076941698789597 0.028964843600988388 0.03845954313874245 0.0181594118475914 0.01267575565725565 -0.023694243282079697 -0.013366935774683952 0.01737462356686592 0.013486145995557308 0.0397895947098732 -0.001645366777665913 0.007677373941987753 -0.02152780257165432 -0.008468101732432842 -0.013290660455822945 -0.010319734923541546 0.0005943434080109 0.049733370542526245 -0.016572143882513046 -0.011234380304813385 -0.019727710634469986 0.00726295867934823 0.017477137967944145 -0.0026055581402033567 0.024958930909633636 0.013179383240640163 0.011053211987018585 0.0022806725464761257 -0.011495999991893768 0.004903072491288185 -0.01213347539305687 0.019232455641031265 0.006636001635342836 0.0019429787062108517 -0.01326640322804451 -0.025278905406594276 -0.04725760966539383 -0.022331275045871735 -0.01310259010642767 -0.031597502529621124 0.011801582761108875 -0.01371007226407528 -0.022221773862838745 0.035673484206199646 0.008836821652948856 0.043336834758520126 -0.021381409838795662 0.0015474747633561492 0.013471279293298721 -0.0028763606678694487 -0.021701719611883163 0.013134085573256016 -0.03563675656914711 0.00028493249556049705 -0.025967156514525414 0.005903677083551884 0.020883895456790924 -0.014851491898298264 0.038680970668792725 0.02015087381005287 0.0018206036183983088 0.04161864146590233 -0.037599824368953705 0.0022886048536747694 -0.027811851352453232 0.03661592677235603 -0.02302306704223156 -0.01775265671312809 -0.0006239608046598732 0.0037855575792491436 -0.023860326036810875 0.014084838330745697 -0.0259565319865942 -0.004477998241782188 0.01946760155260563 0.020218156278133392 0.025643497705459595 -0.011681866832077503 -0.00888143666088581 0.0008451066678389907 -0.003242321079596877 0.012301257811486721 -0.018457377329468727 -0.021341923624277115 -0.0011336917523294687 -0.005316467024385929 -0.003345934906974435 -0.03430116921663284 0.0068223001435399055 0.010805986821651459 -0.011720061302185059 -0.040777649730443954 -0.011479677632451057 -0.016041787341237068 0.029609449207782745 0.013338647782802582 0.00885468628257513 0.023705624043941498 -0.02813638560473919 -0.02631887048482895 -0.01624901592731476 8.619992149760947e-05 0.004095711745321751 0.01988302171230316 -0.00015258464554790407 0.040046464651823044 -0.009740843437612057 -0.01748739182949066 0.007801571860909462 -0.015011502429842949 -0.04785161837935448 0.001026082318276167 0.0032807744573801756 0.039104219526052475 0.0194607712328434 -0.002701531397178769 -0.023140592500567436 -0.023021286353468895 0.012521774508059025 -0.004972933325916529 0.011809519492089748 -0.013561325147747993 -0.03690531477332115 -0.0003142779169138521 -0.005130955018103123 0.015226829797029495 -0.020309194922447205 -0.016960203647613525 0.0026176730170845985 -0.010116271674633026 0.02338285557925701 0.033502016216516495 -0.003521737875416875 -0.005803930107504129 0.005455352831631899 -0.007105402648448944 0.021843312308192253 -0.007885661907494068 0.003552489448338747 0.02041511796414852 -0.01048979815095663 -0.004399997182190418 0.015007623471319675 -0.009844275191426277 -0.014108956791460514 -0.00895016174763441 -0.01018857304006815 0.003798107150942087 0.006264908239245415 -0.0025266779121011496 0.0028388495557010174 0.004130695015192032 -0.012011555023491383 0.06318029016256332 0.009394275955855846 -0.005175141151994467 -0.005944781471043825 -0.01901428960263729 -0.0003049935621675104 0.0020115580409765244 0.018598847091197968 0.010629347525537014 -0.001465774024836719 -0.020284166559576988 -0.0067723277024924755 -0.026437556371092796 -0.006042613182216883 0.007130084093660116 0.019275225698947906 -0.02960669808089733 0.05070135369896889 -0.010355416685342789 -0.003977255895733833 -0.02704644203186035 0.0007386842626146972 -0.0065409219823777676 0.006314794532954693 0.004091983195394278 -0.0034966380335390568 -0.03855951502919197 -0.03842037171125412 -0.00016501310165040195 -0.010495184920728207 0.033317819237709045 0.0030534628313034773 0.007630589883774519 0.011979314498603344 -0.03075232356786728 0.04588162526488304 -0.04689927026629448 0.009783169254660606 0.0027083740569651127 -0.025043316185474396 -0.015577191486954689 -0.015738196671009064 -0.048844654113054276 0.006378427147865295 -0.03848380222916603 0.028608782216906548 0.005363833624869585 0.0005869967280887067 -0.009439791552722454 0.015253785066306591 0.017361050471663475 -0.040812667459249496 -0.016599370166659355 0.010767373256385326 -0.013284685090184212 -0.010777747258543968 -0.009503910318017006 0.004364788066595793 0.0050712451338768005 0.021376298740506172 -0.0029846380930393934 0.031100617721676826 0.014900613576173782 0.01351034827530384 0.012998193502426147 0.045964207500219345 0.004075714852660894 -0.005374963395297527 0.001826810883358121 0.024244166910648346 0.023794928565621376 0.003347584279254079 0.001737687736749649 -0.018623458221554756 -0.0005456163780763745 -0.002055597957223654 -0.02137516438961029 0.006741707678884268 -0.01033889688551426 -0.019501453265547752 -0.016456009820103645 0.018417706713080406 0.02440938726067543 0.03644178807735443 0.006754618138074875 0.011821187101304531 0.013346385210752487 -0.05001075938344002 -0.026568371802568436 -0.0073404437862336636 0.027006665244698524 -0.006659261882305145 -0.02920750342309475 0.013344886712729931 0.02344416081905365 0.009411840699613094 0.002510844264179468 -0.038424085825681686 0.00520452531054616 0.0065437606535851955 -0.006438987795263529 0.008914128877222538 0.0014160769060254097 -0.002961014397442341 0.02553274855017662 -0.034076739102602005 -0.05150507390499115 0.0035082753747701645 0.009288845583796501 -0.007127424236387014 0.01261065248399973 -0.025178542360663414 0.016453705728054047 0.02153126895427704 -0.011855284683406353 -0.047550953924655914 0.020774897187948227 0.02398025244474411 -0.0036721460055559874 -0.04291139543056488 -0.008292954415082932 -0.01738194189965725 -0.011362960562109947 0.013653164729475975 -0.036195941269397736 0.011710869148373604 0.01817653514444828 0.0014835908077657223 -0.021588608622550964 -0.024798478931188583 -0.006978953257203102 -0.0032883405219763517 0.013664293102920055 0.00452042929828167 0.02391050010919571 0.011053667403757572 0.03509034216403961 0.018872296437621117 -0.011863152496516705 -0.01727503351867199 0.010999261401593685 -0.020987549796700478 -0.00044402864295989275 -0.011102518998086452 0.014373859390616417 -0.003030650317668915 -0.005618714261800051 0.006711293011903763 0.00335724581964314 0.020538581535220146 0.025671083480119705 -0.022776613011956215 -0.04018563777208328 0.014101444743573666 0.015848731622099876 0.04093068838119507 -7.486202230211347e-05 0.007623492740094662 0.006423262879252434 0.01169792003929615 0.015528770163655281 -0.020588545128703117 0.04848073422908783 -0.04028487578034401 0.04541821777820587 0.0013048582477495074 -0.02847781963646412 0.0064286887645721436 0.01078852266073227 0.03609837591648102 -0.015912488102912903 0.0023269616067409515 0.0037963450886309147 -0.022217119112610817 0.009737317450344563 -0.037638481706380844 0.04216066002845764 0.013530598022043705 0.015760304406285286 -0.010900117456912994 -0.003787936409935355 -0.006688185501843691 0.014495348557829857 -0.007303993217647076 0.034286025911569595 0.028317689895629883 0.013216477818787098 -0.005295987240970135 -0.01340538077056408 0.007292988710105419 0.02747056819498539 -0.004891362972557545 0.005195184610784054 -0.03609977290034294 0.01344401203095913 0.004594494588673115 0.0370851494371891 -0.008353040553629398 -0.006767996121197939 0.02397320605814457 -0.012637745589017868 -0.0001945130352396518 0.0032861570362001657 0.01608687825500965 -0.008222494274377823 -0.012256870977580547 0.00013668500469066203 -0.005826330278068781 -0.0025146622210741043 -0.022951243445277214 0.02349763549864292 0.012900914996862411 -0.006177504081279039 0.017419032752513885 -0.008378531783819199 0.018625393509864807 -0.013850937597453594 0.02239287830889225 0.007623008918017149 0.0058572618290781975 0.013916822150349617 -0.04048837721347809 0.01422199048101902 0.03168497234582901 -0.008104199543595314 -0.0024214668665081263 -0.0007704169256612659 -0.010522294789552689 -0.025050126016139984 -0.017386076971888542 -0.022408120334148407 -0.0106627456843853 0.02422931231558323 0.016493013128638268 0.02216545306146145 -0.01699487678706646 0.06445954740047455 -0.015481431968510151 -0.0053184120915830135 0.016624320298433304 0.003156630787998438 0.028654716908931732 0.014340417459607124 -0.007059155963361263 0.005611490923911333 -0.025229351595044136 0.0204326119273901 -0.04088197275996208 0.0364178903400898 0.012979533523321152 -0.009467413648962975 -0.018498972058296204 0.02259269542992115 -0.015089249238371849 0.0013908946420997381 0.015547830611467361 -0.03260498121380806 -0.010439177043735981 -0.018472738564014435 0.02645042911171913 -0.009050492197275162 -0.023548079654574394 0.005328611470758915 -0.01412779837846756 0.0026002442464232445 0.0439748577773571 0.027597079053521156 -0.00398925831541419 0.010179807431995869 -0.00863019097596407 -0.018511313945055008 0.0394386425614357 0.004924858454614878 -0.00024233164731413126 0.011823640204966068 0.01938137412071228 -0.018660861998796463 -0.006681415252387524 -0.007510766852647066 -0.035290252417325974 -0.006015605293214321 0.015490304678678513 0.026293570175766945 0.015367642045021057 -0.016286835074424744 0.0031618201173841953 0.021824117749929428 0.028105132281780243 -0.021242374554276466 0.0035335985012352467 -0.002532054902985692 0.0018338013906031847 -0.003026660531759262 0.007379667367786169 -0.01962561160326004 -0.029018841683864594 -0.025957325473427773 0.01112320739775896 -0.016239875927567482 0.005670430604368448 -0.031004440039396286 -0.006103661376982927 -0.0077814701944589615 0.006746374070644379 -0.015527330338954926 -0.01107276976108551 0.01087451633065939 -0.005439929664134979 -0.0006851946818642318 0.010452195070683956 0.01794285885989666 0.002798227360472083 0.008974443189799786 -0.018129780888557434 -0.01737801916897297 -0.0021787385921925306 0.006890864577144384 0.004965146072208881 0.0034245923161506653 0.0037209789734333754 0.006569878663867712 0.015008046291768551 -0.00853201374411583 -0.018174896016716957 -0.011554152704775333 -0.018794294446706772 0.009938675910234451 0.007587631698697805 0.03409447520971298 -0.021721206605434418 0.0018014535307884216 -0.004840664565563202 -0.022214684635400772 -0.027710609138011932 0.003236475633457303 0.029080957174301147 -0.02283233404159546 0.007240667007863522 -0.01609010621905327 0.01042117364704609 0.009667733684182167 -0.028722694143652916 0.009518727660179138 0.031265247613191605 0.021933292970061302 0.0023782560601830482 -0.04089991748332977 -0.03713322803378105 -0.022351322695612907 0.016521096229553223 0.04517528414726257 0.024653824046254158 -0.007455694489181042 0.03976275399327278 0.008052211254835129 0.01033337228000164 0.009218921884894371 0.0036580332089215517 -0.016434572637081146 0.014041819609701633 -0.02426242269575596 0.012347294017672539 0.010894669219851494 0.009795591235160828 0.0008810431463643909 0.0072540342807769775 0.03579297289252281 0.00976196862757206 0.018867606297135353 0.0011774376034736633 0.036261964589357376 -0.005217231344431639 -0.01891777105629444 0.01660941168665886 0.030081437900662422 0.04707464203238487 -0.0007937559857964516 0.007501015905290842 0.03796982765197754 0.022053014487028122 0.013083841651678085 0.02170734293758869 -0.022571995854377747 -0.0111477579921484 -0.020032301545143127 -0.004672711715102196 0.015106397680938244 0.0076480405405163765 -0.01788983680307865 -0.020967936143279076 0.0012337260413914919 0.00835819449275732 0.01281687244772911 -0.003475763136520982 0.016836760565638542 0.009523769840598106 -0.01959620974957943 0.021534709259867668 0.03250152990221977 0.0050943512469530106 -0.007581956684589386 0.06631077826023102 -0.0017564520239830017 -0.0034633218310773373 0.0059995949268341064 0.02693631313741207 -0.0069624497555196285 0.0184714887291193 -0.03548133745789528 0.018823428079485893 -0.027159810066223145 -0.019841298460960388 -0.030886948108673096 0.0006464235484600067 -0.001359384274110198 -0.01691504195332527 0.023456821218132973 -0.016246289014816284 0.02976217307150364 -0.011839033104479313 0.0009918645955622196 -0.016477592289447784 -0.01161578856408596 -0.00852566584944725 0.010875748470425606 -0.008421577513217926 -0.0021920620929449797 -0.010385396890342236 0.004514804109930992 -0.013701096177101135 -0.03155599161982536 -0.00027131778188049793 -0.03674747049808502 0.029951388016343117 0.009822976775467396 -0.013395578600466251 -0.019494973123073578 -0.04316951334476471 -0.005422883667051792 0.00781624112278223 -0.02971663884818554 0.0442466139793396 -0.01577085815370083 -0.02125559002161026 -0.0319678857922554 -0.014588635414838791 0.014107602648437023 -0.011022694408893585 -0.0005979440757073462 0.007204852532595396 -0.022098520770668983 0.040697433054447174 0.009570376016199589 0.00904171448200941 0.009389990009367466 0.03913850709795952 -0.033916544169187546 0.04158124327659607 -0.022751111537218094 -0.035459645092487335 0.009799427352845669 0.031688328832387924 0.005958338268101215 -0.01595025509595871 -0.0113834785297513 -0.024494750425219536 -0.0003031869127880782 -0.03318419307470322 -0.010536246933043003 0.004997104872018099 -0.026262283325195312 -0.04100419953465462 -0.019167296588420868 -0.008510611951351166 0.01053211372345686 -0.024425407871603966 0.01289274636656046 -0.016310736536979675 0.03291384130716324 -0.04760371521115303 0.026026815176010132 0.015745114535093307 0.01663355529308319 -0.010119069367647171 0.02637278102338314 0.020424582064151764 0.014529443345963955 -0.011160825379192829 0.030699878931045532 -0.03820924833416939 0.01949313096702099 0.019197773188352585 0.0129627650603652 0.028946489095687866 0.004559183493256569 0.01709860935807228 -0.036890700459480286 0.0397055484354496 -0.02058739960193634 -0.01777116023004055 -0.015420487150549889 -0.01734171248972416 -0.016044560819864273 -0.032461341470479965 -0.0008335007587447762 -0.038482315838336945 -0.022705795243382454 -0.009650005958974361 -0.0005551768117584288 0.004321873653680086 -0.02791985496878624 -0.029205916449427605 0.00020278661395423114 -0.03554145619273186 -0.0050871409475803375 -0.007707307115197182 -0.01791635900735855 -0.021345114335417747 0.004036045633256435 0.0035590108018368483 0.011421681381762028 0.009826617315411568 -0.01855207048356533 0.01268378458917141 -0.006942258216440678 0.005578470416367054 0.009437106549739838 -0.022135362029075623 0.028467286378145218 0.0009023462189361453 -0.023725975304841995 0.016970157623291016 -0.01614486612379551 0.01599051058292389 0.013025068677961826 -0.005486388225108385 0.03627909719944 -0.0031375284306705 0.0033293741289526224 0.00860648788511753 -0.012464667670428753 -0.0024491199292242527 -0.016368404030799866 -0.039901796728372574 0.001588027342222631 0.010562118142843246 -0.013083403930068016 -0.010626268573105335 -0.0047490415163338184 0.015112041495740414 0.04912257939577103 -0.0006241202936507761 -0.019413987174630165 0.027578413486480713 -0.021955104544758797 -0.011533944867551327 -0.027289748191833496 -0.0017822538502514362 0.016874779015779495 0.016999484971165657 -0.002472454449161887 -0.010201631113886833 -0.010757152922451496 -0.014655524864792824 -0.014720398001372814 0.008535623550415039 -0.004237564746290445 0.022958820685744286 -0.020255938172340393 0.023558951914310455 -0.020316854119300842 0.0005661225295625627 -0.023528501391410828 0.013530431315302849 0.0033571296371519566 -0.01726510189473629 0.02084825001657009 -0.05627528950572014 0.02320612594485283 -0.039734259247779846 -0.014190628193318844 -0.029344620183110237 -0.00035792883136309683 0.0005038628587499261 0.013760547153651714 -0.00588612025603652 -0.02763349562883377 -0.01800585724413395 -0.005444491282105446 0.027156395837664604 0.018984753638505936 -0.024021059274673462 0.006216118577867746 0.006726802792400122 -0.02600996010005474 0.002354178112000227 -0.003215440548956394 0.035261716693639755 -0.022760245949029922 -0.0040298402309417725 0.014907740987837315 -0.011494537815451622 -0.011855768971145153 -0.00837385281920433 -0.023203235119581223 -0.020211564376950264 0.0027909602504223585 0.014202306047081947 0.010608174838125706 -0.020910190418362617 0.006800003815442324 0.004679024685174227 0.047265324741601944 -0.002755483379587531 0.008355040103197098 0.02004833146929741 0.0032104365527629852 0.0022422277834266424 -0.018376611173152924 0.007084920071065426 -0.000973233487457037 -0.023039547726511955 -0.017614835873246193 -0.0072969309985637665 0.013988452963531017 0.022009368985891342 -0.0005355405737645924 -0.0017598590347915888 0.00490081962198019 -0.027245646342635155 0.008180752396583557 -0.019601522013545036 0.01727968454360962 0.0027364827692508698 -0.02291460894048214 -0.01347180362790823 -0.04328874126076698 0.024253327399492264 0.02724832110106945 0.01242369320243597 0.016051188111305237 0.010331470519304276 -0.01609843596816063 -0.012422667816281319 -0.023991767317056656 0.0008658867445774376 0.010783258825540543 0.019785437732934952 0.016159696504473686 -0.009340177290141582 0.00737170921638608 0.026144497096538544 0.022945409640669823 -0.023604685440659523 -0.025438234210014343 0.017937198281288147 0.028021082282066345 0.0302012600004673 -0.006841892842203379 0.00819324515759945 0.007227481342852116 -0.020354198291897774 0.04726286977529526 0.006750499829649925 -0.012210119515657425 0.027795275673270226 0.01352581288665533 -0.0022028752136975527 -0.0009393441723659635 -0.005758165847510099 -0.00014521682169288397 -0.03481510281562805 -0.02198684960603714 -0.030040135607123375 0.011992339976131916 -0.018944324925541878 0.00969061441719532 0.0005589356296695769 0.014599243178963661 -0.026304148137569427 -0.015399395488202572 -0.022294342517852783 0.026740575209259987 0.02353164739906788 -0.012879744172096252 -0.019626930356025696 0.029308142140507698 -0.017058227211236954 -0.0002735219895839691 -0.023561742156744003 -0.006407096516340971 -0.022573072463274002 -0.006119652651250362 -0.006928621791303158 0.0007476307218894362 0.048833709210157394 0.031745195388793945 -0.058815695345401764 -0.009216496720910072 -0.010699006728827953 0.002859048778191209 -0.001719917170703411 0.03890466317534447 -0.0191694013774395 0.0070509775541722775 0.0034942792262881994 0.006981068756431341 0.002587259281426668 -0.02643967606127262 0.023787178099155426 -0.002448734827339649 -0.009187574498355389 0.0014222071040421724 0.019602159038186073 0.02389710769057274 -0.0015060108853504062 -0.028112107887864113 0.02142929658293724 -0.020059896633028984 -0.014414793811738491 -0.006781203206628561 0.01040695607662201 -0.01598658785223961 -0.003942763898521662 0.013888317160308361 -0.009416908957064152 -0.0010654813377186656 -0.002886504167690873 0.000840935215819627 -0.02159148082137108 0.021197790279984474 0.013341223821043968 0.024040587246418 0.023957015946507454 -0.02272510901093483 -0.026597144082188606 -0.01866803504526615 0.004697571974247694 0.06259369850158691 -0.002474272157996893 0.0020024057012051344 0.031467992812395096 0.007285354658961296 -0.009624687023460865 -0.03064052201807499 -0.004475447814911604 0.0005096165696159005 -0.010290516540408134 0.02027081698179245 -0.007557262200862169 -0.002897155238315463 0.01432352140545845 -0.007111393380910158 -0.022233929485082626 -0.016649071127176285 0.01191631518304348 -0.023726781830191612 0.01834237016737461 0.009624090045690536 0.01907481998205185 -0.0015250944998115301 -0.000942189188208431 0.0020056404173374176 0.033460672944784164 0.0022480550687760115 -0.004316437058150768 -0.028470821678638458 0.019852740690112114 0.0014999422710388899 -0.008946219459176064 0.05029159411787987 0.017282258719205856 0.007626771926879883 0.002039050916209817 0.03331010416150093 0.022625843062996864 -0.010010385885834694 0.024223852902650833 -0.0014439062215387821 0.002589051378890872 0.028775835409760475 0.010205086320638657 -0.0028405708726495504 -0.01711818017065525 -0.010917375795543194 -0.004845387302339077 0.010976174846291542 -0.0036482936702668667 -0.003040492767468095 -0.021726517006754875 0.01392834261059761 -0.02803811989724636 0.012857682071626186 0.022249814122915268 0.0276795681566 0.012643287889659405 0.0114641347900033 -0.010579120367765427 -0.04411156475543976 0.013590855523943901 0.011303076520562172 0.003588726045563817 0.018793966621160507 0.005043275188654661 0.014691948890686035 -0.018547382205724716 0.005038198549300432 0.007203402929008007 -0.012231292203068733 0.004707530606538057 -0.016788652166724205 -0.009485920891165733 -0.05878087133169174 0.0020303158089518547 -0.012664856389164925 0.005063037853688002 0.02758810855448246 -0.00200060335919261 -0.02536422200500965 -0.0069406237453222275 0.033869195729494095 0.0037552951835095882 -0.0021346420980989933 0.03146448731422424 0.016512636095285416 -0.02697616070508957 -0.025773169472813606 0.005764737259596586 0.03340935334563255 -0.019151417538523674 0.019597318023443222 0.01788168214261532 0.007889105938374996 -0.009482384659349918 0.010402563028037548 -0.005122451111674309 0.019124068319797516 -0.014910100027918816 -0.0009133717394433916 -0.008453602902591228 0.0033872153144329786 -0.0020817366894334555 0.018876584246754646 -0.0033261424396187067 0.01634548231959343 -0.024142812937498093 0.002524893032386899 -0.011954615823924541 -0.021831266582012177 -0.03041393682360649 0.04484479874372482 0.004944150801748037 0.042628683149814606 -0.007779954466968775 -0.028252987191081047 0.02471800334751606 0.010167558677494526 -0.028151892125606537 -0.031003259122371674 0.02303067035973072 -0.027901560068130493 -0.03318146988749504 -0.016209540888667107 0.014181816950440407 0.005548754241317511 0.04258786514401436 -0.016291799023747444 0.010274630971252918 0.017279505729675293 0.014220457524061203 -0.020599283277988434 -0.0049490793608129025 -0.03115812875330448 0.013935679569840431 -0.00579852657392621 -0.011664207093417645 0.02528347447514534 0.017105309292674065 -0.012325668707489967 -0.023917170241475105 -0.012112251482903957 -0.016218960285186768 0.022345131263136864 -0.032744016498327255 0.017495933920145035 -0.000774292042478919 0.003279569325968623 0.020511509850621223 0.0004209162143524736 -0.026076605543494225 -0.018977973610162735 -0.03210609778761864 -0.006933961529284716 -0.012267667800188065 0.0016910054255276918 -0.026411142200231552 0.022409046068787575 0.0332629457116127 -0.001708730822429061 -0.02398497983813286 -0.02100224234163761 0.0004960624501109123 0.021014735102653503 -0.0009031874942593277 0.015081040561199188 0.0007070587016642094 0.008574203588068485 -0.009327676147222519 0.0040967948734760284 0.02921559289097786 0.017664173617959023 -0.04835311695933342 -0.02383960597217083 -0.0023471766617149115 -0.022994238883256912 -0.025143122300505638 -0.033585257828235626 0.005779705476015806 0.0067658619955182076 -0.0331868939101696 -0.004599381238222122 0.00872169528156519 -0.029799433425068855 -0.033112816512584686 0.025542637333273888 -0.017175864428281784 0.018220454454421997 0.021793069317936897 -0.012405620887875557 -0.049500033259391785 -0.016294747591018677 -0.013026910834014416 -0.019122671335935593 0.019631968811154366 0.010109388269484043 -0.01096935011446476 0.017060253769159317 0.0113272899761796 0.014331193640828133 0.03472214937210083 0.014166035689413548 -0.017831696197390556 -0.014780363067984581 -0.010355298407375813 0.011941617354750633 0.013187847100198269 -0.011311247013509274 0.012802572920918465 0.020003071054816246 0.0011666646460071206 0.015179816633462906 0.008856650441884995 0.011540578678250313 -0.00204957346431911 -0.02190362475812435 -0.009315227158367634 0.013146406039595604 -0.03743214160203934 -0.03201356157660484 -0.032661788165569305 0.01897856779396534 0.018565740436315536 0.02221505716443062 -0.013809053227305412 0.023985540494322777 -0.033990416675806046 0.023792313411831856 0.019587576389312744 -0.003410919336602092 -0.011401700787246227 -0.02069423720240593 0.041111767292022705 -0.027445916086435318 -0.02051633410155773 0.0037107046227902174 0.012470870278775692 0.01676964946091175 0.0102727971971035 0.008373125456273556 0.0005017559742555022 0.011466089636087418 -0.011985763907432556 -0.05205051973462105 0.00833798572421074 -0.02829289622604847 0.0042666904628276825 -0.005816871766000986 0.014454632066190243 -0.0028780146967619658 0.006122182123363018 -0.0021907284390181303 0.01512713823467493 0.01895570196211338 0.013642185367643833 -0.00038899510400369763 -0.008457322604954243 0.012924633920192719 0.022950096055865288 0.010148914530873299 0.022383177652955055 -0.034691791981458664 0.015341420657932758 -0.017629370093345642 -0.023001544177532196 0.028398064896464348 -0.012864800170063972 0.015658970922231674 -0.005060410127043724 0.03960878401994705 0.0279439315199852 -0.014987406320869923 0.0023722657933831215 -0.017009662464261055 -0.02345101535320282 -0.018646731972694397 -0.032620977610349655 -0.026029542088508606 -0.027996880933642387 0.015599297359585762 -0.004941172432154417 -0.031339846551418304 0.033221710473299026 0.016592757776379585 0.00392893236130476 0.006305455695837736 0.008859061636030674 -0.0009164945804513991 -0.011632226407527924 0.007262009661644697 0.045393574982881546 -0.017958786338567734 0.01889684982597828 0.003525452222675085 0.004619112703949213 -0.005452267359942198 -0.022754870355129242 0.03052164427936077 0.0029045715928077698 -0.0024949104990810156 0.013392336666584015 -0.038945272564888 0.00028537106118164957 0.028392992913722992 -0.01752648316323757 0.007480998989194632 -0.05579297989606857 -0.01296056155115366 -0.05604987218976021 -0.02807450480759144 -0.00156784791033715 0.0020543928258121014 -0.008052865974605083 -0.005236152559518814 0.02080422267317772 -0.004352275747805834 0.02845066599547863 -0.010913320817053318 -0.012317618355154991 0.005404067691415548 0.015862224623560905 0.020717047154903412 -0.022414367645978928 -0.02298339456319809 -0.015035957098007202 -0.01597455143928528 0.00310084642842412 0.04169147461652756 0.0008116408716887236 -0.01402679830789566 -0.00527505949139595 0.013909502886235714 0.023423250764608383 -0.011353602632880211 0.02421172708272934 0.03458552807569504 -0.010629089549183846 -0.0007210191106423736 -0.007734875660389662 0.007650610990822315 0.013829776085913181 0.013254237361252308 -0.029743313789367676 0.005138515029102564 0.03695649653673172 -0.01578858494758606 0.01416622195392847 0.0031691465992480516 -0.03981367498636246 0.0015251990407705307 -0.0021949303336441517 -0.017410511150956154 -0.004348733462393284 0.018245382234454155 -0.021156223490834236 0.0039230696856975555 -0.016865553334355354 -0.017167413607239723 0.024889837950468063 0.007099787704646587 0.007122832350432873 0.014009791426360607 0.0012495251139625907 0.026190469041466713 -0.007449416909366846 -0.01780654303729534 -0.018749020993709564 -0.0004246373428031802 0.009864860214293003 -0.008314104750752449 0.0025808284990489483 -0.005497677251696587 0.01627269573509693 -0.0067086550407111645 -0.009205719456076622 -0.002624365035444498 0.007688075304031372 -0.00649626087397337 0.03474107012152672 0.019599080085754395 0.007102057337760925 -0.028991064056754112 -0.01576969586312771 0.025570804253220558 0.0024041635915637016 -0.008938881568610668 -0.01577361486852169 -0.00809855293482542 0.03416510298848152 -0.012480600737035275 -0.03282398357987404 -0.01917121559381485 -0.0057715605944395065 0.005676822736859322 0.01577034220099449 -0.04742542281746864 0.018454553559422493 0.013201819732785225 -0.00922358874231577 0.01286550983786583 -0.03147119656205177 -0.0329950787127018 0.01117629837244749 0.03448612615466118 0.0064651845023036 0.029893845319747925 0.014814294874668121 0.010577823966741562 -0.01030338928103447 0.02061019092798233 0.043531619012355804 -0.01862184889614582 0.013915727846324444 -0.05940151959657669 -0.04408462345600128 0.021680008620023727 0.015932034701108932 -0.010244932025671005 0.0003548567765392363 0.030744323506951332 -0.012650158256292343 -0.020264213904738426 0.03638524189591408 0.023251373320817947 0.02006544917821884 -0.001482997089624405 -0.010699653066694736 0.009300434030592442 0.02437516488134861 0.047241974622011185 -0.020825376734137535 0.007116368971765041 0.014274181798100471 0.011762174777686596 -0.04439479857683182 0.0026502779219299555 -0.0496419295668602 0.06597679108381271 -0.0032010513823479414 0.0018978413427248597 0.003129491349682212 0.017990829423069954 0.007428723853081465 -0.005016840994358063 -0.006634019315242767 -0.00364836398512125 0.0037413525860756636 0.025576725602149963 0.014334332197904587 -0.031087087467312813 0.008537078276276588 -0.018407020717859268 -0.024820588529109955 0.0005425074486993253 0.040389154106378555 -0.038442712277173996 -0.004518443252891302 0.00504617253318429 -0.02967868372797966 -0.024682678282260895 0.015129975974559784 0.009038018062710762 0.011345608159899712 -0.001769752474501729 0.03715643659234047 -0.022150684148073196 0.02907337248325348 0.027036573737859726 0.019362958148121834 -0.008571832440793514 0.01435042917728424 0.04797190800309181 -0.016214855015277863 0.057864487171173096 0.002593903336673975 1.8922919480246492e-06 0.013789563439786434 0.044545724987983704 -0.01694382168352604 -0.01123778522014618 -0.007613389752805233 -0.020520033314824104 0.00450581219047308 -0.011216975748538971 0.020489100366830826 -0.01154306810349226 -0.011564505286514759 0.004901175387203693 0.05788641422986984 0.011506368406116962 -0.02388712763786316 0.0014307497767731547 -0.01831364817917347 0.02130644954741001 -0.00170440215151757 0.005647918209433556 0.01232170220464468 -0.013803329318761826 0.009441896341741085 -0.01827133260667324 0.02192838117480278 -0.03254500404000282 0.004945052322000265 -0.02224048599600792 0.01781359873712063 0.04781116545200348 0.014241180382668972 0.01895936019718647 0.014493896625936031 0.011055790819227695 0.008011817932128906 0.022915663197636604 0.006380022969096899 0.019662290811538696 0.0004589972668327391 0.021034635603427887 0.010802383534610271 0.010168977081775665 -0.02608472667634487 -0.019306212663650513 -0.03299235925078392 0.019978554919362068 -0.024753466248512268 0.006007824093103409 -0.0117995860055089 0.021151715889573097 0.0004293263773433864 -0.04304720088839531 -0.046004146337509155 -0.013089257292449474 -0.019211729988455772 -0.006536259315907955 0.014548276551067829 -0.02033012919127941 0.01730605587363243 0.010171385481953621 0.0031459294259548187 0.0047395918518304825 -0.016851261258125305 0.005465986672788858 -0.003928127232939005 0.0164088923484087 -0.032175056636333466 -0.026805028319358826 0.07426022738218307 -0.0403921976685524 -0.031801532953977585 0.00019211445760447532 -0.05187010392546654 -0.009268412366509438 -0.01796135865151882 0.010896126739680767 -0.0018887558253481984 -0.005352608393877745 -0.010934379883110523 -0.008986947126686573 -0.008378935046494007 0.01924930512905121 0.02267780527472496 0.0018138758605346084 0.0027815166395157576 -0.023612316697835922 0.0032205802854150534 -0.013541750609874725 -0.008916246704757214 -0.005004310980439186 -0.013914135284721851 -0.012528086081147194 -0.0146893709897995 -0.0031014743726700544 -0.01106960792094469 -0.011762399226427078 0.04627704620361328 -0.009395991452038288 -0.026668816804885864 0.03734510391950607 0.035508573055267334 -0.012465429492294788 0.003387831151485443 0.040445566177368164 0.027365300804376602 0.03292783349752426 0.010500754229724407 0.0034237829968333244 -0.014666344970464706 0.009151668287813663 0.0018542902544140816 0.01201232522726059 -0.01763300783932209 -0.012388993054628372 0.03338560089468956 0.02348080463707447 -0.0013238390674814582 -6.0067141021136194e-05 -0.009015795774757862 0.015721259638667107 -0.008151043206453323 0.003622247837483883 -0.013894157484173775 0.0002634983975440264 -0.009434649720788002 -0.014864745549857616 -0.036782536655664444 0.017762547358870506 0.00179769704118371 -0.05527399480342865 -0.006189659703522921 0.014841252937912941 0.004306982737034559 0.04736974090337753 0.00534192007035017 -0.03003523498773575 0.04682270810008049 -0.02005905471742153 -0.006671142764389515 0.0010668300092220306 0.01660122163593769 -0.028994783759117126 0.013245736248791218 0.022091126069426537 0.0017448775470256805 0.0015481581212952733 0.002221836941316724 0.02881542406976223 0.014841591008007526 -0.002865907270461321 -0.023280136287212372 0.016865305602550507 -0.00625710329040885 0.0033724159002304077 -0.004796667490154505 -0.0487583763897419 -0.013052091002464294 -0.01571895182132721 0.0034414397086948156 0.007394835352897644 -0.010681838728487492 -0.001540707191452384 -0.013911389745771885 0.030002722516655922 -0.01322676707059145 0.00787708442658186 -0.018042301759123802 0.05473196879029274 -0.013826658017933369 -0.004331327974796295 0.011512547731399536 -0.0022919841576367617 0.01383097842335701 0.00013543576642405242 -0.023189447820186615 0.03313779830932617 0.011965551413595676 -0.02399219200015068 -0.02596139721572399 0.01716606505215168 0.04638252407312393 0.04447013884782791 -0.007696092128753662 0.03643430396914482 0.027483277022838593 0.037464238703250885 0.000825950235594064 0.022163040935993195 0.008931395597755909 0.004822211340069771 -0.003949007019400597 -0.012285131961107254 -0.03266054391860962 -0.004344696179032326 0.007205422502011061 -0.008786032907664776 -0.0005638088332489133 0.006005766801536083 0.02801986038684845 -0.006590745411813259 -0.005151630379259586 -0.007701622787863016 -0.0010539429495111108 -0.011531352996826172 0.031757619231939316 0.002361176535487175 0.00953778438270092 -0.007357151247560978 -0.01572471298277378 -0.006427562329918146 -0.03165701404213905 0.013364438898861408 0.0033554714173078537 -0.019169142469763756 -0.005662837065756321 -0.012048719450831413 -0.02233017422258854 0.0011633408721536398 -0.01571357436478138 0.0009859168203547597 0.010762455873191357 0.01011515874415636 -0.00971329864114523 0.012902453541755676 0.0320698544383049 -0.00552567420527339 0.0002589128562249243 0.007606302388012409 0.01212826743721962 0.03720356523990631 0.006102154031395912 0.01916365884244442 -0.05430418998003006 0.0078355073928833 -0.006217845715582371 0.016194118186831474 0.015577524900436401 -0.028367873281240463 -0.008905825205147266 0.003877699375152588 -0.02361839823424816 0.008438603021204472 0.011418536305427551 -0.05730365589261055 0.023400019854307175 0.012094106525182724 -0.013345888815820217 -0.022031337022781372 -0.018230481073260307 -0.014743794687092304 -0.026814166456460953 -0.011599436402320862 0.012316394597291946 0.023266181349754333 -0.005461679771542549 -0.010150971822440624 0.027750225737690926 0.02043861337006092 0.035061340779066086 0.030039938166737556 -0.027654848992824554 0.013699459843337536 -1.8868333427235484e-05 0.019553279504179955 0.013465275056660175 -0.0016065073432400823 0.01206896360963583 0.008715069852769375 0.023117568343877792 -0.012292698957026005 -0.015308558009564877 -0.0358697772026062 0.014290555380284786 -0.017071332782506943 0.028191804885864258 0.02463807351887226 0.007097300142049789 -0.010523106902837753 0.03817964717745781 0.0020391023717820644 0.0004605407011695206 0.026266593486070633 0.016282638534903526 -0.0034622568637132645 -0.01970306597650051 0.001468886504881084 -0.014904467388987541 0.0015931639354676008 -0.002834038343280554 -0.012006659060716629 0.003695459570735693 -0.00106082356069237 0.02068602479994297 0.062023404985666275 0.018756555393338203 0.019845247268676758 0.03842797130346298 0.010669553652405739 -0.0028007931541651487 0.010926898568868637 -0.029909156262874603 -0.034648995846509933 0.003126642433926463 -0.009792689234018326 0.028404921293258667 0.025279227644205093 -0.012663574889302254 -0.014553769491612911 -0.006733953021466732 -0.015428452752530575 0.042840223759412766 -0.016316356137394905 -0.003803889499977231 0.005260597448796034 -0.017713645473122597 0.01685929298400879 0.027929771691560745 -0.004155850503593683 -0.005838332232087851 0.030152112245559692 0.005344342906028032 -0.02307017520070076 0.029026765376329422 0.009279659949243069 -0.017200710251927376 -0.013307916931807995 -0.013375193811953068 0.016187144443392754 0.019997473806142807 -0.03311988711357117 -0.015814535319805145 -0.0014631783124059439 0.02839101478457451 0.021701153367757797 -0.023306909948587418 0.01777038723230362 -0.007492298260331154 -0.020981742069125175 -0.009607472456991673 0.005654018372297287 0.0013875400181859732 0.009151237085461617 0.019897211343050003 -0.009444275870919228 0.01392595935612917 0.02481333538889885 0.015584228560328484 0.03151511400938034 -0.000872178643476218 -0.012245135381817818 0.016063958406448364 0.02676108479499817 0.014483977109193802 -1.0083971346830367e-06 0.04939050227403641 -0.021695533767342567 0.013588575646281242 -0.0055908821523189545 0.009005763567984104 -0.0221866387873888 -0.017881348729133606 0.01100084837526083 -0.0034023241605609655 -0.013312063179910183 -0.012501788325607777 -0.030498579144477844 -0.02889085002243519 -0.014372451230883598 0.01308764610439539 0.02235027402639389 -0.0035983778070658445 0.008733072318136692 -0.021222667768597603 -0.007143209222704172 0.026016172021627426 -0.000997049966827035 -0.02281610667705536 0.0013755698455497622 -0.03782498836517334 0.004203267395496368 0.026787078008055687 -0.009266725741326809 0.010372568853199482 0.005559985525906086 0.021090179681777954 0.010839450173079967 -0.001927098142914474 0.0458560548722744 0.02632898837327957 0.050627853721380234 -0.00016370367666240782 0.01715659722685814 -0.002346515189856291 -0.008170719258487225 -0.007730612996965647 0.0062563749961555 -0.019481228664517403 -0.05401168391108513 -0.016400093212723732 -0.04332835227251053 0.04101507365703583 -0.016323143616318703 -0.018263017758727074 -0.016691939905285835 0.005278450436890125 -0.0026695015840232372 0.01474226638674736 0.0017386797117069364 0.03474981710314751 -0.017312053591012955 -0.03900007903575897 -0.005646366160362959 -0.007441799622029066 -0.006167458835989237 -0.005605940707027912 0.04364427179098129 0.003851501038298011 0.01910698600113392 -0.02323123626410961 0.029931191354990005 -0.00962388888001442 0.03776750713586807 -0.00343901664018631 -0.0019312698859721422 -0.017915617674589157 -0.06197493150830269 0.01728730835020542 0.004684030544012785 -0.02113192342221737 -0.0195936169475317 0.036154694855213165 0.02424621768295765 0.034885160624980927 -0.04046444222331047 -0.027667846530675888 -0.04637633636593819 0.014971312135457993 -0.012251916341483593 -0.001350170117802918 -0.009587946347892284 -0.001808790024369955 -0.0057753329165279865 -0.023838017135858536 0.028531841933727264 -0.0009658145718276501 0.006527195684611797 -0.03360603377223015 0.028829410672187805 -0.0019422222394496202 -0.01225331611931324 0.02238750457763672 -0.01856118068099022 -0.0034479224123060703 -0.025145303457975388 0.005428890697658062 -0.0038764900527894497 -0.013459558598697186 0.007044050842523575 0.011016644537448883 -0.026568656787276268 0.013901839964091778 -0.038533467799425125 -0.008476119488477707 -0.013910314999520779 0.0005887779989279807 0.012768430635333061 0.021412460133433342 -0.024116573855280876 -0.0233527272939682 -0.02886028215289116 -0.0222774725407362 0.009202935732901096 -0.03637933358550072 -0.0017250657547265291 0.01289348304271698 0.01695486530661583 -0.0032387629617005587 -0.01089874841272831 -0.006122542079538107 -0.005719756707549095 -0.012567872181534767 -0.006250900682061911 -0.01648683287203312 0.0013601718237623572 0.02177259884774685 0.015492397360503674 0.014083564281463623 0.018116982653737068 0.009488524869084358 0.014270284213125706 -0.018485067412257195 0.023197904229164124 -0.02607714757323265 -0.020254088565707207 -0.03778853267431259 -0.007509807590395212 0.014435826800763607 -0.0006175328162498772 -0.015418295748531818 0.011276550590991974 -0.013959405943751335 0.016481686383485794 -0.010990401729941368 0.023285988718271255 0.037636205554008484 -0.014562593773007393 0.03148490563035011 -0.00573813496157527 -0.010122825391590595 -0.004772549960762262 0.04378275200724602 -0.00493692047894001 -0.019797326996922493 -0.006700284779071808 -0.018679620698094368 0.009478441439568996 0.018896181136369705 0.0042638592422008514 0.020906483754515648 0.04341557249426842 -0.0029008982237428427 0.015647049993276596 0.010603110305964947 -0.04139446094632149 0.0023314158897846937 0.03708817437291145 0.031574975699186325 0.040667224675416946 0.001317142159678042 -0.009229428134858608 -0.012537326663732529 -0.026835184544324875 -0.0003161760978400707 0.0013106624828651547 -0.0029984789434820414 0.010840634815394878 -0.007192372344434261 -0.00793184619396925 -0.03226238861680031 0.016958072781562805 0.0037512413691729307 -0.020191939547657967 -0.014798770658671856 -0.024075975641608238 0.03560543805360794 0.025506317615509033 0.004627624526619911 -0.046518709510564804 -0.0009076237329281867 0.04147901386022568 -0.025357170030474663 -0.006988117936998606 -0.010356203652918339 0.0012242576340213418 0.005995162762701511 0.018081059679389 -0.03765629231929779 0.017990943044424057 0.009510282427072525 0.013090429827570915 -0.009713277220726013 -0.038219552487134933 0.005170267075300217 -0.013579098507761955 -0.020758718252182007 -0.02251896820962429 -0.039898548275232315 -0.007684282027184963 0.013472605496644974 -0.01743321679532528 -0.035377755761146545 -0.014303774572908878 -0.006953149102628231 -0.018954629078507423 -0.022247202694416046 0.001963573507964611 0.0377841480076313 -0.007222933694720268 0.04110348969697952 -0.0032801355700939894 -0.014415213838219643 -0.023303639143705368 -0.006590374745428562 -0.029147939756512642 0.005323437042534351 0.01038480456918478 -0.003594228532165289 -0.04747011139988899 0.01608917862176895 -0.004060646984726191 0.040076520293951035 0.017471879720687866 0.016474520787596703 0.009728331118822098 0.01928790472447872 -0.0038495573680847883 0.008717780001461506 0.004869712982326746 0.01778283342719078 0.009496730752289295 -0.009125281125307083 0.005903806071728468 0.0069832527078688145 -0.04168485477566719 0.02355300262570381 0.0234014093875885 0.0017708040541037917 -0.006897556595504284 -0.016706204041838646 -0.032956335693597794 0.009472068399190903 -0.0111312260851264 0.024571197107434273 -0.03272763267159462 0.07479510456323624 0.0008292832062579691 0.014766445383429527 -0.012120027095079422 0.025493305176496506 -0.014354352839291096 -0.005642562173306942 0.02354707382619381 0.01960024982690811 -0.03197415918111801 -0.030145177617669106 -0.007332177832722664 -0.06430044025182724 0.007622042670845985 -0.003696494735777378 0.01302514597773552 0.0013987320708110929 0.027000335976481438 -0.02673175558447838 -0.0037285727448761463 -0.008101307787001133 -0.0324285589158535 -0.0018794839270412922 0.015813274309039116 0.0032706481870263815 0.021346237510442734 0.011335011571645737 0.016816502436995506 -0.004802688956260681 -0.030594784766435623 0.017753541469573975 -0.021065153181552887 -9.122988558374345e-05 -0.03196755796670914 -0.0019524726085364819 0.018003923818469048 0.02658894658088684 0.027958236634731293 -0.006932834628969431 0.0009244992979802191 0.0038304291665554047 0.014835264533758163 -0.013715020380914211 0.009561927989125252 0.01482195034623146 -0.020249532535672188 0.019934380427002907 -0.012879084795713425 -0.016062969341874123 -0.022217459976673126 0.02872474305331707 0.010011395439505577 -0.026641584932804108 -0.011390670202672482 -0.005273096729069948 0.01437566801905632 -0.03788066282868385 0.0030702855437994003 0.0144916707649827 0.012622809037566185 -0.025554589927196503 -0.02559300884604454 -0.025294169783592224 -0.03453882411122322 -0.0004575549392029643 0.004784871358424425 -0.008500881493091583 0.0009742852416820824 0.0035088916774839163 -0.030133651569485664 -0.020238878205418587 -0.01844603940844536 -0.020858069881796837 0.027197008952498436 0.024942800402641296 -0.002466751728206873 -0.01801162026822567 -0.03334878757596016 0.025291958823800087 0.024090776219964027 -0.012229337356984615 -0.011356043629348278 0.018533552065491676 -0.04769117385149002 -0.009165161289274693 0.03234846517443657 0.0305301696062088 -0.0047310045920312405 0.024073094129562378 -0.006195046007633209 -0.018600430339574814 0.035876162350177765 -0.022033264860510826 -0.018559494987130165 0.03129126504063606 0.041547104716300964 0.01755603402853012 -0.043143827468156815 -0.010227769613265991 -0.004163922742009163 -0.02322951704263687 0.0106269596144557 0.00520000234246254 0.027380581945180893 0.01138325221836567 0.017531618475914 0.0030801331158727407 0.019423794001340866 0.02534315548837185 8.725432417122647e-05 0.005100758746266365 -0.005335463210940361 0.013574039563536644 0.0050273435190320015 -0.0006325627327896655 -0.042978107929229736 -0.008001944050192833 -0.010690110735595226 0.01620728150010109 0.00021184606885071844 -0.020434221252799034 -0.0020222091116011143 -0.01585763320326805 0.016830919310450554 -0.007416598964482546 -0.019724193960428238 -0.012680821120738983 -0.019978117197752 -0.013641390949487686 -0.03778332099318504 0.0014979623956605792 -0.0056382520124316216 -0.002414480084553361 0.010980152525007725 0.01281655766069889 -0.009905925020575523 -0.002244669711217284 -0.008678975515067577 -0.010977707803249359 0.004685263615101576 -0.025800684466958046 -0.019859163090586662 0.0228999312967062 0.008787130936980247 -0.0007011790876276791 -0.03688211366534233 -0.02102126181125641 0.0049400730058550835 -0.00908410083502531 0.007571525406092405 0.009877297095954418 -0.04509400203824043 0.011364988051354885 -0.024562817066907883 0.008210189640522003 0.016161546111106873 0.02936769463121891 0.018892619758844376 0.003034597262740135 0.01018071360886097 -0.032512206584215164 0.0020398080814629793 -0.006665060296654701 -0.01018196064978838 0.014371576718986034 0.04156894609332085 -0.009538330137729645 -0.013276277109980583 0.01537157129496336 -0.014053909108042717 0.0016814497066661716 0.006613439414650202 -0.0029635883402079344 0.02125566080212593 0.02063221111893654 -0.01178490836173296 -0.01266536582261324 -0.010029325261712074 -0.001553956768475473 -0.030814284458756447 0.0036540022119879723 0.016151413321495056 0.03603798523545265 -0.02221463806927204 0.02150917239487171 0.029312649741768837 -0.010163436643779278 -0.003205639310181141 0.007466417737305164 -0.0038475370965898037 -0.005466716829687357 -0.013120786286890507 0.0013103150995448232 0.04516977071762085 0.02929934673011303 0.0015820408007130027 0.008998428471386433 -0.023954788222908974 -0.03766561672091484 0.017233967781066895 -0.001424883957952261 0.01997493766248226 0.031693462282419205 0.003214089432731271 -0.005202779080718756 -0.0009097609436139464 0.029280677437782288 -0.001429838128387928 0.01220786850899458 -0.018305711448192596 0.0022796664852648973 0.0006513490807265043 0.010634397156536579 0.00714887073263526 -0.02981066331267357 0.02210856042802334 -0.008530438877642155 -0.02562108263373375 -0.005804558750241995 0.02230066992342472 0.01958348974585533 0.026282714679837227 -0.004289515782147646 -0.0124826580286026 0.023432115092873573 0.005419174209237099 0.03024778701364994 -0.030057888478040695 0.02577519789338112 0.015921033918857574 0.00600295839831233 0.024301769211888313 -0.02952548675239086 -0.00536443293094635 0.02094082534313202 0.018412910401821136 0.027785953134298325 -0.032560475170612335 -0.048184800893068314 -0.005312169902026653 0.008436014875769615 -0.006243652664124966 0.008636324666440487 -0.011118581518530846 0.010179901495575905 0.008011381141841412 -0.021974768489599228 0.021368447691202164 -0.014102797955274582 -0.003520663594827056 0.003494046861305833 0.01753888837993145 0.005404202733188868 -0.035611581057310104 0.03081665001809597 -0.014535055495798588 0.012117771431803703 0.0011458678636699915 -0.01696598343551159 0.03772338107228279 -0.003013782436028123 -0.037179313600063324 0.011228770017623901 -0.028776749968528748 -0.0421949103474617 -0.023096352815628052 0.02024156041443348 0.022035744041204453 0.0015825761947780848 0.01893213391304016 0.02170381508767605 -0.006490589119493961 0.01222213264554739 0.00778918294236064 -0.0011639903532341123 0.011306488886475563 0.0018177939346060157 -0.005943894851952791 -0.010064629837870598 -0.018333863466978073 0.03475390747189522 0.030858812853693962 -0.008392734453082085 0.01720859296619892 0.011185274459421635 0.0300891250371933 -0.037076544016599655 -0.03483551740646362 0.006412066053599119 -0.01000257208943367 0.011052831076085567 0.02440933883190155 0.012227050960063934 -0.028220396488904953 0.009529707953333855 6.319333624560386e-05 -0.015320876613259315 -0.0028389287181198597 0.017797116190195084 0.008514691144227982 -0.009111602790653706 0.012965566478669643 0.01351021695882082 -0.00262253824621439 -0.008268926292657852 0.0268552266061306 -0.01757313869893551 0.021623650565743446 -0.01932949386537075 0.011273502372205257 0.01877240091562271 -0.00706564961001277 0.00985111016780138 -0.004114250652492046 0.03242386505007744 -0.0004537880013231188 -0.029581965878605843 -0.0027722215745598078 0.03121870569884777 0.03115316852927208 -4.9617403419688344e-05 -0.025687530636787415 -0.03291112929582596 0.02637828327715397 0.022234460338950157 -0.0024464870803058147 -0.007244038861244917 -0.026362674310803413 -0.0005528065375983715 