-0.058661263436079025 -0.04321856424212456 0.011127839796245098 -0.04578610882163048 -0.05194879695773125 0.0044933101162314415 0.0402812622487545 0.04462645947933197 -0.03280796855688095 0.013143479824066162 -0.08579607307910919 -0.01850695163011551 -0.04747054725885391 0.0029460359364748 -0.027547262609004974 0.034900300204753876 -0.032465096563100815 -0.0019509150879457593 0.07664939016103745 0.009341475553810596 0.03751068562269211 -0.04587419331073761 -0.019695794209837914 -0.013557665050029755 -0.0021081003360450268 -0.02558072656393051 -0.09261372685432434 -0.09708657115697861 -0.04943763092160225 0.12280990183353424 -0.01332087256014347 -0.04335442930459976 0.040592242032289505 -0.12121254205703735 -0.017724616453051567 0.009141764603555202 -0.08163256198167801 0.07949823886156082 -0.02252243645489216 -0.1028851792216301 0.024146029725670815 -0.0017127868486568332 -0.011310425586998463 0.08030325919389725 0.049606554210186005 -0.03916823863983154 0.0777517706155777 0.05353023484349251 -0.06060081347823143 -0.021709250286221504 -0.00019136277842335403 -0.011070210486650467 0.04973357170820236 0.009241113439202309 0.024308208376169205 -0.007573671173304319 -0.12665140628814697 0.020397717133164406 -0.15361376106739044 0.06737922877073288 -0.018990041688084602 -0.07024310529232025 0.003036679932847619 -0.023338312283158302 -0.09304976463317871 0.019593846052885056 -0.05173107236623764 0.04349207133054733 -0.043336834758520126 0.006835727021098137 0.014535927213728428 0.015805436298251152 -0.06091304123401642 0.03945296257734299 -0.00046201719669625163 -0.003573046298697591 0.013992216438055038 -0.10415370762348175 0.015815619379281998 0.018222874030470848 -0.01896539330482483 0.10523829609155655 0.019747106358408928 0.08853355795145035 -0.022779779508709908 -0.07586213946342468 0.05026385933160782 0.08015032112598419 0.03476325422525406 0.08405942469835281 -0.023983299732208252 -0.05332900211215019 0.08310303092002869 0.03956376388669014 -0.018275130540132523 -0.022974079474806786 0.03992728888988495 -0.019621485844254494 -0.02896120585501194 -0.016320478171110153 0.02543894574046135 -0.050835199654102325 -0.09607198089361191 0.03229377046227455 -0.056403640657663345 -0.0716298371553421 0.06479538977146149 0.004666418768465519 -0.02656501904129982 0.037122033536434174 0.007216482888907194 -0.032169751822948456 0.029702607542276382 -0.02018660493195057 0.05655806511640549 -0.0580567829310894 0.04429025948047638 0.0026201873552054167 -0.14939868450164795 -0.03206302225589752 0.03362494334578514 0.0676361471414566 0.004254794679582119 0.03666612133383751 -0.04724631831049919 0.0654960423707962 0.030413122847676277 0.03569002449512482]