0.004005683120340109 0.03513558581471443 -0.040295109152793884 -0.1305067241191864 0.07257617264986038 -0.059527162462472916 -0.004423226695507765 -0.06059633940458298 -0.03189561516046524 -0.0074411784298717976 0.057275641709566116 -0.012277376838028431 0.1322411149740219 -0.046599604189395905 0.06193196028470993 0.02160797454416752 -0.020506300032138824 -0.022201549261808395 0.12496598064899445 0.03502267599105835 -0.11407612264156342 0.03521423414349556 0.0038768937811255455 -0.03481791168451309 -0.09936871379613876 -0.10335639119148254 -0.06899259239435196 -0.13102686405181885 -0.16244666278362274 0.07334128767251968 -0.10750282555818558 -0.1273796409368515 -0.004081203136593103 0.09638887643814087 -0.06591924279928207 0.005153224337846041 0.1062033399939537 -0.17562687397003174 0.08358028531074524 0.06649167090654373 -0.08132100850343704 0.06713222712278366 -0.0793175920844078 -0.05054992437362671 -0.07218211889266968 0.02438865229487419 -0.041104573756456375 -0.006088435184210539 0.10620447248220444 -0.14931870996952057 -0.0018288498977199197 -0.038749586790800095 0.042593181133270264 0.11327648907899857 -0.09634485840797424 0.03335283696651459 -0.02187429741024971 -0.08660591393709183 -0.11124269664287567 0.05838790908455849 -0.04138849675655365 -0.05418065935373306 -0.057893313467502594 0.09009526669979095 0.0054919421672821045 -0.010687331669032574 -0.03698071464896202 -0.027492662891745567 -0.03852374106645584 -0.06004650890827179 0.0827503502368927 -0.18640398979187012 -0.11005764454603195 0.03283751755952835 -0.18776647746562958 0.09866712987422943 -0.2020227611064911 -0.003615380497649312 -0.06222281605005264 0.026345063000917435 -0.061238229274749756 0.28936702013015747 0.011979074217379093 0.03177884966135025 0.07750356197357178 -0.004711105953902006 -0.1033724844455719 0.041022446006536484 -0.02980804070830345 0.11112713813781738 0.10185761749744415 -0.03744928911328316 0.14117059111595154 0.08197632431983948 0.061024729162454605 -0.0500691793859005 0.019298745319247246 0.05842041224241257 0.08042842149734497 0.019132470712065697 0.03580858185887337 -0.06879521906375885 0.03539331257343292 0.06655711680650711 0.08346924185752869 0.10015970468521118 0.07256445288658142 -0.015816310420632362 0.18810665607452393 0.010643807239830494 -0.04436386376619339 -0.08033707737922668 0.08404576778411865 -0.11031211912631989 0.1697787493467331 -0.09662341326475143 0.028816450387239456 -0.11602763086557388 -0.1127152293920517 0.06915770471096039 -0.0738871842622757 -0.06349107623100281 0.006197893060743809 0.010747784748673439 0.079627625644207 -0.1402372419834137 -0.06060345098376274 0.009847555309534073 0.6819915175437927 -0.00954431388527155 0.02512274868786335 -0.04005792364478111 -0.01376253366470337 0.015423526056110859 -0.0008711485425010324 0.02489166334271431 -0.006275211926549673 -0.004714835435152054 -0.07985087484121323 -0.02474561706185341 -0.007236172910779715 0.026139045134186745 -0.04280722141265869 0.039424702525138855 0.005953628569841385 -0.011256014928221703 -0.022302160039544106 0.0161353200674057 -0.051685135811567307 -0.06728051602840424 0.015981467440724373 -0.04399231821298599 -0.019816048443317413 -0.0006064694607630372 -0.03595037758350372 -0.04508822038769722 -0.01384055707603693 0.018209513276815414 0.021645396947860718 -0.018107017502188683 0.03044424019753933 -0.05871462821960449 -0.01343095675110817 -0.002410754794254899 -0.001129740267060697 -0.022899309173226357 0.010416677221655846 0.015346781350672245 0.00409498019143939 -0.019664455205202103 -0.023927409201860428 0.02035614475607872 0.021518509835004807 -0.03599384054541588 -0.02751736529171467 0.031044771894812584 -0.026759274303913116 0.013112387619912624 -0.0013483500806614757 -0.020235469564795494 -0.016239367425441742 0.0010910299606621265 -0.064064159989357 -0.021797146648168564 -0.046499889343976974 0.003521439153701067 -0.031199609860777855 0.01285022683441639 0.019824063405394554 0.0037070452235639095 -0.01128336787223816 -0.04455716907978058 0.0030472571961581707 0.014955876395106316 0.008082423359155655 -0.013751573860645294 0.03616230934858322 0.0062086270190775394 -0.016673127189278603 0.011113098822534084 0.016105132177472115 -0.0077608199790120125 0.0412769541144371 0.012854833155870438 -0.0026502797845751047 -0.013003980740904808 0.005133031401783228 -0.06337103247642517 0.015982139855623245 0.04186241328716278 -0.005586742423474789 0.014260929077863693 -0.003962287679314613 -0.014753496274352074 0.013101667165756226 0.030541609972715378 0.006485681049525738 0.02783302217721939 -0.0015532368561252952 0.005392923019826412 0.03702893480658531 0.03550035133957863 -0.037504520267248154 -0.02758684940636158 -0.014992788434028625 0.01946227438747883 -0.00012199355842312798 0.008134180679917336 0.01352833304554224 -0.03559129312634468 -0.008825689554214478 0.0015144854551181197 -0.0019015884026885033 -0.012146970257163048 0.03664461895823479 -0.013662341982126236 0.03870236501097679 0.00618271017447114 -0.006368548143655062 -0.031896207481622696 0.003474388038739562 0.0165250226855278 0.013791906647384167 0.05614212527871132 -0.005640718620270491 -0.0063279601745307446 -0.04330059513449669 -0.004564210306853056 0.0055059646256268024 0.02390996739268303 0.06448963284492493 0.0008645183406770229 -0.003004499478265643 0.013244619593024254 0.01683426834642887 -0.021768365055322647 0.06877127289772034 0.047722313553094864 0.02335187792778015 -0.10260315984487534 0.08216163516044617 0.11496119946241379 -0.04450254514813423 -0.09495966136455536 0.09187529981136322 -0.0993412509560585 0.10125451534986496 -0.0431821346282959 -0.0008217812865041196 0.0401863157749176 0.05758970230817795 -0.01600421778857708 0.0637541189789772 0.14756423234939575 0.04281176999211311 0.022279076278209686 0.19828855991363525 -0.07922041416168213 0.07224871218204498 0.001825774204917252 0.022987186908721924 -0.036095112562179565 0.06493819504976273 0.020044367760419846 0.005016208626329899 -0.12091419100761414 0.04922560974955559 0.10641017556190491 0.06978248804807663 0.10235940665006638 -0.1392303705215454 0.15087875723838806 -0.10466139763593674 0.0212031751871109 -0.0757753923535347 0.05595070868730545 0.09668626636266708 0.02663039229810238 -0.1265311986207962 -0.015190531499683857 0.008539552800357342 0.026413312181830406 0.08534245938062668 0.039508476853370667 0.0596393384039402 0.05677371472120285 0.0800064206123352 0.14947667717933655 0.09549660235643387 0.036728426814079285 0.00012182402133475989 -0.08629173040390015 0.11771317571401596 -0.0782364085316658 0.0006063173641450703 0.029215626418590546 0.01950409822165966 -0.07881606370210648 0.1757301390171051 0.026750169694423676 -0.03287745267152786 -0.07654747366905212 -0.09511887282133102 -0.08288034796714783 0.10632810741662979 -0.01712227798998356 0.02839129976928234 -0.0009606321109458804 0.009466561488807201 0.0554952397942543 0.07654872536659241 0.05254335701465607 -0.18954843282699585 -0.1298307478427887 -0.05092821642756462 -0.030549675226211548 0.012530941516160965 -0.040177661925554276 -0.10163892805576324 -0.21429882943630219 -0.06903679668903351 0.0704842135310173 0.1903495490550995 -0.10368839651346207 0.12604457139968872 0.02149585448205471 0.17593827843666077 -0.1957882195711136 -0.01686098426580429 0.13435322046279907 0.1344122439622879 0.02327955700457096 0.11859796196222305 -0.0011494876816868782 -0.07420465350151062 0.11664536595344543 -0.054331786930561066 -0.13091760873794556 -0.006649457849562168 0.027802184224128723 0.06824290752410889 -0.005802608095109463 -0.04294455423951149 -0.0240655317902565 0.07711435854434967 -0.04938489571213722 0.03959101065993309 -0.006213788408786058 -0.027511924505233765 -0.04716259241104126 0.16245898604393005 0.019450662657618523 -0.0156785249710083 -0.09979395568370819 -0.0017457477515563369 -0.009960049763321877 -0.002841660287231207 -0.02089950256049633 -0.07013905793428421 -0.04763844981789589 -0.18989115953445435 -0.1213126927614212 -0.07536584883928299 -0.04742419719696045 -0.020000988617539406 0.6134088039398193 -0.03012431226670742 -0.029186274856328964 0.03294290229678154 0.004834894556552172 0.002930273534730077 -0.04437209665775299 0.008784575387835503 -0.0035481234081089497 0.020910805091261864 -0.045000530779361725 -0.027488457038998604 0.020667174831032753 -0.03544212505221367 0.001936867367476225 0.003426414681598544 -0.019205886870622635 0.002587348222732544 0.016233939677476883 0.02626466378569603 0.01503710262477398 -0.0029497272334992886 0.01762682944536209 0.011475637555122375 -0.033071428537368774 -0.010784597136080265 0.022102905437350273 -0.008554021827876568 0.006654801312834024 0.04294253885746002 0.020612427964806557 -0.035177119076251984 0.01952158659696579 0.009416455402970314 -0.00612268690019846 0.01386143546551466 -0.02306174673140049 0.01585874706506729 -0.003854345064610243 0.036334406584501266 -0.005835712421685457 -0.00967318844050169 0.0061407010070979595 0.0034760928247123957 0.018175767734646797 -0.018717970699071884 -0.023279160261154175 -0.03283357247710228 -0.04374698922038078 0.039070531725883484 -0.014565969817340374 0.023925205692648888 0.007466204464435577 -0.007759399712085724 -0.012852882966399193 -0.055212460458278656 0.005956495180726051 0.059923846274614334 -0.0334419384598732 -0.005405519623309374 0.007057788781821728 -0.03149046376347542 0.018225140869617462 0.006828909274190664 0.0017888251459226012 -0.04802068695425987 0.01795073039829731 0.00791360903531313 -0.03401975333690643 0.037099018692970276 -0.003909403923898935 -0.013299199752509594 0.015710657462477684 0.01040168758481741 -0.006085909437388182 -0.04053478315472603 -0.060178909450769424 -0.03249583765864372 -0.007675732485949993 0.03627345338463783 0.021181397140026093 -0.010816005058586597 0.022708017379045486 0.04926891252398491 0.014014648273587227 0.03667290508747101 0.02224995195865631 -0.002700693439692259 -0.012994958087801933 0.0314481146633625 -0.01908639259636402 0.01823844201862812 -0.016843605786561966 -0.04299275577068329 0.043486304581165314 0.03547515347599983 -0.0025230504106730223 -0.023523105308413506 -0.022434847429394722 -0.01874350570142269 0.05068998411297798 0.0431106761097908 0.017276491969823837 -0.010324468836188316 0.032635822892189026 0.021818857640028 0.012303370982408524 -0.007830968126654625 -0.03491777554154396 -0.010984865948557854 -0.017458606511354446 0.008044790476560593 -0.03185912221670151 0.01645597256720066 -0.040358766913414 0.022396856918931007 -0.028804125264286995 -0.002600965555757284 0.006034144666045904 0.012587638571858406 0.03675832599401474 0.027692167088389397 0.03938383609056473 -0.043043170124292374 0.02667156793177128 -0.024102602154016495 -0.05562012642621994 0.026543501764535904 -0.10896072536706924 -0.14090381562709808 0.014698811806738377 0.10404342412948608 0.14720085263252258 0.041238341480493546 0.018323006108403206 -0.04015299677848816 0.08423558622598648 -0.11714551597833633 -0.13510316610336304 0.0056082154624164104 0.056313954293727875 -0.01996065303683281 -0.17375458776950836 -0.14472416043281555 0.02730357088148594 0.0787113830447197 -0.054143376648426056 0.10056387633085251 0.018895670771598816 -0.05717257410287857 0.1346123069524765 0.13059496879577637 -0.18436774611473083 0.20393487811088562 -0.12035156041383743 0.05949922651052475 0.05524147301912308 -0.10981477051973343 0.04832306504249573 -0.10554654896259308 -0.1029076799750328 -0.005261517129838467 -0.028203437104821205 -0.11429523676633835 -0.06714130938053131 -0.017265286296606064 -0.05221347510814667 -0.0562867596745491 0.009331407025456429 -0.030295245349407196 -0.08774007856845856 0.03145082667469978 0.06527374684810638 0.06364785879850388 -0.10490289330482483 -0.2040753811597824 0.03310929611325264 -0.043697625398635864 0.11115627735853195 0.09640435129404068 -0.030860144644975662 -0.1219237893819809 0.012945915572345257 0.001954920357093215 -0.09000508487224579 0.0619591549038887 0.029876520857214928 0.008709675632417202 0.07638660073280334 -0.019704433158040047 -0.037956178188323975 -0.11103405058383942 -0.13222789764404297 0.04800098389387131 0.03095836192369461 -0.12892773747444153 -0.018943967297673225 -0.012424984015524387 -0.051637474447488785 0.16711509227752686 -0.06513898819684982 0.08539777994155884 0.07527302950620651 0.02159787341952324 -0.018894653767347336 0.07316059619188309 -0.01787293143570423 0.10223318636417389 0.18110303580760956 -0.08745419234037399 0.1441580206155777 0.14339083433151245 0.03690308332443237 -0.1708149015903473 -0.034831274300813675 0.047662124037742615 -0.005566554144024849 -0.046532001346349716 -0.14310462772846222 0.01627693697810173 -0.16256408393383026 0.1480180025100708 -0.037411995232105255 -0.09037332981824875 -0.03707196190953255 -0.013694189488887787 0.031036509200930595 -0.06770903617143631 -0.1401018500328064 0.03278633579611778 0.031700629740953445 -0.06180290877819061 0.12563328444957733 0.016884205862879753 0.13851456344127655 0.024515295401215553 -0.19554591178894043 -0.08606749027967453 0.14779207110404968 -0.03735725209116936 -0.06610339134931564 0.029457617551088333 0.10222724080085754 -0.05814984440803528 -0.05895167961716652 0.07606251537799835 0.014768963679671288 -0.1290331333875656 0.009266686625778675 0.097098208963871 -0.02178705669939518 -0.03776095435023308 -0.004732050932943821 0.09712986648082733 0.08193498849868774 -0.0229306910187006 0.05335031449794769 0.645169198513031 -0.011647255159914494 0.01700552925467491 -0.03328123688697815 0.0343669094145298 0.04934030398726463 -0.03870084136724472 0.06625758111476898 -0.03934673219919205 0.017275923863053322 0.0108628049492836 -0.015973281115293503 -0.004729065112769604 -0.009005926549434662 -0.038150083273649216 0.036518394947052 0.015190381556749344 -0.02900272235274315 0.026332048699259758 -0.01732819899916649 -0.04287881404161453 -0.014067692682147026 0.018263766542077065 0.018132751807570457 0.0009746723808348179 0.0038259827997535467 -0.025899210944771767 -0.027520325034856796 -0.04185573011636734 -0.009840141981840134 0.026613643392920494 0.01175545621663332 -0.02066427655518055 -0.012999096885323524 0.04313325136899948 0.020294472575187683 0.013771251775324345 -0.02705155685544014 -0.03586849197745323 -0.013283130712807178 -0.0015695850597694516 8.668522059451789e-05 0.0009166965610347688 0.026551950722932816 -0.0030589760281145573 -0.022851254791021347 -0.006677753757685423 0.010067212395370007 -0.03938416391611099 0.010174046270549297 0.004805275239050388 -0.0031756125390529633 0.004729448352009058 -0.01779470220208168 -0.0039993575774133205 -0.027120143175125122 -0.015982653945684433 -0.021380914375185966 0.011383314616978168 0.013016949407756329 -0.0074789635837078094 0.0038683281745761633 -0.001465659704990685 0.03750915452837944 0.0171153973788023 0.011518864892423153 -0.037958115339279175 0.023718947544693947 0.01837027259171009 0.00493578240275383 -0.013921525329351425 0.06054232269525528 0.0161381084471941 0.001705639180727303 0.019583169370889664 0.010094111785292625 -0.004829933866858482 -0.017912238836288452 -0.01880868896842003 0.0038255969993770123 0.033109407871961594 0.0009566390654072165 -0.01971832849085331 -0.006908688228577375 0.01932242512702942 0.02017814852297306 -0.0042563327588140965 -0.00850329827517271 -0.03255521506071091 -0.015737595036625862 -0.007065651472657919 -0.005296863149851561 -0.017358198761940002 -0.015705397352576256 -0.0005544323357753456 -0.019542135298252106 0.010920033790171146 -0.0361616425216198 -0.02078799530863762 -0.007572626229375601 -0.024485982954502106 0.014875594526529312 0.0125727578997612 -0.009505010209977627 0.0005001459503546357 0.035199012607336044 -0.003604378318414092 0.005288335494697094 0.04508256912231445 -0.023501241579651833 -0.0459090955555439 -0.0029734275303781033 -0.008749264292418957 -0.008486703969538212 -0.024013204500079155 -0.017806941643357277 0.008656048215925694 0.015296653844416142 0.04891598969697952 -0.02280367910861969 -0.027458911761641502 -0.01728922128677368 0.020667841657996178 0.0029399809427559376 0.017542891204357147 0.045188307762145996 0.10018505901098251 -0.14800694584846497 0.0037392727099359035 -0.1354956179857254 0.03188043460249901 -0.0313621386885643 0.15389089286327362 -0.015712425112724304 -0.11026085168123245 -0.06595558673143387 0.029251741245388985 -0.0022904498036950827 -0.03734171390533447 0.0744958370923996 0.007086492609232664 -0.04847721382975578 0.10923188924789429 0.011435162276029587 0.0679900199174881 0.0001811944239307195 0.13977378606796265 -0.05956226959824562 0.040742263197898865 -0.036038897931575775 0.03885110840201378 -0.08958893269300461 -0.06545937061309814 0.05191817879676819 0.030127042904496193 0.02358255535364151 -0.04097646847367287 -0.03076215833425522 -0.009292864240705967 0.07519873231649399 -0.020976610481739044 -0.030520200729370117 0.13113144040107727 -0.015480078756809235 -0.0022867857478559017 0.03377445414662361 -0.1302182674407959 -0.11191526055335999 0.07143720239400864 0.07147416472434998 0.02568877302110195 -0.04756180942058563 -0.0745142474770546 0.05975813418626785 -0.08635269105434418 0.05791141092777252 0.004410230088979006 -0.0973861962556839 0.17197290062904358 -0.08947263658046722 0.060984332114458084 -0.012860577553510666 0.050193071365356445 -0.015906456857919693 0.07706288993358612 -0.03452017903327942 0.029274947941303253 -0.05748723819851875 -0.07100420445203781 -0.019443202763795853 0.028753560036420822 -0.05198182538151741 0.04127805307507515 -0.13696131110191345 0.10714630037546158 0.04208863154053688 -0.13830038905143738 -0.023567592725157738 0.038853857666254044 -0.07139629125595093 0.0057801841758191586 -0.10239008069038391 -0.024267323315143585 -0.11283295601606369 0.1347557008266449 -0.050296708941459656 0.05025089532136917 0.02658393606543541 0.022504057735204697 -0.0007965409895405173 0.1553686559200287 -0.05157470703125 -0.04434246942400932 0.16615556180477142 0.12317970395088196 0.05273965373635292 -0.07034510374069214 0.09798548370599747 0.03358040004968643 -0.005208862014114857 0.006521705072373152 -0.06846144795417786 -0.028685322031378746 -0.028559386730194092 0.039613958448171616 0.14462141692638397 0.009096343070268631 -0.04264459013938904 0.049027472734451294 0.025052480399608612 -0.07628849893808365 -0.16752523183822632 -0.12400882691144943 -0.033408161252737045 -0.06364548951387405 0.05138090252876282 -0.05446106567978859 -0.18289092183113098 0.09451021999120712 0.19231154024600983 0.256367951631546 -0.029268376529216766 0.0344671830534935 0.10591278225183487 0.0552285797894001 -0.06522198766469955 0.14736908674240112 -0.08079608529806137 0.09013956785202026 -0.06771453469991684 -0.1111665815114975 -0.0900726318359375 0.05985787883400917 -0.03813326731324196 0.012468637898564339 0.005616243463009596 0.01422596350312233 0.7049115896224976 -0.013845543377101421 -0.01642574369907379 0.01180319208651781 0.019347647204995155 0.007102621253579855 -0.0336594432592392 0.020768968388438225 -0.0027098250575363636 -0.022572072222828865 0.029490526765584946 -0.022676413878798485 -0.010199125856161118 -0.018932929262518883 -0.025683077052235603 -0.021080605685710907 -0.010948902927339077 -0.014759812504053116 -0.002050352282822132 -0.012024718336760998 0.011518223211169243 -0.026991166174411774 -0.002797395223751664 -0.04263516515493393 0.0003637366753537208 -0.020026786252856255 -0.008406344801187515 0.00019339531718287617 0.03046039678156376 0.013043457642197609 -0.005895594600588083 0.004524674732238054 0.006254528649151325 -0.007402236107736826 -0.02100895717740059 -0.010505114682018757 0.003451765049248934 0.02714962139725685 0.008867858909070492 -0.01179216243326664 -0.02198709361255169 -0.0036375918425619602 -0.003995099104940891 -0.019516758620738983 0.008301679976284504 -0.0004221732961013913 -0.012820739299058914 -0.012334505096077919 0.022262243553996086 -0.01466340571641922 -0.000935097225010395 0.0022261703852564096 0.0032871030271053314 -0.005132450722157955 0.026379896327853203 0.019891059026122093 0.01078336127102375 0.010147728957235813 0.028941739350557327 -0.018452472984790802 0.021520011126995087 0.011774067766964436 0.028471235185861588 0.02074471488595009 -0.024068277329206467 0.006805258337408304 -0.006637020967900753 0.000582430511713028 0.0309702530503273 0.014203698374330997 0.0026653993409126997 -0.014743931591510773 -0.009520779363811016 -0.01734049618244171 -0.0016365112969651818 -0.0031930399127304554 -0.01911439187824726 0.0012896268162876368 -0.013780610635876656 0.017084604129195213 0.029812496155500412 0.035305146127939224 -0.051293231546878815 -0.017297085374593735 0.03446788713335991 -0.004429821390658617 0.04031815379858017 0.010120639577507973 -0.004545493051409721 0.017592165619134903 0.015575761906802654 0.008956320583820343 -0.0031520514748990536 0.029575804248452187 0.0007290053181350231 -0.007612223736941814 0.01011238805949688 0.013369216583669186 0.00943758711218834 0.011687121354043484 0.011015266180038452 -0.010305270552635193 0.018543129786849022 -0.014465422369539738 0.03629005327820778 0.014463847503066063 0.013014115393161774 0.0011872833129018545 0.03662895783782005 0.027905382215976715 0.00786164216697216 -0.00401882641017437 0.004619173239916563 -0.027078893035650253 0.015780167654156685 0.0024596441071480513 -0.0018978100270032883 -0.04304305464029312 0.020486921072006226 -0.0007091315928846598 -0.0064385924488306046 0.019819704815745354 0.015101110562682152 -0.01538111362606287 -0.035819198936223984 -0.07828514277935028 0.037058744579553604 0.08165320754051208 0.003215789794921875 -0.08039624243974686 -0.0066248695366084576 -0.01702158898115158 0.09544743597507477 0.12031625956296921 -0.18904739618301392 -0.04648992046713829 0.042309463024139404 0.044643256813287735 -0.010128782130777836 -0.11033372581005096 -0.13432487845420837 -0.03393816947937012 -0.07426365464925766 0.0264729056507349 0.12234120070934296 -0.13335885107517242 -0.12160584330558777 0.04326881095767021 0.021706892177462578 0.028327791020274162 0.0803665816783905 -0.024608220905065536 0.1506003886461258 -0.02651410922408104 -0.13246497511863708 0.019665708765387535 -0.07144222408533096 -0.027634669095277786 -0.09593818336725235 -0.1774422973394394 0.03608476743102074 -0.0606028288602829 0.17115212976932526 0.20393091440200806 0.13564066588878632 0.07510318607091904 -0.019156742841005325 0.00224801036529243 0.003930792212486267 0.06604775041341782 0.07472870498895645 0.08038108795881271 -0.05172616243362427 -0.0010551674058660865 0.011279289610683918 0.03209007531404495 -0.05118145793676376 -0.02410680614411831 0.07558426260948181 -0.050791602581739426 -0.039444852620363235 -0.039747122675180435 0.03644642233848572 -0.13596691191196442 -0.05774752050638199 -0.047190263867378235 0.05614050105214119 -0.06310654431581497 -0.07769100368022919 -0.12158093601465225 0.0018564114579930902 -0.08014077693223953 -0.01156607549637556 -0.08442581444978714 0.010598228313028812 0.0668160691857338 0.02973165176808834 -0.0981462225317955 -0.1950615793466568 0.0013877348974347115 -0.07533939182758331 -0.038032639771699905 0.0920783281326294 0.04806055873632431 0.060045890510082245 0.014391694217920303 0.030064934864640236 -0.007203216664493084 -0.03328069671988487 0.05491684004664421 0.11737100780010223 -0.04932034760713577 0.14659248292446136 0.008586074225604534 -0.07123082876205444 -0.15851359069347382 -0.06342986971139908 -0.12222457677125931 0.05614129453897476 0.11696238815784454 0.005406208336353302 -0.020395752042531967 -0.14483705163002014 -0.07876948267221451 0.0604090578854084 0.030761215835809708 -0.03088425099849701 -0.04375843703746796 -0.0036605519708245993 0.029468253254890442 -0.09205164760351181 0.08359375596046448 0.13837364315986633 -0.01778176613152027 -0.029901936650276184 0.0076673198491334915 0.023446541279554367 -0.06098058074712753 0.07053211331367493 0.04945274814963341 0.02171633578836918 0.10900583118200302 -0.24013255536556244 -0.11887606233358383 -0.09086581319570541 0.058406513184309006 -0.05140191689133644 0.03704775124788284 -0.13122862577438354 -0.07981714606285095 0.003826738800853491 -0.14034828543663025 -0.0036311724688857794 -0.014272667467594147 0.004049552604556084 -0.007647297345101833 -0.014329557307064533 0.6355858445167542 -0.019107207655906677 0.02754315547645092 -0.0034868440125137568 -0.009001590311527252 -0.014094537124037743 -0.05196451023221016 0.0048119802959263325 -0.003064292250201106 0.0023754818830639124 -0.015782620757818222 0.025351380929350853 -0.03211969882249832 -0.02524818666279316 0.0046302941627800465 -0.029043884947896004 -0.014352977275848389 -0.050319693982601166 -0.023912828415632248 -0.013857025653123856 0.03810372203588486 0.017406517639756203 -0.026242082938551903 -0.0034668983425945044 0.011159766465425491 0.0212749931961298 -0.01947425864636898 0.013367264531552792 -0.01200022641569376 -0.003411306766793132 -0.006804668344557285 -0.03350869566202164 -0.013690328225493431 -0.011827988550066948 -0.014763185754418373 -0.007162932772189379 -0.0020092891063541174 0.01887577772140503 0.006749010644853115 -0.006456450093537569 -0.0031964886002242565 0.008529692888259888 -0.0020621141884475946 0.0263812392950058 -0.023738013580441475 0.02014673873782158 -0.029710743576288223 0.003976969979703426 0.01363302394747734 -0.06463045626878738 -0.06675474345684052 -0.029951032251119614 -0.014272245578467846 0.008593257516622543 -0.005897963885217905 0.013830120675265789 0.003219366306439042 0.03223880007863045 0.006823466159403324 -0.006346786394715309 -0.0641753301024437 0.009732567705214024 0.02501712739467621 -0.008653697557747364 0.020407993346452713 0.018064187839627266 0.013052289374172688 0.004149753600358963 0.025214582681655884 -0.00481233699247241 0.007502654567360878 -0.022185709327459335 -0.024962887167930603 0.00929791759699583 -0.02688094601035118 0.021994324401021004 0.004412259440869093 0.034761037677526474 -0.017214009538292885 -0.01659151166677475 -0.002642207546159625 -0.027269382029771805 -0.013079230673611164 -0.01457260176539421 -0.013200384564697742 0.08525238931179047 -0.037163518369197845 0.018724357709288597 0.00942038930952549 0.02646641619503498 0.027718063443899155 0.0005750235286541283 -0.005913673434406519 0.027386954054236412 0.00537788076326251 -0.011866851709783077 -0.005305558443069458 -0.02712615579366684 -0.033581774681806564 0.007506464142352343 -0.022277215495705605 -0.012870158068835735 0.030031589791178703 0.004266321659088135 0.03592158108949661 0.014289036393165588 -0.0019957972690463066 0.01823369599878788 0.038902800530195236 0.037005502730607986 0.015188139863312244 0.00799473561346531 0.0042452882044017315 -0.007735537830740213 -0.04626040905714035 0.01613052561879158 -0.027273016050457954 0.00829689484089613 0.014753978699445724 -0.03056432493031025 0.001426955685019493 0.00569286709651351 -0.016556115821003914 0.008119234815239906 -0.04463999718427658 -0.04906759783625603 0.11004294455051422 0.09710387140512466 -0.02321545034646988 0.07751084119081497 -0.030094904825091362 -0.17586813867092133 0.12283964455127716 -0.11243848502635956 0.13100241124629974 -0.12140503525733948 -0.0722435712814331 0.10278814285993576 0.17111730575561523 -0.09813544154167175 0.09169045090675354 -0.03733252361416817 -0.01664559915661812 -0.00602292362600565 0.003734185127541423 -0.0810781940817833 0.03572525829076767 0.06409762054681778 0.15983439981937408 -0.08613552153110504 -0.00310534262098372 -0.07843711972236633 0.016702638939023018 0.045820336788892746 0.08800816535949707 -0.03881659358739853 -0.08526070415973663 -0.03355074301362038 0.16053034365177155 0.019740231335163116 0.07829806208610535 0.10351555049419403 -0.04818003252148628 0.011765619739890099 0.02331138402223587 0.08747934550046921 -0.008942908607423306 0.08557101339101791 -0.26557308435440063 0.06204390153288841 0.10193699598312378 0.19065189361572266 0.09067739546298981 0.05174976959824562 -0.05483974143862724 -0.022997142747044563 -0.042262136936187744 0.047711461782455444 -0.028005165979266167 0.04275897145271301 0.1763961762189865 -0.07651585340499878 -0.07721476256847382 0.09568166732788086 -0.025225570425391197 -0.08945237100124359 -0.08898458629846573 -0.02304644137620926 0.13674074411392212 0.014126374386250973 0.07690809667110443 -0.06973915547132492 -0.0825490802526474 0.07361689954996109 -0.2553592324256897 0.04752006009221077 0.06190761178731918 0.010079935193061829 0.00541922589763999 -0.022214023396372795 0.024109505116939545 -0.06814941763877869 -0.01925145834684372 0.05927761644124985 0.03813077509403229 -0.06114961951971054 0.060377929359674454 -0.004362787585705519 0.11098957806825638 0.049579501152038574 -0.06308817863464355 -0.01888948306441307 -0.04348187521100044 -0.1475951224565506 0.024809854105114937 0.0897349864244461 0.07501720637083054 -0.11666187644004822 -0.15654383599758148 -0.012407615780830383 -0.018709084019064903 0.05135791376233101 0.07525043934583664 0.10676736384630203 0.0008822939125820994 0.07624867558479309 -0.013693493790924549 0.003462855238467455 -0.03654497489333153 0.1068747267127037 0.09489608556032181 0.14344437420368195 -0.00962061807513237 -0.17915672063827515 0.025840923190116882 -0.04968179762363434 0.027242155745625496 -0.03845292702317238 -0.07940150797367096 0.09004887193441391 -0.013269005343317986 -0.14236687123775482 0.00328060332685709 -0.05639383941888809 -0.08912093937397003 0.1067853569984436 -0.08172792941331863 0.03170305863022804 -0.01985064707696438 -0.029881514608860016 0.006962737068533897 -0.06457456201314926 -0.010800343006849289 -0.04645929113030434 -0.027674829587340355 0.029595209285616875 -0.034944962710142136 0.7027302980422974 -0.010368271730840206 0.008044930174946785 -0.015873616561293602 0.007544156163930893 0.007636911701411009 0.031593210995197296 -0.037504322826862335 0.01832704059779644 -0.01022364292293787 -0.006389842368662357 0.003097985638305545 -0.01196910347789526 0.018113045021891594 -0.00043655638000927866 -0.020569130778312683 0.02836727350950241 -0.030907606706023216 0.009715869091451168 0.021066317334771156 0.0008086880552582443 -0.022132718935608864 -0.011405006051063538 0.031276337802410126 0.02464735507965088 -0.023896394297480583 -0.018713466823101044 -0.006000806111842394 -0.028551720082759857 -0.00389546318911016 -0.022959226742386818 0.015541208907961845 0.02193731628358364 -0.018080592155456543 -0.039023224264383316 -0.017613481730222702 0.025210591033101082 -0.003290519816800952 0.004527873359620571 0.02439994551241398 0.00794222578406334 0.010284990072250366 -0.008396920748054981 -0.019043149426579475 -0.01988171972334385 0.011185827665030956 0.020721150562167168 -0.05579846352338791 -0.028299784287810326 0.020271476358175278 0.011338899843394756 0.018525127321481705 -0.0035893942695111036 0.010587651282548904 0.022926338016986847 -0.00013541583030018955 -0.012945443391799927 0.007030395790934563 0.008458781987428665 -0.02939268760383129 0.02087123692035675 0.02516697719693184 0.015657709911465645 -0.01116546057164669 0.0196333359926939 0.020053500309586525 0.011391421779990196 -0.0015139068709686399 0.0007742512971162796 0.004052085801959038 -0.015243268571794033 0.009676430374383926 0.007086895871907473 0.00581471249461174 -0.0006362335989251733 -0.01581733115017414 -0.032210759818553925 -0.0007002786151133478 -0.008183500729501247 0.007869965396821499 0.008052858524024487 0.031830959022045135 0.02661203220486641 -0.00431442866101861 0.026164410635828972 -0.04323804751038551 -0.008256365545094013 -0.012589517049491405 -0.014249695464968681 0.013448086567223072 -0.01399063691496849 -0.006990053225308657 -2.3364378648693673e-05 -0.003673333441838622 0.00694812647998333 -0.004703857470303774 0.03768298402428627 0.049997683614492416 -0.027076447382569313 0.009498463943600655 0.024970989674329758 -0.03306496515870094 0.012416346929967403 -0.003573294961825013 -0.0012111995602026582 -0.05319181829690933 -0.010371034033596516 0.007607875391840935 -0.010432234965264797 0.0028845989145338535 -0.0359293557703495 -0.04041147604584694 -0.015066445805132389 0.01403317041695118 0.03796659782528877 -0.01846235990524292 -0.023172445595264435 -0.030573558062314987 0.003186061978340149 0.007586532738059759 0.0036251498386263847 0.004031535238027573 -0.005993196275085211 0.051058344542980194 0.042068131268024445 -0.13180819153785706 0.027121977880597115 0.01178052369505167 0.07868017256259918 0.018241921439766884 -0.22750449180603027 -0.12819522619247437 0.037644028663635254 0.10655684769153595 -0.15306629240512848 0.019376510754227638 0.07388170063495636 0.05513831600546837 -0.06036309897899628 0.05136597529053688 -0.0004204750875942409 0.10939458757638931 0.08776365220546722 0.03466979041695595 -0.06959779560565948 0.08297818899154663 -0.04479018226265907 -0.00538919260725379 0.03148713707923889 -0.06878705322742462 0.06428259611129761 -0.11683587729930878 0.021330146118998528 -0.034237612038850784 -0.03444867953658104 0.08023104816675186 -0.017531683668494225 0.028004277497529984 -0.10895519703626633 -0.05366527661681175 0.07905203104019165 0.10562869161367416 -0.005338240414857864 0.03453655540943146 -0.020796790719032288 0.03320992365479469 -0.07414212822914124 0.0851210206747055 -0.07182888686656952 0.06796450167894363 0.013000485487282276 -0.14945539832115173 -0.12622207403182983 -0.05588062107563019 0.08810500800609589 -0.08229591697454453 0.049862392246723175 -0.021059636026620865 -0.008203544653952122 -0.057054553180933 -0.017587970942258835 0.12248385697603226 0.11255689710378647 -0.16854800283908844 0.022569838911294937 -0.041029151529073715 0.1619681715965271 -0.03975965827703476 -0.059133511036634445 -0.13125935196876526 -0.011210720986127853 0.19392243027687073 -0.1595262885093689 -0.06155385449528694 -0.07557396590709686 0.2023874819278717 0.01630602590739727 -0.041271694004535675 0.10961628705263138 0.05711173266172409 0.06732704490423203 -0.03175734728574753 -0.03135334700345993 -0.07903623580932617 0.11109279096126556 -0.00638869684189558 -0.09026831388473511 0.018560990691184998 -0.13024063408374786 0.031492527574300766 -0.0978875532746315 -0.03763445466756821 0.046464648097753525 -0.17801226675510406 0.08609335124492645 -0.10563600063323975 0.05113349109888077 -0.14175453782081604 0.11684312671422958 0.0071138073690235615 -0.10964487493038177 -0.03078758716583252 -0.04776417464017868 0.03815605118870735 0.12549728155136108 -0.07212865352630615 0.06477184593677521 0.04179328680038452 -0.05278635025024414 -0.0019327879417687654 0.01794656738638878 -0.014787649735808372 0.12286008149385452 -0.02461111731827259 0.007745181210339069 -0.07981549203395844 0.1355258971452713 -0.06193056330084801 0.04563087597489357 0.0408785454928875 0.03165208175778389 0.042975038290023804 -0.04729465767741203 0.06774535775184631 -0.020330997183918953 0.054079700261354446 0.06487999856472015 -0.058600954711437225 -0.06308469921350479 -0.184671089053154 0.014646494761109352 -0.02543734200298786 -0.011516326107084751 0.021546555683016777 0.00569340493530035 0.003052730346098542 0.007428648881614208 0.6554632186889648 -0.01592477224767208 0.030592506751418114 -0.011184381321072578 -0.019045788794755936 0.01361600961536169 -0.012992524541914463 -0.013011793605983257 0.010720362886786461 0.0011835253098979592 -0.026134168729186058 -0.0018020736752077937 -0.03883557394146919 -0.000171513733221218 0.007186931557953358 -0.004523295909166336 0.022705335170030594 -0.0011690912069752812 0.01974295824766159 -0.00010966052650474012 0.0218023881316185 -0.01715254783630371 -0.016539035364985466 -0.010996431112289429 -0.02330782264471054 0.02046149969100952 -0.001407365663908422 0.022556375712156296 0.013771847821772099 -0.024616306647658348 -0.04518439248204231 0.035107918083667755 -0.009237268939614296 0.03389238938689232 -0.029398391023278236 0.01923569105565548 0.00018275003822054714 -0.02278093993663788 0.014703786931931973 -0.03989309445023537 0.01460979599505663 0.01950199156999588 0.002698693424463272 -0.013161005452275276 -0.006727068684995174 -0.012583105824887753 -0.0015641001518815756 -0.03179043158888817 0.03128219395875931 -0.0018753367476165295 0.002141247969120741 0.0053476933389902115 -0.02256142906844616 0.014735821634531021 -0.004425970837473869 0.006481291726231575 0.022693729028105736 -0.019208712503314018 0.00931674987077713 -0.007584449369460344 -0.016774946823716164 -0.05418141931295395 0.018630050122737885 -0.003070526523515582 -0.0047791567631065845 -0.0005383220850490034 -0.004861155059188604 -0.006923025473952293 0.02584671974182129 0.0016945376992225647 -0.03482562676072121 0.03707814961671829 0.006774410605430603 -0.03253218159079552 -0.030752044171094894 -0.01868576370179653 -0.007321769837290049 -0.02013408951461315 0.014101163484156132 0.010143518447875977 -0.010727044194936752 -0.012586168944835663 0.015923941507935524 -0.00019647710723802447 -0.03145232051610947 -0.015533252619206905 0.03358942270278931 0.001947764540091157 -0.03186781704425812 -0.0015627481043338776 -0.01580885238945484 0.0004305506299715489 0.0018922870513051748 0.006279164459556341 -0.004626336973160505 0.0005792822921648622 0.042543310672044754 0.008253704756498337 -0.029560890048742294 0.019373111426830292 0.0034227112773805857 -0.014846457168459892 0.009164723567664623 -0.01362600363790989 0.007293077651411295 0.015856558457016945 0.0036654924042522907 -0.006366095971316099 0.02232426032423973 -0.0056680962443351746 0.02702195942401886 -0.0036566953640431166 -0.0032671454828232527 -0.018690161406993866 0.001221691956743598 0.013992848806083202 -0.01678847149014473 0.008394903503358364 -0.012895073741674423 -0.006323112174868584 -0.024076225236058235 -0.014994916506111622 0.04762868583202362 0.09753867983818054 0.025454681366682053 0.07802916318178177 0.0071983784437179565 -0.08592831343412399 0.04193607717752457 -0.1290828436613083 -0.013929801993072033 0.03352068364620209 -0.10557887703180313 0.0772022008895874 -0.09143269807100296 -0.04906497895717621 0.041817955672740936 0.0048497989773750305 -0.04925220459699631 0.027923792600631714 0.046489693224430084 0.07032747566699982 -0.12691053748130798 0.014932806603610516 -0.03816748410463333 0.11992073059082031 -0.12579718232154846 0.03237179294228554 0.0061830137856304646 0.006234814878553152 0.1508425921201706 -0.04179936274886131 0.0754055455327034 0.08162588626146317 -0.13181033730506897 0.03482719510793686 0.023221071809530258 -0.10876350104808807 -0.05853770673274994 -0.07660673558712006 -0.055666182190179825 0.056874752044677734 -0.05040065944194794 0.10933441668748856 0.09748611599206924 0.04764207825064659 -0.14204327762126923 0.10207609832286835 0.10333549231290817 -0.08040891587734222 -0.07604652643203735 -0.033727094531059265 -0.07406170666217804 0.00952147413045168 0.17964006960391998 0.048650432378053665 -0.09539404511451721 0.024413052946329117 -0.08872964233160019 0.118055060505867 0.030110090970993042 0.019563766196370125 0.12927469611167908 -0.049534622579813004 -0.08726401627063751 0.02695881761610508 0.016692807897925377 -0.10241438448429108 0.12520597875118256 -0.05607942119240761 0.014126199297606945 0.013310412876307964 0.05406659469008446 -0.011597828939557076 0.046175431460142136 0.07655613124370575 0.14600373804569244 -0.044103339314460754 0.0653611347079277 -0.06559144705533981 0.03262937813997269 -0.006287902593612671 -0.042500026524066925 -0.1504935473203659 -0.04741555452346802 0.07497745752334595 -0.06601560860872269 0.00442512659355998 0.18586289882659912 -0.21090517938137054 0.05784246698021889 0.029165299609303474 0.01289184857159853 0.005307271145284176 0.19301995635032654 -0.06054574251174927 -0.04778166115283966 0.06659375131130219 0.003128476906567812 -0.07339293509721756 -0.04269171506166458 -0.10744813084602356 -0.015992717817425728 0.05518508329987526 0.06328761577606201 -0.1015239730477333 0.030874179676175117 -0.09992814064025879 -0.09772024303674698 -0.04438955709338188 -0.04235567897558212 0.06341510266065598 0.10639277845621109 -0.052757490426301956 0.008547277189791203 0.030423203483223915 -0.002110967878252268 -0.19243821501731873 0.054126352071762085 -0.04489924758672714 -0.15965144336223602 0.024740096181631088 0.0036812976468354464 -0.03025859221816063 -0.023913590237498283 -0.10001395642757416 0.026594912633299828 -0.11438165605068207 0.05700428783893585 -0.08098758012056351 -0.027184097096323967 -0.004346175119280815 0.012937977910041809 0.057723987847566605 -0.020484717562794685 0.015842275694012642 -0.02239646017551422 0.6587056517601013 0.001794374198652804 -0.01644759811460972 0.041072338819503784 0.02874187007546425 0.02790944278240204 -0.022019464522600174 0.015805808827280998 0.014387477189302444 0.0014185677282512188 -0.02390633523464203 -0.029964908957481384 -0.009021608158946037 -0.008463609032332897 0.008981071412563324 0.024752618744969368 -0.008717413991689682 0.007725307252258062 -0.0028118116315454245 0.01959308609366417 0.015801621600985527 -0.005192396696656942 0.018412597477436066 0.029195334762334824 0.008739868178963661 -0.007930384948849678 0.004879757296293974 0.011277652345597744 0.012686843983829021 0.0008774471934884787 -0.01585959643125534 0.012903363443911076 0.023062190040946007 0.02875906229019165 -0.004938134923577309 0.047359541058540344 0.010578990913927555 -0.007993382401764393 0.02733442187309265 0.042638979852199554 0.01597156934440136 0.0167545098811388 0.014658186584711075 -0.030909230932593346 -0.007282208185642958 -0.012990020215511322 -0.011981756426393986 -0.02779906988143921 -0.02439475804567337 0.00795003492385149 0.024487050250172615 0.0014451139140874147 -0.007050227373838425 -0.007221998181194067 -0.026120230555534363 0.02935948595404625 0.013004383072257042 0.009095334447920322 -0.00471609178930521 -0.029399683699011803 -0.0056146918796002865 -0.008531061001121998 0.005782876629382372 0.026613973081111908 -0.018653172999620438 -0.026478668674826622 0.030197376385331154 -0.00596242630854249 -0.04184778407216072 0.0028680255636572838 0.008240866474807262 0.009531932882964611 0.00460171140730381 -0.027940863743424416 0.021526707336306572 -0.026218783110380173 0.03984678536653519 -0.01885572448372841 0.011638710275292397 0.011905431747436523 -0.026481689885258675 -0.02430850826203823 -0.05173500254750252 -0.02645992673933506 0.00936101470142603 -0.0207637008279562 0.03984302654862404 0.004959726706147194 -0.011668606661260128 -0.02457241900265217 0.005827807821333408 6.117250450188294e-05 0.005030575208365917 0.027568479999899864 -0.0026438115164637566 0.0010979985818266869 0.033522963523864746 -0.032757919281721115 0.0037712366320192814 0.03966338559985161 0.0009185815579257905 -0.007221761159598827 -0.008824719116091728 0.018239902332425117 -0.013583853840827942 0.018368279561400414 0.04718950763344765 -0.033468395471572876 -0.030450187623500824 -0.01310315728187561 0.007809321396052837 -0.01990438625216484 0.019328773021697998 0.04498479515314102 -0.009199567139148712 -0.032555848360061646 -0.014012403786182404 0.04679581895470619 0.01850259304046631 -0.04503077641129494 -0.007087116129696369 0.10560328513383865 0.14335358142852783 -0.023484794422984123 0.014965610578656197 -0.020957663655281067 -0.016658803448081017 0.04649263620376587 -0.06551530212163925 0.11161068826913834 -0.05372798442840576 -0.1341102570295334 -0.008885761722922325 0.023278523236513138 -0.09880801290273666 0.06009482219815254 0.06484026461839676 0.04735817760229111 -0.11469093710184097 -0.1491604447364807 0.07423357665538788 -0.07834455370903015 0.01264562550932169 0.05512375384569168 0.01848296821117401 0.15247632563114166 -0.12813465297222137 -0.022011904045939445 -0.025145912542939186 0.1037013828754425 -0.053129129111766815 0.017220094799995422 0.05914226919412613 -0.06884868443012238 0.05447330325841904 -0.10532476752996445 -0.06003553047776222 0.05134943500161171 -0.06771238893270493 0.08687139302492142 0.08497720211744308 0.05084921792149544 -0.14074136316776276 0.07668747752904892 0.01328037679195404 -0.07823483645915985 -0.1008816510438919 -0.03798871859908104 0.05823459476232529 0.029371056705713272 -0.035217784345149994 -0.06679172813892365 0.012095942161977291 0.05560336634516716 0.04366300255060196 -0.15347349643707275 0.009271562099456787 0.10638735443353653 0.09302327036857605 0.02984965220093727 0.12801982462406158 0.06778883934020996 0.05230909585952759 -0.05622253566980362 0.09368984401226044 -0.16832119226455688 -0.11296422779560089 -0.01115672942250967 0.12468182295560837 -0.03185317665338516 0.0349639467895031 -0.033307306468486786 0.03463197126984596 -0.05168185383081436 -0.08658353984355927 -0.02013666369020939 0.0867098718881607 0.04614333063364029 0.04573199898004532 -0.038648031651973724 -0.060964297503232956 0.040733132511377335 0.12141650915145874 0.18439841270446777 0.03303429111838341 -0.10042855143547058 0.02927253395318985 0.015674659982323647 0.1525186151266098 0.14417031407356262 -0.02059490978717804 0.08111961930990219 0.0025869151577353477 0.07181407511234283 0.016209451481699944 -0.036395519971847534 0.029006820172071457 0.04388197883963585 0.09852319210767746 0.20459075272083282 -0.03606784716248512 -0.040910229086875916 -0.06112944707274437 0.10208283364772797 -0.0633152425289154 0.016300594434142113 -0.08764781057834625 0.0064217266626656055 -0.019115105271339417 -0.1569093018770218 0.14559537172317505 0.006856696214526892 0.1274307370185852 -0.06366678327322006 0.0025269289035350084 -0.0012541107134893537 0.1266424059867859 -0.0578901469707489 -0.05195681378245354 0.006118692923337221 -0.005159223452210426 0.07190953940153122 -0.10589006543159485 0.08638416230678558 0.14384646713733673 -0.1131460890173912 -0.10668228566646576 -0.03440729156136513 -0.07908648252487183 -0.020609715953469276 -0.053070731461048126 0.005160586442798376 0.0033269033301621675 0.016013646498322487 -0.027353951707482338 0.04623829945921898 0.016463806852698326 0.6427807807922363 0.019409097731113434 0.032496944069862366 0.028183432295918465 -0.03393632546067238 0.03883726894855499 -0.030671851709485054 0.03506942093372345 -0.010181277990341187 0.025202538818120956 0.02035263366997242 0.043606147170066833 -0.010153483599424362 -0.029619676992297173 -0.014312605373561382 0.02324707806110382 -0.006471645087003708 -0.0030987742356956005 -0.051704660058021545 -0.03034028597176075 -0.018231937661767006 0.03549124673008919 0.030491482466459274 -0.05117147043347359 -0.024825138971209526 -0.028181539848446846 -0.02685866691172123 -0.05386319011449814 -0.012537200935184956 0.02136811800301075 0.009419514797627926 -0.058234844356775284 0.019623268395662308 0.009654833935201168 -0.013218243606388569 0.04526359960436821 -0.013418558984994888 0.01446775533258915 0.022147970274090767 0.013952944427728653 0.016309261322021484 -0.0018432356882840395 -0.013814358040690422 -0.009982261806726456 -0.005264958832412958 0.0001292744418606162 0.001601034658960998 -0.01919480413198471 -0.0491274930536747 0.00233558495528996 -0.01711970381438732 0.035156477242708206 -0.009656132198870182 -0.002855997532606125 0.005427904427051544 0.02723904885351658 -0.053047701716423035 0.004064737819135189 -0.018408413976430893 -0.00786601472645998 -0.054045286029577255 -0.016604699194431305 -0.0006877575651742518 0.01475797314196825 -0.0008788381237536669 -0.010799922980368137 -0.002441354561597109 0.025101318955421448 -0.014978322200477123 0.006017042323946953 0.023739255964756012 0.013683372177183628 0.00996607169508934 0.0021621014457195997 0.00853750854730606 0.008663727901875973 0.021281667053699493 -0.016039026901125908 0.005363411270081997 0.06190130114555359 -0.03030555695295334 0.015228715725243092 0.02970101870596409 0.030903838574886322 -0.023101866245269775 0.0297925416380167 0.014081421308219433 0.009186357259750366 0.03280607610940933 0.013403847813606262 0.03356093913316727 0.012551899999380112 0.012361567467451096 0.03761924430727959 -0.025914207100868225 0.010179346427321434 0.025409551337361336 0.008838255889713764 0.018146926537156105 0.025679023936390877 0.0015007556648924947 -0.02232043631374836 -0.021762406453490257 0.004884182941168547 0.043029025197029114 0.03658468648791313 0.036982059478759766 0.01901053451001644 -0.0027962278109043837 -0.005748036317527294 -0.02906952053308487 -0.030390437692403793 0.013119659386575222 -0.00720762787386775 -0.020414302125573158 0.05027296394109726 0.01959121786057949 0.05700524151325226 -0.028141286224126816 0.02137843519449234 0.12560807168483734 -0.010325294919312 0.05339167267084122 0.00679568899795413 -0.03156096115708351 0.08718502521514893 -0.003937235567718744 0.0006432777736335993 0.07984460145235062 -0.041137926280498505 0.1153395026922226 0.07649355381727219 0.01772359572350979 -0.042017627507448196 -0.14406521618366241 0.07392995059490204 -0.0004727134946733713 0.09980615973472595 0.043542858213186264 -0.01215263269841671 -0.03672793135046959 0.04347265511751175 -0.02633482590317726 0.0116464514285326 -0.02227095142006874 -0.21712879836559296 0.040716059505939484 0.021493595093488693 -0.02348233573138714 0.044203225523233414 0.0124172018840909 -0.03409755975008011 0.10723899304866791 -0.0309402197599411 0.07724623382091522 -0.12025922536849976 0.07838325947523117 -0.0546552948653698 -0.13290157914161682 0.018466666340827942 -0.01787925697863102 0.050933223217725754 0.07743920385837555 -0.07017125189304352 0.15385213494300842 0.08518610149621964 -0.0322827585041523 -0.12545931339263916 -0.002503161085769534 -0.0375930592417717 0.06298322230577469 0.05712718889117241 0.03710287809371948 -0.08589249104261398 -0.011643488891422749 0.016860920935869217 0.1264522522687912 -0.11465717852115631 -0.004221148788928986 0.18092083930969238 0.09912554919719696 -0.05356316268444061 0.007434429135173559 -0.13848817348480225 0.020595066249370575 -0.022370457649230957 0.040155790746212006 0.15261787176132202 0.12491823732852936 0.04285046458244324 -0.038151733577251434 0.012660684995353222 0.03723783418536186 -0.1384723037481308 0.05652825906872749 0.05298234522342682 0.02919524721801281 -0.025815607979893684 0.03699555620551109 -0.032102927565574646 -0.0023780043702572584 -0.00026914855698123574 0.15674468874931335 -0.019921939820051193 -0.049272216856479645 -0.015472223050892353 -0.21109981834888458 0.045825064182281494 0.0765581801533699 0.1187824010848999 0.032423581928014755 -0.07130768150091171 0.028485679998993874 -0.13863132894039154 0.07026340812444687 0.07045928388834 0.03438369929790497 0.08777503669261932 -0.05486774444580078 -0.016586147248744965 0.009125865995883942 0.21982885897159576 -0.07763180136680603 -0.09435321390628815 0.08097661286592484 -0.04126298055052757 0.025115469470620155 0.059828273952007294 0.04372166842222214 0.02602572552859783 0.008162787184119225 -0.1499963253736496 0.1582198292016983 -0.25004082918167114 0.14847831428050995 -0.05289763957262039 0.12327315658330917 -0.11790838837623596 -0.052245575934648514 -0.10420002043247223 0.10072170943021774 0.10769505798816681 -0.029841193929314613 0.11024857312440872 -0.0051798224449157715 -0.0015356662916019559 -0.07338155061006546 0.14770564436912537 0.04515901952981949 0.012655274011194706 -0.0027243082877248526 -0.017557455226778984 -0.01105909887701273 -0.001476004021242261 -0.025022080168128014 -0.04027272388339043 0.03362651914358139 0.6785252094268799 -0.0003043026081286371 -0.015977615490555763 0.01933964528143406 -0.01692388765513897 -0.01954943686723709 -0.023482179269194603 0.024205392226576805 0.019704706966876984 0.010800511576235294 0.005113007966428995 0.02395208552479744 -0.053292471915483475 -0.010895008221268654 0.023108260706067085 -0.0575072318315506 0.04474599286913872 0.02192237600684166 0.015399194322526455 0.024800365790724754 -0.021073956042528152 -0.026432158425450325 -0.0014916985528543591 -0.0032104658894240856 -0.017325155436992645 -0.00022538065968547016 0.012829456478357315 0.001951668644323945 0.0031440965831279755 0.017069581896066666 0.014237837865948677 0.024906467646360397 -0.029188985005021095 0.03487691655755043 0.03584574908018112 -0.003800740232691169 0.0067271580919623375 -0.0050139762461185455 0.016224049031734467 0.014218010008335114 -0.003647927427664399 0.038709841668605804 -0.0012625675881281495 -0.027895843610167503 0.020726142451167107 -0.012767882086336613 -0.03377760201692581 0.03568674251437187 -0.03214270621538162 0.013992377556860447 -0.047655798494815826 -0.04607899487018585 -0.027804357931017876 -0.027536066249012947 -0.043067462742328644 0.03436613082885742 -0.013597851619124413 -0.022432319819927216 -0.024686524644494057 0.04601265862584114 0.015879381448030472 -0.010498613119125366 0.01349335815757513 0.01960430108010769 -0.0088283009827137 -0.006798004265874624 0.015711426734924316 0.028201598674058914 0.021390799432992935 -0.028423907235264778 0.021674828603863716 0.01943783462047577 -0.009902795776724815 0.0066217645071446896 -0.009808954782783985 -0.020241346210241318 0.002645418979227543 -0.017678087577223778 -0.01684851013123989 -0.004976917989552021 -0.04389721527695656 0.025324860587716103 -0.024416521191596985 -0.010439883917570114 -0.011677478440105915 0.015632111579179764 0.020581625401973724 0.0014903596602380276 -0.0018086169147863984 0.015390339307487011 -0.005109395831823349 0.004786050878465176 0.005793845281004906 0.01084055658429861 0.007958737201988697 0.011287597939372063 -0.03382973000407219 0.003862957237288356 -0.017347872257232666 -0.018467480316758156 0.013786222785711288 0.017858553677797318 -0.02862626314163208 0.03317805752158165 0.012677202001214027 -0.04253065586090088 0.006651986390352249 0.008100376464426517 -0.0019184809643775225 -0.014148443937301636 -0.0037463975604623556 -0.009483225643634796 0.04031682014465332 -0.004242761060595512 0.036034196615219116 0.007864920422434807 0.012779153883457184 -0.007428503595292568 -0.009901925921440125 -0.04836626350879669 -0.13721105456352234 0.12483573704957962 0.014792516827583313 -0.11922485381364822 0.0003713367914315313 0.09787887334823608 0.0879434123635292 0.06478520482778549 -0.12896287441253662 -0.05526778846979141 -0.06378066539764404 -0.0895983874797821 -0.010750767774879932 -0.053773727267980576 0.0729789063334465 0.0821102112531662 0.026204446330666542 0.053215112537145615 0.1702352613210678 -0.10427014529705048 0.11640926450490952 0.12992727756500244 -0.05106861889362335 -0.06635674834251404 -0.07700572162866592 0.08731330931186676 -0.029529498890042305 -0.018165649846196175 0.0262271948158741 -0.1675940603017807 0.08413438498973846 -0.03130072355270386 -0.003810719819739461 -0.03789464384317398 -0.1927403062582016 -0.03795384243130684 0.1109362319111824 -0.060753948986530304 -0.13186714053153992 -0.05404971167445183 -0.0076768770813941956 0.03269178420305252 -0.07622405141592026 0.03144189715385437 -0.14677990972995758 0.05095437541604042 -0.010770205408334732 0.049507301300764084 0.024378569796681404 0.024211080744862556 0.0074028633534908295 -0.06959268450737 -0.10443856567144394 -0.08722992241382599 -0.04331490024924278 0.080233134329319 0.13283465802669525 -0.03711598739027977 0.061485353857278824 0.12647297978401184 0.006921598222106695 -0.029114974662661552 0.0037329550832509995 0.061144065111875534 -0.05007151886820793 -0.009792906232178211 0.03287915885448456 0.1746738851070404 0.046365294605493546 -0.06790777295827866 -0.07972892373800278 -0.03064117580652237 -0.010169261135160923 -0.04860612377524376 0.11138179898262024 -0.07863810658454895 -0.030673164874315262 0.05876544117927551 0.1095009446144104 -0.015960780903697014 -0.22617226839065552 0.08652039617300034 0.06220560520887375 0.04647901654243469 -0.08144216239452362 0.08300424367189407 -0.1151830330491066 0.01094532199203968 -0.17663325369358063 0.008112135343253613 0.03960030525922775 0.01354061160236597 0.12339727580547333 0.04128193482756615 -0.11308525502681732 0.0728614553809166 -0.05691247433423996 -0.041022635996341705 -0.20397861301898956 0.044490642845630646 -0.11171223968267441 -0.025886431336402893 0.0468173623085022 -0.04598100110888481 0.21089816093444824 0.11664780229330063 0.002964623039588332 0.10145994275808334 -0.10529076308012009 -0.25897225737571716 -0.06018434837460518 -0.014611112885177135 0.0422130711376667 -0.03685279190540314 0.006132206879556179 0.0359739325940609 0.04778874292969704 -0.009276078082621098 -0.011116365902125835 -0.09115242958068848 0.0115565350279212 -0.026394108310341835 0.10313507914543152 -0.12486309558153152 -0.033810652792453766 -0.06822489202022552 -0.032081034034490585 -0.03399563580751419 0.015111338347196579 0.019582075998187065 -0.012248918414115906 -0.01843366026878357 -0.006000453606247902 -0.017785675823688507 -0.028647352010011673 0.027433928102254868 0.0164781603962183 0.6575387716293335 0.02368352748453617 -0.015996256843209267 0.022485410794615746 -0.05985426902770996 -0.0008947901660576463 -0.02073543705046177 -0.00680857989937067 -0.038826026022434235 0.03483431413769722 -0.008020447567105293 0.027150148525834084 0.0048303199000656605 -0.011146584525704384 0.025820212438702583 -0.027721168473362923 0.0020262585021555424 -0.01827702671289444 -0.029391814023256302 0.02276173047721386 -0.013916069641709328 0.022358885034918785 0.004651314578950405 -0.004012834280729294 -0.036321405321359634 -0.024481389671564102 0.007386466953903437 -0.012506700120866299 -0.02287992648780346 0.0052875978872179985 -0.014261715114116669 -0.0310909952968359 -0.034105777740478516 -0.008631088770925999 0.018740404397249222 -0.013863399624824524 0.0033982787281274796 0.012726225890219212 0.056859709322452545 0.020533720031380653 -0.01794254407286644 -0.023695265874266624 0.007553828414529562 0.006097986828535795 -0.012588750571012497 -0.01828151009976864 0.04103352501988411 0.0033410033211112022 -0.006048598326742649 -0.001157499966211617 0.039861928671598434 -0.009430265054106712 -0.021088574081659317 7.12503315298818e-05 0.015114542096853256 0.021609235554933548 -0.012269704602658749 -0.01205946784466505 0.015715980902314186 0.022008031606674194 -0.019097574055194855 0.029957477003335953 0.0044412571005523205 -0.004213053733110428 0.000616417673882097 0.015126270242035389 -0.002308125142008066 -0.007817232981324196 0.03431466966867447 -0.02079598233103752 0.015810023993253708 -0.00643971236422658 -0.021818041801452637 0.010201389901340008 -0.008007816039025784 -0.006493192166090012 -0.022360842674970627 -0.032173238694667816 0.002497561275959015 0.011814040131866932 0.00949613656848669 0.04454254359006882 -0.010463912039995193 0.0056269788183271885 -0.023428067564964294 0.008336355909705162 -0.03209562599658966 -0.015490389429032803 0.00026102419360540807 -0.02393289841711521 -0.04042409732937813 0.05815790593624115 0.01564682461321354 -0.005878167692571878 0.01630278490483761 0.008158475160598755 -0.013146258890628815 0.0010996197815984488 -0.005551285110414028 -0.01725170388817787 -0.021734539419412613 0.005287719424813986 -0.001676045125350356 -0.0024065172765403986 0.027664383873343468 0.007719125598669052 -0.011913585476577282 -0.032658401876688004 0.01921738311648369 0.02771696262061596 0.014728745445609093 0.01709427870810032 -0.003365768352523446 -0.017273016273975372 -0.0026080869138240814 0.022563571110367775 0.013179205358028412 -0.007782657165080309 -0.03700515255331993 0.04297178238630295 -0.06795956194400787 0.05619315803050995 0.10238181799650192 0.034223657101392746 -0.020464299246668816 0.045847877860069275 0.030467702075839043 0.02618187852203846 0.07460720092058182 0.040306270122528076 -0.04073724523186684 -0.13585717976093292 0.18001456558704376 -0.12999919056892395 -0.07723551988601685 0.08133282512426376 -0.05902827903628349 -0.035062458366155624 -0.03014514222741127 0.006147869396954775 -0.04406182840466499 -0.014020722359418869 -0.1294553428888321 -0.024735024198889732 0.12874266505241394 -0.04040677100419998 0.06323488801717758 -0.1193569079041481 0.09792245179414749 -0.04019766300916672 -0.04580726847052574 0.008418685756623745 -0.005563819780945778 -0.04562586545944214 -0.02764776162803173 -0.007496284320950508 -0.05096477270126343 -0.019685786217451096 -0.13634473085403442 0.02759404107928276 -0.039320092648267746 -0.04287339746952057 0.029059676453471184 0.004038652405142784 -0.05366985872387886 -0.08259030431509018 0.14500151574611664 -0.022336402907967567 0.02860553003847599 -0.014187535271048546 -0.0786198303103447 -0.12614460289478302 -0.04839970916509628 -0.03126285597681999 -0.1278548389673233 0.006814724765717983 0.19146597385406494 -0.013274326920509338 0.024293286725878716 -0.1603938490152359 0.008396164514124393 -0.1781369000673294 0.09528389573097229 -0.025070499628782272 -0.014134463854134083 0.04561515152454376 0.040289074182510376 -0.017877724021673203 -0.08255265653133392 -0.033490050584077835 -0.14557300508022308 -0.13279393315315247 0.0018431679345667362 0.06946749985218048 0.09025789797306061 -0.00580098619684577 -0.03272262215614319 -0.16521397233009338 0.0035243711899966 0.02407803200185299 -0.04654531553387642 0.013623342849314213 0.08475957810878754 0.06454019248485565 0.13376908004283905 -0.09914824366569519 0.09490073472261429 -0.02213153801858425 -0.09001429378986359 0.16452118754386902 -0.004538672044873238 0.09973234683275223 0.03397374600172043 -0.05103413760662079 -0.11294030398130417 -0.07698218524456024 0.17808420956134796 0.18208463490009308 0.133489727973938 0.10371507704257965 -0.12964212894439697 -0.031961552798748016 -0.05466839671134949 -0.17228002846240997 -0.08065531402826309 0.007377283181995153 -0.016493257135152817 -0.0025218604132533073 0.06533486396074295 0.04707833752036095 -0.09826834499835968 0.029465006664395332 -0.012100906111299992 0.13037064671516418 0.13702768087387085 -0.054097190499305725 0.07253420352935791 0.06168888136744499 -0.03880016505718231 0.12499032914638519 0.07853567600250244 0.16534477472305298 -0.11008541285991669 -0.11445219814777374 -0.002219296293333173 -0.04927729815244675 -0.006265903823077679 -0.015331153757870197 0.013779516331851482 0.016646143049001694 -0.01477502379566431 0.002646857174113393 -0.02431708760559559 0.011049719527363777 0.05380844697356224 0.002068500965833664 -0.0021651694551110268 0.6912980675697327 -0.013956381939351559 0.010491861961781979 0.007816003635525703 0.001983985770493746 -0.0017684075282886624 -0.00733903655782342 0.021790482103824615 0.03042452037334442 -0.029363151639699936 0.0038297977298498154 0.04088631272315979 0.025074457749724388 -0.019349992275238037 -0.0014328618999570608 0.01557213719934225 -0.02094067446887493 0.019545117393136024 0.0007824665517546237 0.011490214616060257 -0.027037683874368668 0.0034189147409051657 -0.029870059341192245 -0.04286746680736542 -0.015701740980148315 0.020270230248570442 -0.01458782609552145 0.006474302150309086 -0.00012946504284627736 0.013983591459691525 -0.04279116168618202 0.024025846272706985 0.02958373911678791 -0.0043993741273880005 0.02236979268491268 -0.00836120918393135 0.02272646687924862 0.012974733486771584 -0.01246147882193327 0.0180167555809021 -0.034255653619766235 -0.005993506871163845 0.045206837356090546 -0.01591847650706768 0.03603832796216011 -0.038811277598142624 -0.012519968673586845 -0.015950510278344154 0.02592860348522663 -0.008305526338517666 0.0011816442711278796 -0.010632101446390152 -0.03310973569750786 -0.01582987606525421 -0.0020527634769678116 -0.0014988593757152557 -0.029863014817237854 -0.039195749908685684 0.005724451504647732 0.0063855345360934734 0.0029380787163972855 0.014760675840079784 0.02733759582042694 0.016011955216526985 -0.032499298453330994 0.004256460350006819 -0.010752243921160698 0.023599721491336823 0.006656101904809475 -0.002319367602467537 0.030568871647119522 -0.018880560994148254 -0.0046945493668317795 -0.003449692390859127 0.00035931883030571043 -0.023484371602535248 -0.012171750888228416 -0.04011793062090874 0.02232498489320278 -0.00511131389066577 0.00927126407623291 -0.005439107771962881 -0.01165071688592434 -0.0057305810041725636 0.01851080171763897 -0.01974044367671013 0.012496556155383587 0.008211717940866947 0.010305631905794144 -0.011954586952924728 -0.02212478779256344 -0.021969828754663467 0.022015409544110298 -0.04137219861149788 -0.005498719867318869 -0.010023468174040318 -0.014117646031081676 -0.01051240786910057 0.018411453813314438 0.007007736247032881 0.02741522341966629 0.02119262143969536 0.004620848223567009 0.027136608958244324 -0.05458502098917961 -0.01184374000877142 0.009700382128357887 -0.0004889215924777091 0.012105190195143223 -0.030551912263035774 0.018894925713539124 0.011390370316803455 0.025366082787513733 -0.03147827833890915 -0.046626631170511246 0.041485775262117386 -0.003166700480505824 0.03556797280907631 -0.14730069041252136 -0.1317531168460846 -0.04751439392566681 0.04178464412689209 0.0223930012434721 -0.1248241513967514 0.05774760618805885 0.020550401881337166 -0.05667058378458023 0.16851678490638733 0.1778160035610199 -0.0696633905172348 0.05486200377345085 0.0701107531785965 0.009376995265483856 -0.030207732692360878 -0.13172383606433868 -0.009202005341649055 0.04415350779891014 -0.09905349463224411 -0.17703299224376678 -0.030265819281339645 -0.08216971158981323 -0.07835409790277481 0.08429165184497833 -0.12319418042898178 0.0396888293325901 0.056915488094091415 0.027850976213812828 0.052577100694179535 -0.07720579952001572 -0.030833497643470764 0.04815087839961052 -0.1616208851337433 0.07869494706392288 0.02869330160319805 -0.017895042896270752 0.13621456921100616 -0.04914025217294693 -0.0011314722942188382 0.11384199559688568 -0.07620593160390854 -0.06520631909370422 -0.059796109795570374 -0.02132139541208744 -0.054330527782440186 -0.19639824330806732 -0.07853477448225021 -0.14235199987888336 0.013407827354967594 -0.0861465334892273 0.040957797318696976 0.06962133198976517 -0.04649069905281067 -0.09939992427825928 0.06877080351114273 0.13393481075763702 0.06165874004364014 -0.019109750166535378 -0.08097049593925476 -0.07887304574251175 0.0035747108049690723 0.007727370597422123 -0.1031511053442955 0.010713142342865467 0.11218687891960144 0.008580590598285198 0.09160590916872025 -0.05441172048449516 -0.053058575838804245 0.08140937983989716 0.04349279776215553 -0.030908284708857536 0.06068289279937744 -0.009936871007084846 -0.08843305706977844 -0.034272804856300354 0.0010378137230873108 -0.1558404117822647 0.035622090101242065 -0.11188515275716782 0.18078067898750305 0.0646204799413681 0.1288435161113739 0.03318604826927185 -0.12499334663152695 0.11092115193605423 0.16919538378715515 -0.0847645103931427 -0.041275590658187866 0.0631411001086235 -0.0029775649309158325 -0.08850030601024628 0.05310575291514397 -0.0017648414941504598 0.06752500683069229 0.10654617100954056 -0.06446203589439392 -0.16589616239070892 0.0847792774438858 0.01025832537561655 0.06775841861963272 -0.004412079229950905 -0.13453273475170135 0.038423582911491394 -0.06753533333539963 -0.08164079487323761 0.0912691131234169 -0.07599980384111404 0.09459004551172256 -0.03748859092593193 -0.03780319541692734 -0.14681972563266754 -0.1529705822467804 0.02213740162551403 -0.1316550076007843 -0.1183803454041481 0.05137351155281067 0.05879668518900871 0.1605571061372757 -0.15620283782482147 -0.006035531405359507 0.031541574746370316 -0.012356468476355076 -0.005551052279770374 -0.13184301555156708 0.057793933898210526 0.0028723259456455708 -0.037003740668296814 0.005904490128159523 -0.010312729515135288 -0.014455473981797695 -0.014585351571440697 0.000755215180106461 0.0019067063694819808 0.03417167440056801 -0.010843245312571526 0.005235477816313505 0.012387451715767384 0.6404274106025696 0.054804857820272446 0.03268541395664215 0.01344472449272871 -0.02431054599583149 0.0029122924897819757 0.025525018572807312 0.05974937975406647 -0.024646850302815437 0.02952955663204193 0.026928674429655075 0.025998055934906006 -0.019423268735408783 0.04376336187124252 -0.035759419202804565 -0.02191360481083393 -0.03264133632183075 0.026747990399599075 0.005051510874181986 -0.024083735421299934 -0.0077925487421453 0.013072441332042217 -0.024110104888677597 -0.03508139029145241 -0.030478814616799355 0.0020204971078783274 0.010749727487564087 -0.023997783660888672 0.02292938530445099 0.014977325685322285 -0.024719564244151115 -0.011422057636082172 0.020968418568372726 0.022398611530661583 -0.03922948241233826 0.011597000993788242 -0.009156611748039722 0.025237826630473137 0.01524745486676693 0.0006760191172361374 -0.007127828896045685 -0.03305782005190849 -0.018705196678638458 0.011553574353456497 -0.04090053215622902 0.05868048593401909 0.0014508950989693403 0.01285327784717083 -0.007238724734634161 0.01815609633922577 0.00285727228038013 -0.011142510920763016 -0.07325366884469986 -0.008410931564867496 -0.022863510996103287 -0.009045271202921867 0.010321322828531265 0.013764536939561367 0.008063620887696743 0.013900859281420708 -0.0042647612281143665 -0.05107485130429268 -0.00039843644481152296 0.03469017893075943 -0.02589680626988411 -0.029336683452129364 -0.0064828163012862206 -0.021977270022034645 -0.021310867741703987 0.008773167617619038 -0.024643607437610626 0.014208937995135784 -0.02781575731933117 -0.04766090586781502 0.03228873014450073 0.028211694210767746 -0.04621819779276848 0.05236388370394707 -0.016071103513240814 0.000686680490616709 0.0037962300702929497 -0.023340316489338875 -0.015697933733463287 0.011805688962340355 0.030670972540974617 -0.015548675321042538 0.044185835868120193 0.021029694005846977 -0.013048158958554268 0.010150732472538948 0.00039933223160915077 0.0182325579226017 -0.013512051664292812 0.0018576787551864982 -0.007566003128886223 -0.0330437533557415 -0.0002875454956665635 -0.028016945347189903 -0.00916834082454443 0.0276863444596529 0.036406662315130234 0.024779411032795906 -0.029699362814426422 -0.004152537789195776 -0.013544249348342419 -0.044392179697752 -0.010934339836239815 -0.01621195860207081 -0.015588459558784962 -0.027681514620780945 -0.036373320966959 0.010001481510698795 0.03703228384256363 0.028106166049838066 0.009036635980010033 -0.014174492098391056 0.09880479425191879 -0.07978938519954681 0.17412732541561127 -0.1241515651345253 -0.07462840527296066 -0.09971924126148224 0.03311733156442642 -0.10622577369213104 -0.14428697526454926 -0.18639372289180756 0.08613353222608566 0.04489545151591301 -0.1042245551943779 -0.14510880410671234 -0.04109713062644005 -0.04835670813918114 -0.08009275048971176 0.15687119960784912 -0.08153169602155685 0.051482342183589935 0.02539341151714325 0.010039491578936577 0.0546816848218441 0.14919713139533997 0.059258028864860535 -0.02831217087805271 0.13203273713588715 -0.028754908591508865 -0.016375873237848282 0.10735945403575897 -0.0554577074944973 0.1204523891210556 0.08720431476831436 0.02143898978829384 0.08576938509941101 0.0007142231334000826 -0.10160350054502487 -0.015715641900897026 0.06825248152017593 -0.06651796400547028 -0.054132334887981415 0.00708463741466403 0.026953743770718575 0.19085492193698883 0.02229244075715542 0.07367663830518723 -0.10366016626358032 -0.14102758467197418 0.02488892339169979 0.19176028668880463 0.004005515947937965 0.04253486171364784 -0.17196935415267944 0.10389309376478195 0.07587475329637527 -0.009857917204499245 0.10533574968576431 0.05657419189810753 -0.10002296417951584 -0.06563055515289307 0.042250704020261765 -0.04938478395342827 0.04947420582175255 0.023499898612499237 0.08125483244657516 -0.16248030960559845 0.08185169845819473 0.05198679119348526 0.005814061034470797 0.09247056394815445 0.0015555412974208593 -0.027092723175883293 -0.07056141644716263 0.03564988821744919 -0.05887116491794586 -0.03639862313866615 -0.06293512880802155 0.11238124966621399 -0.0051695359870791435 -0.1642400473356247 0.15163549780845642 0.14148451387882233 0.010798384435474873 0.09507957845926285 0.12131628394126892 -0.11010213941335678 -0.02543114870786667 0.0909208431839943 0.044953957200050354 0.045566704124212265 -0.041856225579977036 -0.07818029075860977 0.1083771213889122 0.004668740089982748 -0.02489510178565979 0.16208714246749878 -0.024903874844312668 0.0008344021625816822 -0.05900745093822479 0.02399672009050846 0.02760918252170086 0.014173803851008415 0.023057982325553894 0.15853846073150635 0.02296927385032177 0.07603652030229568 -0.17894068360328674 0.003542977152392268 -0.22616994380950928 0.11736565083265305 0.0987791046500206 0.03939823806285858 -0.09729965776205063 -0.07686492800712585 -0.07043997943401337 0.08031751960515976 0.012346512638032436 -0.0931309312582016 0.062094368040561676 -0.016134195029735565 0.03024662658572197 0.025526942685246468 -0.02858928218483925 -0.0002464743738528341 0.0321517139673233 -0.05984915420413017 -0.1004810631275177 -0.05315092206001282 0.02653428539633751 -0.007664989680051804 -0.027324020862579346 0.04072408378124237 0.0210314579308033 -0.0118905333802104 -0.008793940767645836 0.019040299579501152 0.02201060578227043 -0.0006737891235388815 0.02702263556420803 0.022505516186356544 0.032414428889751434 0.7071095108985901 0.01914149336516857 -0.011285297572612762 0.007526250556111336 0.02304679900407791 0.004266435280442238 0.00688942288979888 0.010451843962073326 0.0008225141209550202 0.012793668545782566 0.04198814183473587 -0.029626181349158287 0.025588667020201683 0.014583800919353962 0.0331602543592453 -0.023023199290037155 -0.030458806082606316 0.02185550332069397 0.03884855657815933 0.012754383496940136 0.04869808256626129 0.020604614168405533 0.0005749355768784881 0.025097209960222244 0.007477262988686562 0.012207534164190292 0.006962556857615709 -0.020236367359757423 -0.012180653400719166 0.05325736477971077 -0.008696839213371277 -0.029575979337096214 0.0018104583723470569 0.023883599787950516 0.004029502626508474 0.038682978600263596 -0.01804550178349018 -0.027528757229447365 -0.02994677424430847 0.0008284703362733126 -0.0016764117171987891 0.04322929307818413 -0.010415718890726566 0.006818637251853943 -0.03533726558089256 -0.014464062638580799 0.029049042612314224 -0.0641794204711914 -0.013265932910144329 0.020583845674991608 -0.01830834150314331 0.03584533557295799 -0.035444390028715134 0.015373311936855316 -0.010676000267267227 -0.018917158246040344 0.0045821936801075935 -0.03078366443514824 -0.00747842388227582 -0.025365706533193588 0.018309392035007477 -0.0011731928680092096 -0.0066465651616454124 0.008794418536126614 0.020044390112161636 -0.013397890143096447 0.033694423735141754 -0.02427135407924652 -0.0023632380180060863 -0.027614902704954147 0.015514260157942772 -0.02464246191084385 0.04881758987903595 -0.011245273984968662 -0.024341614916920662 -0.013082724064588547 -0.07113649696111679 0.04803384840488434 0.0109940804541111 0.0012587972451001406 -0.002031742362305522 -0.002539956010878086 0.007543997373431921 0.021092431619763374 0.02137935720384121 0.01186626311391592 0.00879512820392847 -0.02218812145292759 0.047996584326028824 0.016324441879987717 0.021884851157665253 -0.009928756393492222 -0.0030873429495841265 -0.03346370533108711 0.002992111025378108 -0.045477598905563354 0.021576082333922386 0.0185264740139246 0.008419225923717022 -0.016752170398831367 -0.006251406855881214 -0.017480632290244102 -0.04914417117834091 0.05467034503817558 0.0325506366789341 0.05059948191046715 -0.00267961947247386 0.017361659556627274 -0.008144977502524853 -0.057217951864004135 0.021370142698287964 0.019400138407945633 -0.027639655396342278 -0.020505979657173157 -0.015985064208507538 0.25042831897735596 0.11379840224981308 -0.050343889743089676 -0.1144697293639183 0.03193632885813713 -0.017251262441277504 -0.10496602207422256 -0.08041452616453171 0.05961456522345543 0.050111476331949234 -0.05875326693058014 -0.005149290896952152 0.04466547816991806 -0.0051476904191076756 0.15937736630439758 0.006048631388694048 0.0685536116361618 -0.004206623416393995 0.0623178668320179 0.10857243090867996 0.12401486933231354 0.09091270714998245 -0.006632750388234854 -0.06531424075365067 -0.010652524419128895 0.03583502396941185 -0.09994561225175858 0.04835212603211403 -0.05289330333471298 0.0173223577439785 0.03957091271877289 0.01607300527393818 -0.06646806001663208 0.039471328258514404 0.048573873937129974 -0.0752246305346489 0.09273970127105713 0.02680378220975399 -0.05980737507343292 0.12240222841501236 0.18895848095417023 -0.013120532967150211 -0.08065660297870636 0.08266826719045639 -0.056362610310316086 0.048940259963274 0.030705908313393593 -0.008106454275548458 -0.1080944836139679 0.06903140246868134 -0.08411930501461029 0.09839793294668198 -0.13144440948963165 -0.20337767899036407 -0.010735836811363697 -0.055182211101055145 0.03735281899571419 0.09738268703222275 -0.06279943138360977 -0.0033013334032148123 -0.011701136827468872 -0.07616312801837921 -0.08254757523536682 -0.1731065958738327 0.011785941198468208 -0.007997121661901474 -0.01407382357865572 0.19285045564174652 -0.15046529471874237 -0.04190522059798241 0.13055509328842163 -0.20016278326511383 -0.03258350118994713 -0.040210891515016556 0.04524267837405205 -0.008048020303249359 0.09500844776630402 -0.06267940253019333 0.1303170919418335 -0.03090280294418335 0.021526573225855827 -0.007352130021899939 -0.04692550376057625 0.0635756105184555 -0.08357012271881104 -0.03195308521389961 0.03166725113987923 0.1044580265879631 0.13409385085105896 -0.015802180394530296 0.0200131107121706 -0.005315908696502447 -0.007136480417102575 0.05950699374079704 -0.0430443100631237 -0.019934847950935364 -0.06215546652674675 -0.00457550585269928 -0.053631965070962906 0.035330433398485184 -0.03456801548600197 -0.03900550678372383 0.032471392303705215 0.03933451324701309 -0.12106899172067642 0.08441204577684402 -0.01500669214874506 0.1226269006729126 0.15837958455085754 -0.08727385848760605 0.07907306402921677 -0.039478447288274765 -0.1040106862783432 -0.013658761978149414 0.014786146581172943 -0.02895525097846985 -0.05967995524406433 0.08228825032711029 -0.024081801995635033 0.10850665718317032 0.044672541320323944 -0.12345317751169205 -0.12290765345096588 -0.027054114267230034 0.029591426253318787 0.04732359200716019 -0.01943393424153328 0.14422547817230225 -0.025379661470651627 -0.030972924083471298 0.002216943772509694 -0.022340593859553337 -0.004940413869917393 0.0142589146271348 0.015409983694553375 0.004682239610701799 -0.02278422750532627 -0.014386006630957127 -0.017603209242224693 -0.005542525555938482 -0.05057280883193016 0.03306752070784569 0.6853958964347839 -0.0018523038597777486 -0.003576289163902402 -0.013528055511415005 0.037591397762298584 -0.0020111047197133303 -0.0220988467335701 0.007577315904200077 0.033180657774209976 0.01452771294862032 -0.0014307721285149455 -0.011245958507061005 -0.011034736409783363 0.004323293920606375 -0.030848633497953415 0.012464986182749271 0.03967449069023132 0.02060537599027157 0.0008386644185520709 0.005076687783002853 -0.03322017192840576 0.006648395676165819 -0.01790449023246765 -0.003254813374951482 -0.014757552184164524 -0.011223128996789455 0.026830535382032394 -0.0008706913213245571 -0.022219540551304817 0.012566832825541496 -0.018910368904471397 -0.026365092024207115 -0.025350578129291534 0.007992887869477272 -0.009146498516201973 0.02942804992198944 0.014128963463008404 -0.008552739396691322 -0.008393241092562675 0.027787046507000923 0.00745816295966506 0.022663267329335213 -0.03173373267054558 0.04180547595024109 0.02343776635825634 0.016499416902661324 -0.010319973342120647 0.028954045847058296 0.0007697984692640603 0.016827868297696114 -0.04431627318263054 0.024945642799139023 -0.01317946519702673 0.0036920076236128807 -0.03998824581503868 -0.011339480988681316 -0.0007886814419180155 0.023014254868030548 0.058713365346193314 -0.03956655040383339 -0.0001249518827535212 0.01982448250055313 -0.0035582149866968393 -0.023299595341086388 0.022211071103811264 -0.027650026604533195 0.005634906701743603 0.004027004819363356 0.021803822368383408 0.004544400610029697 0.0005060767871327698 -0.008826564066112041 0.03509855270385742 0.014455663040280342 -0.01393389143049717 0.012151305563747883 0.022289324551820755 1.981146306206938e-05 -0.020868919789791107 0.02332158200442791 -0.017809519544243813 -0.007008520886301994 0.02818155847489834 -0.025808200240135193 0.007147438358515501 0.023721348494291306 0.03637142851948738 -0.011495961807668209 -0.01947638764977455 0.0008189031505025923 0.006545575801283121 0.01405306626111269 0.014036846347153187 0.02600845694541931 -0.010139573365449905 -0.03668073192238808 0.006017674691975117 -0.0006381773273460567 0.01743932254612446 -0.012397034093737602 0.038967669010162354 -0.02097405306994915 -0.020373210310935974 -0.0034189943689852953 -0.01909652352333069 -0.0016702839639037848 0.0031628860160708427 0.011698940768837929 0.0057244920171797276 -0.0023032270837575197 -0.014067932963371277 -0.005243061110377312 -0.008826447650790215 -0.012021911330521107 0.06630122661590576 0.10223784297704697 0.08653371781110764 -0.15684324502944946 -0.06780426949262619 -0.06479605287313461 -0.04484166204929352 -0.05572151392698288 -0.08814220875501633 0.07632002979516983 0.021242666989564896 -0.16545425355434418 -0.08402933925390244 -0.17158520221710205 0.10642870515584946 -0.02120724320411682 -0.0894157662987709 -0.02069733664393425 0.03984427824616432 0.17653369903564453 -0.012535355985164642 -0.08588586747646332 0.012516932561993599 0.12437770515680313 0.13256122171878815 0.019169019535183907 0.027941573411226273 0.18096497654914856 0.010062364861369133 0.055350590497255325 0.02419208735227585 -0.046844132244586945 0.08418498933315277 0.14482010900974274 -0.08013541996479034 0.06509409844875336 -0.1229032576084137 -0.0739765465259552 -0.09116422384977341 0.09854167699813843 -0.0966704860329628 -0.05557684972882271 0.08109451830387115 0.011658287607133389 -0.006743278354406357 0.06115210801362991 0.056498102843761444 0.0892936959862709 -0.022136295214295387 -0.1516234427690506 0.046423956751823425 -0.013166467659175396 -0.048712264746427536 -0.06754245609045029 -0.13430151343345642 -0.09944639354944229 -0.10916057229042053 0.08054322004318237 -0.05269552022218704 -0.11921441555023193 0.2082916498184204 -0.08371876180171967 -0.08019881695508957 -0.15889759361743927 0.01584114320576191 -0.04456881433725357 -0.06998544931411743 -0.10718722641468048 -0.022409239783883095 -0.08978164941072464 -0.1427813023328781 0.1271178424358368 0.09426295757293701 0.008529932238161564 0.08615938574075699 -0.016212671995162964 0.014218843542039394 0.1020660549402237 0.03580606356263161 0.12991519272327423 -0.15565097332000732 0.0009449799545109272 0.2074989229440689 -0.022846583276987076 -0.05257553607225418 0.05876361206173897 -0.022589795291423798 -0.03401186317205429 -0.1359814554452896 -0.009401236660778522 -0.14130859076976776 0.06025443226099014 0.005332666914910078 0.057820823043584824 0.008199168369174004 -0.01817607693374157 0.062072914093732834 0.03862500563263893 0.08704794943332672 0.02555370330810547 -0.038177382200956345 -0.02700028382241726 -0.09087453037500381 -0.007148924749344587 -0.0036395746283233166 0.05174585059285164 -0.07311288267374039 -0.0509994775056839 0.02463357150554657 -0.15007717907428741 -0.18093153834342957 0.06889870017766953 0.025859711691737175 0.08686771243810654 -0.06354570388793945 0.021856747567653656 -0.08308151364326477 -0.08298570662736893 0.007349992170929909 0.04459551349282265 0.09819910675287247 -0.10163390636444092 -0.013081993907690048 0.14540429413318634 0.10972265899181366 0.07249290496110916 0.07687558233737946 0.13011667132377625 0.02094579115509987 0.016074873507022858 0.015475062653422356 0.010903683491051197 0.0073754494078457355 -0.02205612324178219 -0.024086598306894302 0.0064519545994699 0.043694738298654556 0.006251059006899595 0.019984101876616478 -0.0181176345795393 0.015632499009370804 -0.010024222545325756 -0.012757775373756886 0.6695365309715271 0.034897204488515854 -0.006669006776064634 -0.03647518530488014 0.005679552908986807 0.018420469015836716 -0.0026361634954810143 -0.007417257409542799 0.024357637390494347 0.005674808286130428 -0.0006595182931050658 0.017265217378735542 -0.01573975197970867 0.03029814176261425 -0.026776336133480072 -0.02168801985681057 0.016834108158946037 0.012659022584557533 -0.003344924421980977 -0.007617125753313303 0.003663791110739112 0.06600501388311386 -0.05904518440365791 -0.024635428562760353 0.030307883396744728 0.0015008773189038038 -0.018347879871726036 0.03274018317461014 0.024902664124965668 0.011745679192245007 -2.2954998712521046e-05 0.0015718324575573206 0.010770175606012344 0.03342059627175331 0.010171384550631046 0.018448639661073685 0.0011686345096677542 -0.04960204288363457 -0.019388869404792786 -0.026060519739985466 0.01713920198380947 0.029649248346686363 0.0048045204021036625 0.013825644738972187 -0.029769571498036385 0.005605963058769703 -0.002368647838011384 -0.02458636648952961 0.046682361513376236 0.023380259051918983 -0.031851667910814285 0.03211553022265434 -0.009045857936143875 0.001061544637195766 0.03406878188252449 0.011622270569205284 -0.01584009826183319 -0.0200470183044672 0.02761007845401764 -0.029628435149788857 -0.00793097261339426 0.03562816604971886 0.033059582114219666 0.0107384342700243 -0.006655004806816578 0.005440209526568651 -0.0031506596133112907 -0.014418883249163628 -0.0220986045897007 0.012273282743990421 0.023043660447001457 -0.03140493109822273 -0.047036733478307724 -0.031816378235816956 -0.04319113492965698 -0.008419145829975605 -0.006231785751879215 -0.05217115953564644 -0.004040675237774849 -0.00047901389189064503 -0.029760567471385002 -0.011369469575583935 0.00857863575220108 -0.013879980891942978 0.01042136549949646 -0.014302083291113377 -0.015740666538476944 0.013514374382793903 0.004346167668700218 -0.0205313079059124 -0.03712277486920357 -0.027159877121448517 0.012414617463946342 -0.006159770302474499 0.023603470996022224 0.004760012961924076 0.032849881798028946 0.016406036913394928 0.019891366362571716 -0.02517012692987919 0.013971446081995964 -0.020934196189045906 -0.0012852904619649053 -0.00036296824691817164 0.009309181943535805 -0.01927833817899227 -0.0012454994721338153 0.025446871295571327 -0.015134013257920742 -0.010284245014190674 0.007206228096038103 -0.01999369077384472 0.002196203451603651 0.11882655322551727 -0.03067633882164955 0.006627455819398165 0.02084372751414776 -0.038321539759635925 0.07001738995313644 -0.05661154165863991 -0.018189528957009315 0.05692790076136589 0.0961078628897667 -0.07574157416820526 0.009865839965641499 0.13318859040737152 -0.00027171216788701713 -0.10909748077392578 -0.03784153237938881 -0.12681648135185242 -0.17337827384471893 -0.1116584837436676 -0.058502718806266785 0.06298233568668365 0.06711416691541672 0.018041357398033142 -0.05834099277853966 -0.09608203172683716 -0.13568593561649323 -0.053648483008146286 0.1475105732679367 0.0018443745793774724 0.06914778798818588 -0.04302070289850235 0.06373076140880585 -0.024433521553874016 0.10752393305301666 -0.06157580390572548 0.056852731853723526 0.07892254739999771 0.11334820091724396 -0.06934899091720581 0.08852481096982956 -0.08780193328857422 -0.12051041424274445 0.0017522437265142798 0.035642631351947784 0.13523462414741516 0.08159592747688293 -0.08843184262514114 -0.001460238010622561 0.04898647218942642 0.02938779629766941 0.047600749880075455 -0.06012541800737381 -0.12030867487192154 -0.032851945608854294 0.0300111323595047 -0.048463549464941025 0.13626255095005035 -0.014589715749025345 0.07276471704244614 -0.1257936954498291 0.04373149573802948 -0.03838910162448883 -0.045724332332611084 0.11178232729434967 0.144222691655159 -0.07306140661239624 0.025452928617596626 -0.012885051779448986 -0.0037452958058565855 -0.05644693970680237 -0.05318085476756096 -0.021291904151439667 0.05926511436700821 0.025626352056860924 0.11211393028497696 0.02232426591217518 -0.033264607191085815 0.1573513001203537 0.03180433064699173 -0.042308684438467026 0.019354727119207382 -0.10905057191848755 0.12736186385154724 -0.10655966401100159 0.014720631763339043 0.02792169339954853 0.12272041290998459 -0.005048519466072321 -0.04250500351190567 -0.10870497673749924 0.04684769734740257 0.03411676362156868 0.1619214564561844 -0.103819340467453 0.1040964126586914 -0.058516450226306915 -0.18430346250534058 0.06360572576522827 -0.03803504258394241 0.0266654621809721 -0.02082890458405018 -0.019149258732795715 0.052944645285606384 -0.02265186794102192 0.021646905690431595 -0.1268039494752884 -0.0006309399614110589 -0.028729263693094254 0.1442393660545349 0.023289086297154427 -0.07366398721933365 0.10770228505134583 -0.020988231524825096 0.06852944940328598 0.0034578517079353333 -0.03842703625559807 -0.06314742565155029 -0.011140432208776474 0.05109787359833717 0.014555352739989758 -0.09558822959661484 0.020779293030500412 -0.10588984191417694 0.07014302164316177 -0.024158312007784843 -0.0019990545697510242 -0.04003707692027092 -0.02747114561498165 0.005592043045908213 0.036860715597867966 -0.02597307413816452 -0.016252504661679268 0.017224488779902458 0.018135935068130493 -0.013724589720368385 -0.0007839099853299558 -0.03228641673922539 -0.020485229790210724 0.0008534545777365565 0.040024809539318085 -0.0013479016488417983 -0.020152945071458817 0.0065467082895338535 -0.017426881939172745 0.6732947826385498 -0.020630614832043648 0.017468715086579323 -0.010661941021680832 -0.03747865930199623 0.021138856187462807 0.009972752071917057 0.016831887885928154 0.023608626797795296 -0.008657447062432766 0.020534507930278778 -0.03207002952694893 -0.013515165075659752 0.013490830548107624 -0.00661447923630476 0.001382780959829688 0.006619966588914394 0.029559409245848656 0.010883253999054432 -0.0029045981355011463 -0.005866010207682848 -0.042632248252630234 0.006425953004509211 -0.013097508810460567 0.0012101138709113002 -0.0031842715106904507 0.016211314126849174 -0.011808030307292938 -0.009805488400161266 -0.000879394356161356 -0.004264612216502428 0.008795064873993397 0.005909205414354801 -0.003477097488939762 -0.02737080119550228 -0.010015364736318588 0.0007590676541440189 0.02915356121957302 0.04476629197597504 0.005751129239797592 -0.010090633295476437 -0.03492173179984093 -0.02050977386534214 0.0212419256567955 0.001552187604829669 -0.009584985673427582 -0.0019959008786827326 0.023463120684027672 0.04583071172237396 0.0424322634935379 0.019360188394784927 -0.036496371030807495 -0.017153440043330193 -0.005485194269567728 -0.017559973523020744 0.011968805454671383 0.02780526876449585 -0.011027636006474495 -0.008116322569549084 -0.027753254398703575 -0.002084696665406227 0.016586408019065857 -0.018250038847327232 -0.008423550985753536 0.007925470359623432 0.017807243391871452 0.007862262427806854 -0.0037603178061544895 0.04251696169376373 -0.0027300792280584574 -0.010194752365350723 -0.018716974183917046 0.01636708341538906 -0.01684071682393551 0.024420566856861115 0.023836759850382805 0.012859213165938854 0.005902331788092852 -0.010716616176068783 0.0393894724547863 0.005871937610208988 -0.03198334947228432 -0.00752329220995307 -0.024234183132648468 0.00854033138602972 -0.011910555884242058 -0.021529408171772957 0.004144384991377592 -0.01049978006631136 -0.020671362057328224 -0.026034798473119736 0.019429530948400497 0.014079869724810123 0.00971569400280714 0.02716982737183571 -0.021958548575639725 -0.00014305148215498775 -0.028637176379561424 -0.0017861634260043502 0.00043006977648474276 0.027400264516472816 -0.009056047536432743 -0.01914825662970543 0.00030610751127824187 -0.02776590920984745 0.015509498305618763 0.007980000227689743 0.041097983717918396 -0.02641136571764946 -0.051332537084817886 0.0166851207613945 -0.019152088090777397 -0.15201501548290253 -0.06676138937473297 -0.021497592329978943 0.08392220735549927 -0.03827467933297157 0.009718658402562141 -0.011917411349713802 0.09423458576202393 0.048112981021404266 0.09562844038009644 -0.09069236367940903 0.10823012888431549 0.019979771226644516 -0.08401261270046234 0.02423395961523056 -0.04701203107833862 0.17182816565036774 0.05282070115208626 0.06842470914125443 0.04983663558959961 0.018816441297531128 -0.08411509543657303 0.022175518795847893 0.0049788858741521835 -0.004516231827437878 -0.0609680637717247 -0.061463598161935806 -0.010582714341580868 -0.10097158700227737 0.11692764610052109 0.06451313942670822 -0.026619233191013336 -0.02206459268927574 -0.08030755072832108 0.07668276876211166 0.07657056301832199 0.10917408019304276 -0.16452044248580933 0.14757832884788513 -0.035815462470054626 0.026750169694423676 -0.10718090087175369 -0.009338448755443096 -0.14665178954601288 0.02544783242046833 0.01021756511181593 0.008367417380213737 -0.09103091061115265 0.11451268196105957 0.006764349061995745 0.09388177841901779 -0.04241969436407089 -0.0605783686041832 -0.055387597531080246 -0.02941889502108097 0.04384121298789978 -0.03143563121557236 -0.08737476170063019 0.07291308790445328 1.6755031538195908e-05 0.05437680333852768 -0.0037157637998461723 -0.08955655246973038 -0.09681975841522217 0.15481549501419067 -0.1569126695394516 -0.01282897125929594 0.04836641252040863 0.09688963741064072 0.020039409399032593 0.08063238114118576 0.033214688301086426 0.01262998953461647 -0.03974629193544388 -0.17969350516796112 0.048375558108091354 0.11775520443916321 -0.053296543657779694 0.12796346843242645 0.12392903864383698 0.0747118592262268 0.02157975360751152 0.04332264885306358 0.028155062347650528 -0.14132657647132874 -0.02932552620768547 0.1695006787776947 -0.10540611296892166 -0.060243863612413406 -0.042628150433301926 0.09924418479204178 -0.08603890985250473 0.01233480405062437 -0.10254824906587601 0.042697083204984665 -0.14229954779148102 0.03326517343521118 0.07027248293161392 -0.14512071013450623 0.024674467742443085 -0.0625673159956932 -0.004037686623632908 0.08885330706834793 0.16642773151397705 -0.02819744683802128 0.0704413503408432 -0.022468838840723038 0.1861896961927414 -0.039815112948417664 -0.01624246872961521 0.035983286798000336 0.03537106513977051 0.07525726407766342 0.16450661420822144 -0.013987199403345585 -0.061136480420827866 0.0014402493834495544 -0.08657827973365784 0.059353746473789215 0.03661303222179413 0.11735919862985611 -0.1181979849934578 0.22252626717090607 0.004754519090056419 0.004675227217376232 0.04286166653037071 -0.015053408220410347 -0.06015034765005112 0.012098098173737526 -0.012938288040459156 0.020755693316459656 0.01313523668795824 -0.0034876500722020864 -0.006534690503031015 -0.029073018580675125 -0.012686065398156643 0.003828633576631546 -0.05577680841088295 -0.0071586724370718 -0.008581425994634628 -0.0010875168954953551 -0.020263101905584335 -0.017375610768795013 -0.004037072882056236 -5.242267798166722e-05 0.6833876967430115 -0.02072135917842388 0.0050378357991576195 -0.011911733075976372 0.014071364887058735 -0.004834435880184174 -0.017320018261671066 0.022657573223114014 0.004449102561920881 -0.06060422956943512 -0.038757264614105225 0.003616385394707322 0.025634439662098885 -0.04135102406144142 0.0014863667311146855 -0.008130436763167381 -0.0166777390986681 -0.020493801683187485 -0.04641767218708992 -0.015183158218860626 -0.001088256947696209 0.00021242417278699577 -0.012671582400798798 0.018989071249961853 -0.01081880833953619 -0.033405601978302 0.0179873276501894 0.005439308006316423 0.006103821098804474 -0.01474328525364399 -0.004415749106556177 0.013088062405586243 -0.00984919909387827 -0.003424675902351737 0.008508601225912571 -0.04735049232840538 0.009226275607943535 0.005594732705503702 0.0026400755159556866 0.049270570278167725 0.004056922625750303 0.04089398309588432 -0.004337960388511419 0.01194534171372652 0.023516880348324776 -0.005537920165807009 0.006584533955901861 -0.030649663880467415 0.017177538946270943 -0.009523099288344383 -0.009294217452406883 -0.0014141881838440895 -0.00334048829972744 0.0038982934784144163 -0.020913202315568924 -0.00947331078350544 -0.00433602649718523 -0.0011807966511696577 0.014236386865377426 0.024419981986284256 0.0076844110153615475 -0.035438161343336105 -0.031388670206069946 0.025007890537381172 -0.0005643442855216563 -0.025623517110943794 -0.043635107576847076 0.041215382516384125 -0.042397551238536835 -0.009698810055851936 -0.02559402398765087 0.03326614201068878 0.04419802874326706 -0.001443380955606699 0.03602944314479828 -0.024070335552096367 -0.01973811164498329 0.018856126815080643 -0.011709819547832012 -0.012198972515761852 0.011825773864984512 0.0231255441904068 -0.00020569897606037557 -0.019629817456007004 -0.013500277884304523 -0.04634101316332817 -0.023657705634832382 -0.004930866416543722 -0.01850566826760769 -0.020858431234955788 0.020289408043026924 -0.0039244298823177814 0.005988693796098232 -0.015020156279206276 0.010321378707885742 0.0009781267726793885 0.023024121299386024 -0.0006689748261123896 0.05326887220144272 0.0015883917221799493 -0.010993540287017822 0.010218198411166668 0.025111649185419083 -0.030742652714252472 -0.004534152336418629 0.04106416180729866 0.020659809932112694 -0.015569496899843216 0.002246998017653823 0.04798877611756325 0.013753646053373814 -0.12309501320123672 0.08972198516130447 0.009311052039265633 -0.07156187295913696 -0.13061967492103577 -0.021343892440199852 -0.07141346484422684 -0.02066659927368164 0.007464130874723196 -0.03527526929974556 0.023457543924450874 0.09160614013671875 0.009924137964844704 -0.04775846004486084 0.015622446313500404 0.06982526183128357 -0.006859739776700735 -0.08010667562484741 -0.006157162133604288 -0.05691654235124588 0.09974705427885056 0.09240532666444778 -0.028841601684689522 0.08868718892335892 0.07551022619009018 -0.02428046055138111 -0.1258331686258316 -0.031085262075066566 0.04262951761484146 0.02335738204419613 0.00477256765589118 0.0014432402094826102 0.039859503507614136 -0.12045349180698395 -0.03771441429853439 -0.07965445518493652 0.07396678626537323 0.17380955815315247 -0.039050642400979996 0.001451617106795311 -0.04835078492760658 0.1747630089521408 0.018814347684383392 -0.1323195844888687 0.10704466700553894 0.1025896966457367 -0.019961528480052948 -0.1077713817358017 -0.11474242806434631 0.04516831040382385 0.0779123455286026 0.0726628229022026 -0.004474894143640995 0.06420329213142395 -0.14702439308166504 0.1645468771457672 0.09839945286512375 0.015027852728962898 -0.11760906875133514 -0.15680836141109467 -0.017219098284840584 0.012839852832257748 -0.008953094482421875 0.05660150945186615 0.10896769165992737 0.1238638162612915 -0.04643821343779564 -0.09452129155397415 0.11499454081058502 0.060495875775814056 0.008419550023972988 -0.09068405628204346 -0.030158651992678642 0.0990586057305336 0.13248948752880096 0.0372583232820034 0.007122938521206379 -0.058030299842357635 -0.023162780329585075 -0.05480388551950455 -0.009456025436520576 -0.003114467952400446 0.04282010719180107 0.048277560621500015 -0.07453864812850952 -0.024109676480293274 -0.09123292565345764 -0.038550589233636856 0.023216374218463898 -0.004160634707659483 0.019930269569158554 -0.013651322573423386 0.054647982120513916 -0.006359975319355726 -0.03367028385400772 0.04370015859603882 0.029225165024399757 -0.14367525279521942 -0.051516592502593994 -0.11186081171035767 0.049287281930446625 -0.047816645354032516 -0.05587875470519066 -0.09025431424379349 0.2606339752674103 -0.134138822555542 -0.11775289475917816 0.05731330066919327 -0.18646560609340668 0.009097864851355553 -0.05957489833235741 0.002202811185270548 0.02021142467856407 0.08346304297447205 -0.035131778568029404 0.1650175303220749 0.023850947618484497 0.08265312016010284 0.022597502917051315 0.021414844319224358 0.08987735211849213 0.05048363655805588 0.10344617068767548 0.009953184053301811 0.11250284314155579 0.1326904445886612 -0.012969911098480225 0.020011546090245247 0.05077745020389557 0.020336810499429703 -0.03529147058725357 0.03154196962714195 0.03478012979030609 -0.005414966028183699 -0.010380597785115242 -0.014598187059164047 -0.0317518524825573 -0.00515069579705596 0.039256468415260315 -0.01707245409488678 0.025481436401605606 -0.04176308959722519 0.025882644578814507 -0.04177992418408394 0.028833430260419846 0.021903973072767258 0.6512018442153931 0.002047192770987749 0.03271697834134102 0.0013819299638271332 -0.028087325394153595 0.0006978011806495488 -0.0139527078717947 0.031332504004240036 